{"tool_embed.weight": [[2.109419107437134, 1.4525827169418335, 0.6970673203468323, -2.040336847305298], [0.77898770570755, -1.2343121767044067, -0.07544761151075363, -1.527972936630249], [-0.7645878195762634, 1.6175646781921387, -0.33452001214027405, -1.2217012643814087], [-1.0325223207473755, 0.0447479747235775, -2.3887951374053955, -0.3337461054325104], [-0.00011809767602244392, -4.640036965763983e-10, 6.937104225566113e-39, 0.0028878834564238787], [-3.721585742278373e-20, 2.0262299352658984e-39, -5.826301940903278e-11, -3.290650966893932e-39], [-1.6983754634857178, 1.1885592937469482, -0.7884677052497864, -0.9221336841583252]], "conv3.weight": [[[0.02490832842886448, -0.033890966325998306, 0.1992555409669876], [0.008506218902766705, 0.08334393054246902, -0.047276221215724945], [-0.22097676992416382, 0.034426648169755936, -0.19348439574241638], [0.14937801659107208, 0.06114308908581734, 0.053740136325359344], [-0.1641547828912735, -0.10593453794717789, -0.02353370189666748], [-0.10280721634626389, -0.1645575910806656, -0.13244666159152985], [0.011288484558463097, -0.1983402967453003, 0.16517043113708496], [-0.026734279468655586, 0.053601380437612534, -0.06547452509403229], [-0.14744260907173157, -0.06717170029878616, 0.13987834751605988], [-0.04491483420133591, 0.2953189015388489, -0.2823334336280823], [-0.09123853594064713, -0.13664190471172333, -0.00989584531635046], [0.0015143097843974829, -0.13058757781982422, 0.10403343290090561], [-0.15184836089611053, -0.2636620104312897, 0.02103014849126339], [-0.1283285915851593, 0.08375722914934158, -0.005054830107837915], [0.1320803016424179, -0.10203037410974503, 0.01841968484222889]], [[-0.08440902084112167, -0.17754049599170685, -0.16831205785274506], [0.0907878652215004, 0.21963801980018616, -0.0683145523071289], [-0.20638228952884674, 0.13454356789588928, -0.10913247615098953], [-0.0420060008764267, -0.1729416698217392, -0.16960199177265167], [-0.1267474740743637, -0.04530893266201019, -0.26779183745384216], [-0.0883026123046875, 0.015425021760165691, -0.059614431113004684], [-0.0761931911110878, 0.014408417046070099, -0.03689350187778473], [0.15938279032707214, 0.15426982939243317, 0.2258789986371994], [-0.07993078231811523, -0.22533701360225677, -0.07076624780893326], [0.024583332240581512, -0.2301846146583557, -0.04638117551803589], [-0.033833906054496765, -0.05860402062535286, -0.046264033764600754], [-0.03920884430408478, -0.0787445455789566, -0.11419513076543808], [-0.23054616153240204, -0.1022554412484169, -0.14362245798110962], [0.12730474770069122, 0.0614163838326931, 0.15071742236614227], [0.002901948755607009, -0.008665014989674091, 0.07688713818788528]], [[-0.0564182847738266, -0.037563081830739975, -0.2997559607028961], [-0.11478201299905777, -0.12247335910797119, 0.030002115294337273], [0.05078967660665512, -0.19418442249298096, 0.007384927943348885], [-0.08950820565223694, 0.09596551954746246, 0.05844468995928764], [0.09964213520288467, -0.09503152966499329, 0.08711212128400803], [-0.08938708901405334, -0.030449168756604195, -0.06895080208778381], [0.06575939059257507, -0.11346819996833801, 0.2778065800666809], [-0.1714586615562439, 0.21162310242652893, 0.07517538219690323], [-0.06021324545145035, -0.03710880130529404, 0.15338850021362305], [-0.15782593190670013, -0.04403820261359215, -0.2987728714942932], [-0.07426299154758453, 0.022012995555996895, -0.08519648760557175], [0.33484140038490295, -0.01623881235718727, -0.2470167875289917], [-0.18540024757385254, -0.30137646198272705, -0.018959352746605873], [-0.09989497810602188, -0.08708997815847397, 0.023170724511146545], [-0.025857258588075638, 0.02600213512778282, 0.10953912138938904]], [[-0.03508194908499718, 0.2557460069656372, 0.06763241440057755], [-0.015485825948417187, 0.07509325444698334, 0.04330234229564667], [0.08444391191005707, 0.040049292147159576, -0.026881515979766846], [-0.020982954651117325, -0.0036860432010143995, 0.013705000281333923], [-0.14712944626808167, 0.02374057099223137, 0.07647957652807236], [0.018691830337047577, 0.01885906793177128, 0.09016656875610352], [-0.018452363088726997, 0.1053752675652504, 0.06529442965984344], [0.002492903731763363, 0.12442145496606827, 0.20501431822776794], [0.028509922325611115, 0.10234139859676361, -0.14035095274448395], [0.09092509001493454, -0.2782050371170044, -0.009924259968101978], [-0.0922013446688652, 0.19351325929164886, 0.11010123044252396], [-0.054129987955093384, -0.18479368090629578, 0.049814485013484955], [0.2942086458206177, -0.16068917512893677, -0.06877980381250381], [0.15030980110168457, -0.039697255939245224, -0.12453353404998779], [0.09834767132997513, -0.11568310856819153, -0.11245985329151154]], [[-0.11768633127212524, 0.04585561901330948, 0.10807311534881592], [0.03576304018497467, -0.2598298490047455, -0.21226373314857483], [-0.03359058499336243, 0.07348018139600754, 0.10204873979091644], [0.13732248544692993, 0.15948191285133362, 0.05798684433102608], [0.011383788660168648, -0.022487975656986237, -0.07025757431983948], [-0.058608654886484146, 0.11407463252544403, -0.12002285569906235], [-0.014453331008553505, -0.041907720267772675, -0.2753225266933441], [0.05216217786073685, -0.11368442326784134, 0.1012173742055893], [-0.039775531738996506, 0.07478244602680206, 0.0021553528495132923], [-0.09919871389865875, 0.017267879098653793, 0.11324971914291382], [-0.10828297585248947, -0.10666096210479736, 0.4447796046733856], [0.009978988207876682, -0.11556938290596008, -0.046015866100788116], [-0.09204547852277756, -0.15084005892276764, -0.2811411917209625], [-0.11810808628797531, 0.0048446450382471085, 0.15521933138370514], [0.052899688482284546, 0.10536816716194153, -0.0009583997307345271]], [[-0.21092361211776733, 0.1447533518075943, -0.0956559106707573], [0.13102968037128448, -0.10219172388315201, 0.036297593265771866], [0.0028546431567519903, -0.10865660756826401, 0.07169399410486221], [0.048741415143013, -0.13568061590194702, 0.05359836295247078], [-0.19068500399589539, 0.019184857606887817, -0.08294142037630081], [-0.24741338193416595, -0.1911025047302246, -0.22260838747024536], [-0.017601465806365013, 0.042488593608140945, 0.0969267189502716], [0.052426937967538834, 0.05654817447066307, -0.2087482064962387], [-0.2227209359407425, 0.06985672563314438, -0.048477545380592346], [-0.18968452513217926, 0.10979513823986053, -0.24705633521080017], [-0.1761302351951599, 0.06519881635904312, 0.02542208507657051], [-0.02108033187687397, -0.10588283091783524, -0.3713613450527191], [0.21017995476722717, -0.31588298082351685, -0.21498814225196838], [-0.06109768524765968, -0.00986956525593996, 0.16554833948612213], [0.1194002702832222, -0.10947614908218384, 0.05824899300932884]], [[0.15852050483226776, -0.05953913554549217, 0.02977774664759636], [-0.015773432329297066, -0.04853174090385437, 0.08200342953205109], [-0.1128462627530098, -0.04744764417409897, 0.11724076420068741], [0.11572515219449997, -0.12783606350421906, -0.16390782594680786], [-0.2510301172733307, -0.20485664904117584, -0.12128464132547379], [0.07991578429937363, 0.17494334280490875, 0.1714610606431961], [-0.03513231873512268, -0.025638729333877563, 0.1679975688457489], [-0.12467968463897705, -0.054331474006175995, 0.03667817637324333], [-0.1721356362104416, 0.05990399420261383, -0.2036820650100708], [-0.035774435847997665, -0.1300298422574997, -0.2536286413669586], [-0.19686084985733032, -0.10083410888910294, 0.09176035225391388], [-0.33824923634529114, -0.2486901730298996, 0.0866181030869484], [-0.14100508391857147, -0.07626879960298538, 0.16602197289466858], [0.1298372447490692, -0.10999538004398346, 0.027479788288474083], [0.04978356510400772, -0.02829180657863617, 0.029532793909311295]], [[0.234437495470047, -0.11952504515647888, -0.12003128975629807], [-0.14646196365356445, -0.04636751115322113, 0.1420891433954239], [0.09328378736972809, -0.021900000050663948, -0.10423468053340912], [-0.17023113369941711, -0.008732851594686508, 0.03791256994009018], [0.03596037998795509, -0.2777119278907776, -0.10520318150520325], [-0.08913147449493408, -0.010078485123813152, -0.08016260713338852], [0.35145559906959534, 0.15085504949092865, -0.10254950821399689], [0.08294598758220673, -0.3558596670627594, -0.008407896384596825], [0.2487024962902069, -0.07044798135757446, 0.10293550789356232], [-0.2179676741361618, -0.11303999274969101, 0.04099342226982117], [-0.029913101345300674, 0.01917831227183342, -0.018670573830604553], [0.14767590165138245, -0.018606001511216164, 0.0566093884408474], [-0.27876564860343933, -0.4804222285747528, -0.10546643286943436], [0.23426488041877747, -0.09212552756071091, -0.0642448142170906], [0.14392134547233582, 0.0882476270198822, -0.09135501086711884]], [[0.013764933682978153, 0.05166849493980408, -0.10926489531993866], [-0.20078952610492706, -0.22833119332790375, -0.0016542632365599275], [0.04344240576028824, -0.07447393238544464, 0.08706147223711014], [0.16797007620334625, 0.043189194053411484, -0.020892303436994553], [0.0038735440466552973, 0.12199763208627701, 0.007402994204312563], [-0.06509635597467422, -0.04475132375955582, -0.03639433905482292], [-0.10441061854362488, -0.20551437139511108, 0.13674002885818481], [0.017418427392840385, 0.008031493984162807, 0.024723051115870476], [-0.07310649007558823, 0.01643572933971882, -0.04310481622815132], [-0.02977132797241211, 0.04980646073818207, 0.13570094108581543], [-0.08728576451539993, 0.5267171859741211, -0.09967798739671707], [-0.029610877856612206, -0.07770674675703049, -0.09371309727430344], [-0.010449218563735485, 0.18010026216506958, 0.03584844991564751], [0.08559810370206833, 0.11289072036743164, -0.1816098690032959], [-0.024910803884267807, 0.08883919566869736, 0.1547936201095581]], [[-0.07765457034111023, -0.04275244474411011, -0.02980738878250122], [-0.12043225765228271, 0.06496492028236389, -0.06982993334531784], [0.1520862728357315, 0.1333516240119934, 0.2725040018558502], [0.10700515657663345, -0.009038512594997883, 0.008222753182053566], [-0.09521583467721939, -0.009821050800383091, -0.04379306361079216], [0.026654038578271866, 0.019214345142245293, -0.003997163847088814], [0.12613576650619507, 0.2590230703353882, 0.3579480051994324], [-0.040424127131700516, 0.08648370206356049, 0.07191243767738342], [0.10771892964839935, -0.021994005888700485, 0.12462051957845688], [-0.290287047624588, -0.08142898231744766, -0.14874009788036346], [-0.06486101448535919, -0.0449020080268383, -0.08850330114364624], [-0.10186485201120377, 0.1340346336364746, -0.09197097271680832], [-0.23866407573223114, -0.004604193847626448, 0.016899650916457176], [0.3132007122039795, 0.2500483989715576, 0.20460392534732819], [0.04043298959732056, 0.03185190632939339, -0.08642765879631042]], [[0.0015647351974621415, -0.042762257158756256, 0.04800020903348923], [0.1385931521654129, 0.07625860720872879, -0.08173729479312897], [-0.019196724519133568, 0.017493220046162605, -0.029909975826740265], [0.025393638759851456, 0.017848042771220207, -0.0008808887796476483], [-0.19128333032131195, 0.07163629680871964, 0.024843517690896988], [0.020752452313899994, 0.02127056196331978, -0.06843525171279907], [-0.11334549635648727, -0.14936338365077972, -0.13297075033187866], [0.006332005839794874, -0.046818479895591736, -0.14221616089344025], [0.014667389914393425, -0.008669786155223846, 0.03018723987042904], [0.16757065057754517, 0.03107457049190998, 0.10113407671451569], [0.3605343997478485, -0.13811492919921875, 0.3120846748352051], [0.07205285131931305, 0.021997859701514244, -0.12062786519527435], [0.005948157515376806, -0.02431039698421955, 0.21692000329494476], [0.14328204095363617, 0.13829830288887024, 0.14462102949619293], [-0.10566530376672745, 0.051001958549022675, -0.005211513489484787]], [[0.12974339723587036, 0.01608646661043167, 0.00833052210509777], [-0.089398592710495, 0.02495712973177433, 0.08501875400543213], [-0.06234888732433319, 0.2948206663131714, 0.27618882060050964], [0.21858443319797516, 0.052373018115758896, 0.08793875575065613], [0.05287782475352287, -0.04897885397076607, -0.06298277527093887], [-0.045960236340761185, -0.013117354363203049, -0.016206271946430206], [0.2006007581949234, 0.1658865213394165, -0.015926824882626534], [0.21488231420516968, 0.1638956367969513, 0.17075388133525848], [-0.06840004026889801, -0.08135183900594711, 0.08099459111690521], [-0.34414300322532654, -0.02341097965836525, -0.07755031436681747], [-0.10598557442426682, -0.1868317574262619, -0.26861122250556946], [0.11505872756242752, 0.13269935548305511, 0.12265608459711075], [-0.027088627219200134, 0.07227444648742676, 0.07208582013845444], [-0.12236662209033966, 0.07784698903560638, 0.22676491737365723], [-0.1690392643213272, 0.050235405564308167, 0.1286885291337967]], [[0.06933983415365219, 0.017755180597305298, -0.09645341336727142], [-0.17083846032619476, 0.024496780708432198, 0.02504313923418522], [0.16650696098804474, 0.11358652263879776, 0.03547358885407448], [0.042320869863033295, -0.0616229809820652, -0.06246887892484665], [-0.1755225956439972, 0.06935455650091171, 0.15752136707305908], [-0.06661414355039597, -0.15762779116630554, 0.04967882111668587], [-0.3954833149909973, -0.13518279790878296, 0.04417060315608978], [0.04109321907162666, -0.03753458335995674, -0.13773499429225922], [0.14236260950565338, 0.10847750306129456, 0.1132739782333374], [0.10367905348539352, 0.028470361605286598, 0.10307927429676056], [0.32412537932395935, 0.19424457848072052, 0.1063324585556984], [-0.28340017795562744, -0.049909818917512894, 0.10947798192501068], [-0.011298827826976776, 0.007730935234576464, 0.035185448825359344], [-0.02816588059067726, -0.062238872051239014, -0.13454623520374298], [0.02161218598484993, 0.03377121314406395, -0.14782564342021942]], [[-0.113490030169487, -0.1892111897468567, -0.22467966377735138], [0.08807723224163055, 0.20514819025993347, 0.0025349846109747887], [-0.10033586621284485, -0.06673702597618103, -0.07962363213300705], [-0.10420486330986023, -0.08541630208492279, -0.017592091113328934], [-0.2796039283275604, 0.18671086430549622, 0.17812278866767883], [-0.09062259644269943, -0.05801169574260712, 0.12790752947330475], [0.11454740166664124, -0.022593006491661072, -0.047412943094968796], [0.016487622633576393, -0.020063936710357666, 0.08069643378257751], [-0.028626220300793648, 0.10648734867572784, 0.03144415467977524], [-0.04336575046181679, -0.02984660491347313, 0.014085089787840843], [0.03512447699904442, -0.1116321012377739, -0.02918200008571148], [-0.2746298015117645, 0.08250514417886734, 0.08628320693969727], [-0.2064341902732849, 0.24699170887470245, -0.12074650079011917], [0.11109036952257156, -0.09782563149929047, -0.058981556445360184], [0.010850331746041775, 0.10637743771076202, 0.15276764333248138]], [[-0.17146408557891846, 0.08711259812116623, -0.045591745525598526], [0.04665861278772354, -0.39012056589126587, 0.017884859815239906], [0.16512668132781982, -0.00470611872151494, -0.0162503719329834], [0.05226987227797508, 0.018084490671753883, 0.08498654514551163], [-0.028584659099578857, -0.24943505227565765, -0.17330585420131683], [0.01954382099211216, 0.06650416553020477, 0.2207922339439392], [0.3649674952030182, 0.26888415217399597, 0.2178088128566742], [0.04638630151748657, 0.12101589143276215, 0.002166641177609563], [0.020660921931266785, 0.2782552242279053, 0.21783991158008575], [-0.10707596689462662, 0.04060753807425499, -0.2769441306591034], [0.08305134624242783, -0.21983769536018372, -0.1368454247713089], [0.1042226180434227, -0.18401159346103668, 0.06458090245723724], [-0.20690615475177765, -0.06883315742015839, 0.032534871250391006], [0.07799220085144043, 0.2875220775604248, 0.317706823348999], [0.01910226419568062, -0.1690492182970047, -0.13396957516670227]], [[-0.13077926635742188, -0.215521439909935, 0.07666081935167313], [-0.03079237788915634, 0.07602059096097946, -0.08577524125576019], [-0.026114482432603836, -0.033928707242012024, -0.2233554571866989], [-0.036778148263692856, 0.0051712230779230595, 0.04183065518736839], [-0.14266200363636017, -0.023702137172222137, -0.042646560817956924], [0.12458456307649612, 0.21820774674415588, -0.15806050598621368], [-0.14198103547096252, 0.2281503677368164, -0.018648212775588036], [0.11433509737253189, -0.0003177668550051749, -0.2056826651096344], [0.17186319828033447, -0.15002082288265228, -0.1362617313861847], [0.12936359643936157, -0.0006315999780781567, -0.034585244953632355], [0.011044502258300781, 0.0927836000919342, -0.0426345132291317], [-0.2576788663864136, -0.004073760472238064, 0.3163386583328247], [-0.42493218183517456, -0.2331584244966507, 0.1777368038892746], [-0.15461792051792145, 0.0854627788066864, -0.17606757581233978], [-0.1349000483751297, -0.08051414787769318, 0.037401240319013596]]], "conv3.bias": [-0.19921088218688965, 0.1274193525314331, 0.010827704332768917, -0.1318788379430771, -0.14108189940452576, 0.12512919306755066, 0.11764540523290634, 0.10324930399656296, -0.06605031341314316, -0.18326519429683685, 0.005735759157687426, -0.19353744387626648, -0.10721126943826675, 0.047987502068281174, -0.00923511665314436, -0.018192274495959282], "conv5.weight": [[[-0.13759642839431763, -0.10614091157913208, 0.040405672043561935, -0.08022364974021912, -0.018030835315585136], [-0.13496196269989014, 0.05199844017624855, -0.0009355160873383284, 0.0735129714012146, 0.02971632033586502], [-0.21182791888713837, -0.09141165018081665, -0.07398726791143417, -0.15830588340759277, 0.10421046614646912], [-0.02412714809179306, -0.05487481877207756, -0.029506076127290726, -0.21142075955867767, 0.23297007381916046], [-0.008864449337124825, -0.16069860756397247, 0.028107868507504463, 0.15739381313323975, -0.1790839284658432], [-0.12761488556861877, -0.033033452928066254, 0.04927685111761093, 0.0935187041759491, 0.04712138697504997], [-0.15774598717689514, 0.07285504788160324, -0.058659106492996216, -0.033471859991550446, 0.344210147857666], [-0.058828968554735184, 0.23012222349643707, 0.09635936468839645, -0.010946264490485191, 0.16359631717205048], [0.11784572154283524, 0.11138748377561569, -0.0767025277018547, 0.06947135925292969, 0.09030967205762863], [0.04738732799887657, 0.17643241584300995, -0.11736367642879486, 0.22112995386123657, -0.09973030537366867], [-0.11368658393621445, 0.07647806406021118, -0.05011112242937088, -0.05487222597002983, 0.08372604101896286], [0.0857573002576828, -0.13963070511817932, 0.050093747675418854, 0.10362233966588974, -0.11727448552846909], [-0.25255751609802246, -0.3036777973175049, -0.19328683614730835, -0.41622719168663025, -0.18890480697155], [-0.11209166049957275, -0.056214600801467896, -0.0622820220887661, 0.03912701830267906, 0.18229199945926666], [-0.014935088343918324, -0.06287476420402527, -0.23967665433883667, 0.035777706652879715, 0.06283605843782425]], [[0.2497784048318863, 0.32097771763801575, -0.1879616230726242, 0.07208903133869171, 0.20284195244312286], [-0.009796824306249619, -0.2017151415348053, 0.1946338415145874, -0.09259820729494095, -0.0020239597652107477], [0.24846266210079193, 0.18012741208076477, 0.06883839517831802, -0.00403270497918129, -0.007556880824267864], [-0.04536213353276253, 0.004466635175049305, 0.042623165994882584, -0.0756131187081337, -0.08793459087610245], [-0.124435193836689, 0.04603799059987068, -0.0313401035964489, -0.12593886256217957, -0.20969358086585999], [0.29592540860176086, -0.04969818890094757, 0.07418197393417358, 0.1989080309867859, 0.12609398365020752], [0.23787517845630646, 0.013201702386140823, 0.04518963024020195, 0.08618137985467911, -0.029199065640568733], [0.005350364372134209, -0.12833012640476227, -0.07654045522212982, 0.0873492956161499, 0.3165164589881897], [-0.12865206599235535, -0.1312626600265503, -0.0014616041444242, -0.025204084813594818, -0.08439632505178452], [0.1466342955827713, 0.237884983420372, 0.1149076595902443, 0.0005401123780757189, 0.2559952735900879], [-0.03535161167383194, -0.10602136701345444, -0.015066027641296387, -0.04747100919485092, -0.2653680443763733], [-0.0011694665299728513, 0.07427915185689926, 0.16940386593341827, -0.16025543212890625, 0.1935095340013504], [-0.08498311042785645, 0.03137887641787529, 0.1299142688512802, -0.2692834734916687, -0.0771980956196785], [-0.12419027835130692, -0.00896423775702715, 0.005088017787784338, 0.13490448892116547, 0.2001473605632782], [-0.1230413094162941, -0.008844585157930851, 0.057044900953769684, -0.026287522166967392, -0.059905022382736206]], [[0.26726752519607544, -0.03077724389731884, 0.14033161103725433, -0.04340985044836998, -0.08820625394582748], [-0.1357518881559372, -0.194580078125, -0.022816143929958344, -0.003786384128034115, -0.025921531021595], [-0.007756914012134075, 0.040035706013441086, -0.020933784544467926, -0.007697862107306719, 0.10792993009090424], [0.050698261708021164, 0.06625549495220184, -0.05597833916544914, -0.013242737390100956, 0.16920684278011322], [-0.19932755827903748, -0.09798884391784668, 0.04987838864326477, 0.09251222014427185, -0.08375430852174759], [0.05106735602021217, -0.006341173313558102, 0.049228619784116745, 0.1579342782497406, 0.024520814418792725], [-0.020556285977363586, -0.06436451524496078, -0.22844628989696503, -0.08736865967512131, -0.06531655043363571], [0.3673454821109772, -0.06540501862764359, -0.06318071484565735, 0.04441874101758003, -0.04465937241911888], [-0.10505812615156174, 0.01572265848517418, -0.09558660537004471, -0.15820340812206268, 0.07265468686819077], [-0.022719278931617737, 0.011202465742826462, 0.10471588373184204, 0.15693436563014984, 0.11945545673370361], [0.08504212647676468, -0.01677986979484558, 0.4626275897026062, 0.2548566162586212, -0.12593211233615875], [-0.08238419890403748, -0.023740652948617935, 0.05797889083623886, 0.18490645289421082, -0.0428738109767437], [0.04450877010822296, 0.11869076639413834, -0.04575687646865845, -0.17918601632118225, 0.11587070673704147], [0.017469225451350212, -0.0007266786997206509, 0.08584064990282059, 0.021241245791316032, -0.1047438308596611], [0.022240016609430313, -0.04887249320745468, 0.06945331394672394, -0.021989189088344574, -0.0008511321502737701]], [[0.013723932206630707, -0.025596817955374718, -0.03864191100001335, 0.03944287821650505, 0.07470742613077164], [-0.04226606711745262, -0.07035082578659058, -0.03267674520611763, 0.03147820755839348, -0.04949574172496796], [-0.029019370675086975, -0.1316847950220108, 0.08655577898025513, 0.12705665826797485, 0.19552181661128998], [-0.06206997483968735, 0.08915891498327255, -0.04824492335319519, -0.06579530984163284, 0.12080039083957672], [-0.08518382161855698, 0.07650560885667801, 0.09249380230903625, -0.11819840967655182, 0.12906666100025177], [0.008189288899302483, -0.07472318410873413, -0.031661491841077805, -0.20102109014987946, 0.018057262524962425], [0.0072206249460577965, 0.1531720906496048, 0.050165314227342606, 0.06796775013208389, -0.09938699752092361], [-0.09714867919683456, 0.35252073407173157, 0.19392351806163788, 0.12024647742509842, 0.06165314093232155], [-0.17378312349319458, 0.1102934330701828, 0.02303779125213623, 0.23949941992759705, 0.11004650592803955], [-0.0009483841713517904, -0.09276086837053299, -0.03525546193122864, 0.029263518750667572, 0.14982016384601593], [0.18990586698055267, 0.09269752353429794, -0.22433118522167206, -0.14401565492153168, -0.20514608919620514], [0.051695480942726135, -0.06236112117767334, 0.12905190885066986, 0.07883012294769287, -0.016923774033784866], [0.1711471676826477, 0.043933890759944916, 0.0800870805978775, 0.1580113172531128, 0.051492735743522644], [0.033586535602808, 0.07694988697767258, 0.05164537951350212, 0.19049637019634247, 0.17606602609157562], [0.14286352694034576, -0.08248604089021683, 0.015220917761325836, -0.08693952113389969, 0.02362990565598011]], [[0.13934630155563354, -0.14199134707450867, -0.01330349687486887, -0.1707058548927307, 0.04264358803629875], [0.006203284487128258, 0.04412439092993736, 0.01905670203268528, 0.027777129784226418, -0.26919248700141907], [0.14465470612049103, -0.04629818722605705, -0.04652247950434685, 0.017170840874314308, 0.07701871544122696], [-0.011805733665823936, 0.024752646684646606, 0.07890096306800842, 0.01635822281241417, 0.24370625615119934], [0.012048983946442604, -0.03242059797048569, -0.3362818956375122, 0.29680347442626953, -0.27807867527008057], [-0.0290115624666214, -0.07743716239929199, -0.11087892204523087, -0.029720574617385864, 0.12126235663890839], [-0.180642768740654, -0.1157914474606514, -0.1506439596414566, 0.2914336025714874, 0.15190386772155762], [0.007123494520783424, 0.11645188182592392, 0.11847007274627686, -0.05573567748069763, -0.1057368665933609], [-0.049078695476055145, -0.07341131567955017, 0.0031838491559028625, 0.10808166116476059, 0.22922155261039734], [-0.05538537725806236, 0.10678138583898544, 0.06577780097723007, 0.1768527776002884, 0.02749021351337433], [-0.009111177176237106, -0.0010204525897279382, 0.007956624031066895, 0.057543136179447174, 0.0911005288362503], [-0.04151354357600212, 0.056018829345703125, 0.1702727973461151, 0.007877804338932037, -0.19105394184589386], [0.025071173906326294, 0.02404613606631756, 0.11776651442050934, -0.3674013316631317, -0.23856467008590698], [-0.1248139813542366, -0.13172994554042816, -0.19239379465579987, 0.1652587503194809, 0.04828654229640961], [-0.05562599003314972, 0.0717620849609375, 0.02049965225160122, -0.01097311545163393, -0.12001354992389679]], [[0.09781501442193985, -0.03409469872713089, 0.19051595032215118, -0.020500117912888527, 0.16614589095115662], [0.09192566573619843, 0.11217322945594788, -0.03092925436794758, 0.05959659442305565, -0.05438261479139328], [0.06856877356767654, -0.08292338252067566, -0.01004193164408207, -0.034768544137477875, 0.27401822805404663], [-0.00259624095633626, -0.029980316758155823, -0.028261180967092514, -0.04138980805873871, 0.24813838303089142], [0.10722843557596207, 0.04548453167080879, 0.2775382399559021, -0.08961272239685059, -0.1334465891122818], [0.0179704912006855, 0.09278953075408936, 0.0377223938703537, -0.1598578840494156, 0.1324312686920166], [0.07155872136354446, 0.023447593674063683, -0.06992839276790619, -0.10218004882335663, 0.020490452647209167], [0.003583424026146531, 0.18560822308063507, 0.2717440724372864, 0.1642770618200302, 0.117520272731781], [-0.020518474280834198, -0.0739569365978241, 0.06583742797374725, -0.08124183863401413, -0.26778653264045715], [0.005477800965309143, 0.013700852170586586, 0.06103280931711197, 0.1919076144695282, -0.10871294140815735], [-0.29924386739730835, 0.12567991018295288, -0.011002355255186558, 0.2789546251296997, 0.13059012591838837], [0.11792192608118057, -0.10320840030908585, 0.07580319046974182, 0.0004691420472227037, -0.2190539836883545], [0.06240449100732803, 0.10260775685310364, 0.03301670774817467, 0.16368037462234497, -0.228894904255867], [0.08863300085067749, 0.17200437188148499, 0.16701114177703857, 0.04001202434301376, -0.09829181432723999], [-0.07479996979236603, 0.08358549326658249, 0.028794605284929276, 0.030326824635267258, -0.013604134321212769]], [[0.13091759383678436, 0.0541008785367012, -0.00508002657443285, 0.035521961748600006, 0.2265409231185913], [-0.08495680242776871, 0.04046709090471268, -0.03965316712856293, 0.0538078211247921, 0.1516978144645691], [-0.013936479575932026, 0.20178791880607605, 0.027653129771351814, -0.09067676216363907, 0.08026108890771866], [-0.002693141344934702, -0.12690792977809906, -0.018280867487192154, -0.11326555162668228, -0.12448657304048538], [-0.018905553966760635, -0.06450594961643219, -0.06450772285461426, -0.15547777712345123, -0.08907032757997513], [0.1944078505039215, 0.1634543240070343, 0.1662929654121399, 0.04324902966618538, -0.10018856078386307], [0.1904069185256958, 0.18945616483688354, 0.042347781360149384, 0.05313817784190178, 0.153877854347229], [0.03456592932343483, -0.11216366291046143, -0.05844351276755333, -0.030855024233460426, -0.2786981761455536], [0.0012562241172417998, -0.03712521493434906, -0.14692647755146027, 0.13939329981803894, -0.04030324146151543], [0.1255635768175125, 0.28639093041419983, 0.10875174403190613, -0.0833769291639328, 0.11772947013378143], [-0.10984110087156296, -0.17376559972763062, -0.08967723697423935, -0.20736834406852722, -0.11146623641252518], [0.06395724415779114, 0.03858417272567749, -0.4036138951778412, 0.0725579485297203, 0.2974010109901428], [0.11922252923250198, -0.007169734686613083, -0.014263470657169819, -0.36840352416038513, 0.018350860103964806], [0.19017592072486877, -0.07917343825101852, -0.1297200471162796, 0.05350185185670853, 0.045974403619766235], [-0.05537940934300423, -0.07114823162555695, 0.06869447231292725, -0.0007709586061537266, 0.018139982596039772]], [[0.1198529377579689, -0.003980971872806549, -0.006908424664288759, 0.04313989728689194, -0.04637924209237099], [-0.01694669760763645, -0.022420326247811317, -0.07599461823701859, -0.039156723767519, 0.009310092777013779], [0.06413094699382782, -0.12468773871660233, 0.0481778047978878, 0.028705263510346413, 0.14411909878253937], [-0.057746510952711105, 0.2080262452363968, 0.04906103387475014, 0.050413165241479874, 0.04917343705892563], [-0.2710875868797302, -0.026416802778840065, -0.027473384514451027, -0.04372788593173027, -0.02877533808350563], [-0.021761123090982437, 0.0418035127222538, 0.026958748698234558, -0.0813116654753685, -0.18890924751758575], [-0.007891583256423473, 0.10168721526861191, -0.2699894905090332, -0.06752906739711761, -0.04017476364970207], [0.10259110480546951, -0.1343269646167755, 0.12145346403121948, -0.01952757127583027, 0.08746335655450821], [-0.1561669558286667, -0.03594806417822838, 0.10204888880252838, -0.10058324784040451, 0.14559806883335114], [-0.0471438504755497, -0.10319709777832031, 0.17240086197853088, 0.04576971009373665, 0.11199599504470825], [0.012751705944538116, -0.02369675040245056, 0.5248615145683289, -0.10132486373186111, -0.030801283195614815], [-0.038460537791252136, 0.03839574381709099, -0.15591616928577423, -0.09052357822656631, -0.10837637633085251], [-0.06691678613424301, 0.016182228922843933, -0.14226841926574707, 0.07450240850448608, 0.15183600783348083], [0.045189280062913895, 0.13955634832382202, 0.015194208361208439, -0.11059243232011795, 0.09906911849975586], [0.07980665564537048, 0.09120722115039825, -0.0024506300687789917, 0.03052080236375332, 0.08710760623216629]], [[0.2674211859703064, -0.16145500540733337, 0.08596494048833847, -0.18444468080997467, -0.008492601104080677], [-0.05926104262471199, -0.07750767469406128, 0.00836201198399067, 0.09434326738119125, -0.03151918202638626], [0.06381962448358536, -0.014924060553312302, 0.03280089050531387, -0.03980428725481033, 0.1680600792169571], [-0.047420304268598557, 0.06807896494865417, 0.03654738515615463, -0.14097782969474792, -0.1362208127975464], [0.09849514812231064, -0.0881790891289711, -0.08116411417722702, 0.043251316994428635, 0.08011925965547562], [0.013170219026505947, 0.15226899087429047, -0.13435067236423492, -0.08683797717094421, 0.07669520378112793], [-0.1405809074640274, -0.05723926052451134, 0.002579496940597892, -0.2584151327610016, -0.013234762474894524], [-0.045387886464595795, 0.08737004548311234, -0.049776967614889145, 0.016881482675671577, -0.05456593260169029], [-0.0746820718050003, -0.09027160704135895, 0.1238969936966896, 0.08284571766853333, 0.013021016493439674], [0.04658834636211395, 0.10083867609500885, -0.10570862144231796, 0.05078795924782753, -0.15576936304569244], [0.3714258372783661, 0.16628839075565338, 0.0769263356924057, 0.39499643445014954, -0.11851504445075989], [0.05055202543735504, -0.02119630016386509, 0.09284603595733643, -0.14454562962055206, -0.043241195380687714], [-0.044114138931035995, 0.016118444502353668, 0.08260887116193771, 0.13790220022201538, -0.02557092346251011], [0.0033606383949518204, 0.13239462673664093, 0.06691181659698486, 0.01699092984199524, 0.05718041956424713], [-0.0029906462877988815, -0.05090134218335152, 0.030630074441432953, 0.040396224707365036, 0.05449056625366211]], [[0.011295025236904621, 0.0674639642238617, -0.11577722430229187, 0.08295688033103943, -0.20124278962612152], [-0.4763432443141937, 0.02479630336165428, -0.022840047255158424, 0.015019143931567669, -0.0724763497710228], [-0.11508242040872574, 0.11844157427549362, -0.12267356365919113, 0.19143638014793396, 0.05868777260184288], [0.14792399108409882, 0.10544021427631378, 0.03832273185253143, 0.04561453312635422, -0.04214124009013176], [0.06740926206111908, 0.09976383298635483, -0.00016795801639091223, 0.08038404583930969, -0.07099425047636032], [0.046488936990499496, 0.15169577300548553, -0.25399506092071533, -0.20123280584812164, -0.00834505632519722], [-0.055535901337862015, -0.07086224853992462, -0.2139481008052826, -0.14885474741458893, -0.005296683870255947], [0.06663074344396591, 0.056233227252960205, 0.16957858204841614, -0.10170736163854599, -0.1987188160419464], [-0.23837199807167053, -0.22437357902526855, 0.08396658301353455, 0.15997615456581116, 0.05078095570206642], [0.18677614629268646, -0.02459387481212616, 0.15803173184394836, 0.06876519322395325, -0.003899922361597419], [-0.024817245081067085, 0.30086904764175415, 0.23368027806282043, 0.07861728966236115, 0.2459118813276291], [-0.10461922734975815, 0.03600542992353439, 0.03180515393614769, 0.08237813413143158, -0.15183964371681213], [0.12336724251508713, 0.12221097201108932, 0.11959142982959747, -0.035163674503564835, 0.27429112792015076], [0.013768026605248451, -0.020825298503041267, 0.02463407814502716, 0.06661005318164825, 0.04709310084581375], [0.08091455698013306, -0.0631757453083992, -0.030040325596928596, -0.01638498529791832, 0.013303820043802261]], [[0.092531718313694, 0.14651651680469513, -0.1213521808385849, 0.028885796666145325, -0.09353424608707428], [-0.04997885972261429, 0.05948781594634056, 0.0347725972533226, -0.008049434050917625, 0.0193101204931736], [-0.15842269361019135, 0.16403451561927795, 0.084117092192173, 0.11931897699832916, -0.04015304893255234], [0.049101270735263824, -0.020406905561685562, -0.03215530142188072, -0.19947966933250427, -0.1712958663702011], [-0.18226903676986694, 0.15676482021808624, 0.302949458360672, -0.058069419115781784, 0.17188946902751923], [0.0515763945877552, 0.009457657113671303, -0.07973480969667435, -0.07802087068557739, -0.12196585536003113], [0.054374393075704575, 0.07939539104700089, 0.08260707557201385, 0.1017921045422554, -0.1555357277393341], [-0.11957522481679916, -0.005190539173781872, 0.14484035968780518, 0.079256072640419, -0.09382203966379166], [0.034227583557367325, -0.17780116200447083, -0.0976208746433258, -0.18389008939266205, 0.06445097178220749], [-0.17056488990783691, -0.19494958221912384, 0.1519463062286377, -0.21682943403720856, 0.03947882726788521], [-0.09716559201478958, -0.10342097282409668, -0.03933858126401901, 0.04581534489989281, -0.14288872480392456], [0.16567662358283997, 0.0007461860659532249, -0.26944977045059204, 0.037110503762960434, 0.21511980891227722], [-0.1568840742111206, 0.07980136573314667, -0.04032633453607559, -0.3405732810497284, 0.05267036706209183], [-0.15390877425670624, -0.0700143352150917, -0.029726777225732803, -0.05179524049162865, 0.12094579637050629], [0.00558788375928998, 0.10565683245658875, -0.04906903952360153, 0.01718810945749283, 0.0807824656367302]], [[0.1972702145576477, -0.07055216282606125, -0.012298948131501675, 0.04652053117752075, 0.03787023201584816], [0.04868161305785179, 0.08498485386371613, -0.006497368216514587, -0.11210568249225616, 0.1506853699684143], [0.003277225187048316, 0.043028123676776886, 0.0946481004357338, 0.14430534839630127, 0.12317564338445663], [-0.0678238570690155, -0.12347408384084702, -0.01625707745552063, 0.053889814764261246, 0.12468546628952026], [0.06992436945438385, -0.02286848984658718, 0.05380241572856903, 0.017899105325341225, 0.023622553795576096], [-0.04475220665335655, -0.06776688992977142, -0.013753438368439674, -0.10545550286769867, -0.1749335527420044], [-0.1101197898387909, -0.3756342828273773, 0.013378262519836426, 0.0032387273386120796, 0.002161000855267048], [-0.17550019919872284, 0.05266709625720978, -0.1759883612394333, -0.06479955464601517, -0.09182573109865189], [-0.015556280501186848, 0.03848975896835327, -0.06285852193832397, 0.10104469954967499, 0.014031668193638325], [-0.12244504690170288, 0.16884732246398926, -0.03586949035525322, -0.1161801666021347, -0.12631569802761078], [-0.19601823389530182, 0.31488072872161865, -0.10240333527326584, 0.36691585183143616, 0.04092976078391075], [0.017993658781051636, 0.09525076299905777, 0.05313258618116379, -0.2713497281074524, -0.15082256495952606], [0.0517098568379879, 0.022615477442741394, 0.06505142152309418, 0.22370053827762604, 0.13788926601409912], [-0.06627143174409866, 0.04071157053112984, -0.03990398347377777, 0.08387110382318497, -0.0655161440372467], [0.07730142772197723, -0.026791488751769066, -0.13341853022575378, 0.034501489251852036, 0.022717302665114403]], [[0.06001383438706398, 0.033649396151304245, 0.034682732075452805, 0.04025733098387718, -0.10303297638893127], [-0.12561063468456268, -0.13917289674282074, -0.028859008103609085, -0.21777841448783875, 0.0849270299077034], [-0.007439873181283474, 0.05488952621817589, 0.15747661888599396, 0.10210252553224564, -0.03408275917172432], [0.05788062885403633, 0.05983341112732887, 0.139164537191391, -0.027360262349247932, -0.039507489651441574], [-0.21692821383476257, -0.06296873092651367, 0.1760089099407196, -0.14706942439079285, 0.06785895675420761], [0.2125299870967865, 0.08171064406633377, 0.02767253667116165, 0.09241172671318054, 0.31956028938293457], [0.38540735840797424, 0.49356532096862793, 0.1554541438817978, 0.567727267742157, 0.44363683462142944], [-0.08042675256729126, -0.029336320236325264, -0.02021336928009987, -0.13840442895889282, -0.2316640317440033], [-0.02612590417265892, 0.13590770959854126, -0.06485598534345627, -0.0012320505920797586, -0.11189040541648865], [0.05843375623226166, -0.029435206204652786, -0.11127478629350662, -0.21581009030342102, -0.1717981994152069], [-0.016758963465690613, 0.09059873223304749, 0.09585290402173996, -0.0009149771649390459, 0.04830159619450569], [-0.01736891083419323, 0.011293032206594944, 0.04410162940621376, -0.09817242622375488, 0.15816307067871094], [0.049820899963378906, -0.061666134744882584, -0.11547716706991196, 0.013941645622253418, 0.1476472020149231], [0.44894319772720337, 0.2829454243183136, 0.2737714946269989, 0.3620341718196869, 0.35910364985466003], [0.02797894924879074, -0.001128543633967638, -0.17190127074718475, 0.10726943612098694, 0.01888544298708439]], [[-0.053592782467603683, 0.04672928899526596, -0.14386452734470367, 0.10850527137517929, 0.02205783873796463], [-0.08864806592464447, -0.0651465505361557, -0.03840227425098419, -0.05186903849244118, -0.046244993805885315], [-0.09774282574653625, 0.02026871219277382, 0.044624052941799164, 0.0828629806637764, 0.0787297710776329], [0.002142867539077997, 0.007851315662264824, -0.026059841737151146, 0.06879827380180359, 0.15118169784545898], [0.05933048576116562, 0.14834575355052948, -0.14967884123325348, -0.13212856650352478, -0.03858580440282822], [0.09230291843414307, 0.1805294156074524, 0.006002039182931185, 0.15270398557186127, 0.07700815051794052], [-0.03620857745409012, 0.033424533903598785, 0.10201322287321091, -0.22609950602054596, -0.14460694789886475], [0.1093631386756897, -0.13476748764514923, -0.08025596290826797, 0.15881575644016266, 0.18493032455444336], [0.09622444957494736, -0.16167907416820526, -0.09766730666160583, -0.04571428522467613, -0.039406321942806244], [0.0054823607206344604, -0.38768360018730164, -0.10344845056533813, 0.10590959340333939, -0.02435828372836113], [0.03581453114748001, 0.04625159129500389, 0.055544011294841766, 0.4410026967525482, -0.10711118578910828], [-0.10565067827701569, -0.16977860033512115, -0.053908150643110275, 0.08400511741638184, 0.07993501424789429], [0.14479659497737885, -0.012359580025076866, -0.08552158623933792, -0.08292970806360245, -0.004889435134828091], [-0.195606991648674, 0.026748618111014366, 0.014998934231698513, 0.03349878266453743, -0.07821037620306015], [0.023176852613687515, 0.11008206754922867, -0.13414666056632996, -0.019948629662394524, 0.04170078784227371]], [[0.06568586081266403, -0.09095188975334167, -0.12064183503389359, -0.1587328016757965, 0.054732535034418106], [0.04183199629187584, -0.005043856333941221, -0.00783373974263668, 0.1998760849237442, -0.11406634747982025], [-0.04558037593960762, -0.007991593331098557, 0.1500369906425476, 0.00064033770468086, -0.11174555122852325], [0.06658935546875, 0.06567724049091339, -0.045092321932315826, -0.01752392202615738, 0.048040542751550674], [0.006556025240570307, 0.1421029269695282, 0.03472355008125305, -0.12894970178604126, 0.11674930155277252], [-0.005343184340745211, -0.055776990950107574, -0.19892196357250214, -0.09739261120557785, 0.08794578164815903], [-0.1479085087776184, -0.10096804797649384, -0.15346679091453552, 0.002022376749664545, -0.233634814620018], [0.2062496542930603, 0.06381207704544067, -0.02297518216073513, 0.05702625960111618, 0.2285803258419037], [-0.013976936228573322, 0.17488472163677216, 0.04077916219830513, -0.04314292594790459, -0.2775300145149231], [-0.011481141671538353, -0.03963461145758629, 0.06529095023870468, 0.10740119218826294, 0.12271033972501755], [-0.19930310547351837, -0.15744240581989288, 0.29668572545051575, 0.07899971306324005, 0.2448081076145172], [-0.19275592267513275, 0.1071036159992218, -0.019563497975468636, -0.07170519232749939, -0.08539116382598877], [0.1925610601902008, 0.16851688921451569, -0.039013344794511795, -0.08639343827962875, 0.03816178813576698], [-0.05359181761741638, -0.006432071328163147, 0.026420123875141144, 0.1582861840724945, -0.03595370426774025], [0.02364172786474228, -0.0753931850194931, -0.06502792984247208, -0.13629181683063507, 0.0873299315571785]], [[0.11745669692754745, -0.1272575557231903, -0.03525204584002495, -0.1083904281258583, 0.14926494657993317], [0.03656155243515968, -0.11363034695386887, 0.13380391895771027, -0.07425375282764435, -0.0864483043551445], [0.013636023737490177, -0.10760311782360077, 0.0006459886208176613, -0.0021924094762653112, 0.05049406737089157], [-0.08567743003368378, -0.009661498479545116, -0.05408120155334473, -0.06864332407712936, 0.0912361666560173], [0.09906759858131409, 0.04576188698410988, -0.08801653236150742, 0.11387734115123749, -0.012750443071126938], [-0.026923535391688347, 0.0047930567525327206, -0.26695698499679565, 0.2565101385116577, -0.19844959676265717], [-0.024452131241559982, 0.17172539234161377, -0.2170122265815735, 0.2688731551170349, 0.09851890057325363], [0.014128413051366806, 0.09050089865922928, 0.2392553687095642, 0.09346441179513931, 0.08539601415395737], [0.0019403249025344849, -0.305397629737854, -0.38159656524658203, 0.0025836224667727947, 0.0010143783874809742], [-0.26468217372894287, 0.040925875306129456, -0.2517065405845642, -0.1902252584695816, -0.14025378227233887], [0.0027060359716415405, 0.02916835993528366, -0.03539011999964714, 0.12046317756175995, -0.06913184374570847], [-0.06892171502113342, 0.0914786159992218, -0.020690027624368668, 0.07550755888223648, -0.11222197860479355], [-0.2712034285068512, -0.29663628339767456, 0.2861041724681854, -0.2908707559108734, -0.09794066101312637], [0.07864131033420563, -0.03454246371984482, -0.07421324402093887, 0.009902240708470345, 0.03562958911061287], [0.05462830886244774, 0.040686674416065216, 0.04138167202472687, 0.1517796367406845, 0.16221298277378082]]], "conv5.bias": [0.10261211544275284, 0.014852595515549183, 0.013985790312290192, -0.026891902089118958, 0.0077371178194880486, -0.03200911357998848, -0.0838785171508789, -0.07708708196878433, -0.0176065843552351, 0.039781540632247925, 0.013877139426767826, 0.06774267554283142, -0.02885178104043007, -0.0755351334810257, -0.09683002531528473, -0.03554680943489075], "fc1.weight": [[0.13276681303977966, 0.19041451811790466, 0.17701397836208344, -0.05507390573620796, -0.1885729879140854, 0.08872804790735245, 0.16526144742965698, 0.2576291263103485, -0.2568219006061554, 0.09222432971000671, -0.14489169418811798, -0.07021822035312653, -0.14217981696128845, 0.099295474588871, 0.28561410307884216, 0.2095877081155777, 0.20781701803207397, 0.23770996928215027, -0.23736517131328583, -0.15238621830940247, 0.21067656576633453, -0.1735956072807312, 0.2595618665218353, -0.24148713052272797, -0.23927520215511322, -0.2015054076910019, 0.3017369210720062, -0.23588243126869202, 0.3144809603691101, -0.2606426775455475, -0.2791782021522522, 0.31854814291000366, 0.03977552056312561, 0.07134154438972473, 0.12820328772068024, -0.0038706548511981964, -0.04564359039068222, 0.10081170499324799], [0.09154966473579407, 0.027978893369436264, 0.13941837847232819, -0.15373358130455017, -0.12865954637527466, 0.21793317794799805, 0.0943872407078743, 0.11609657108783722, -0.30888915061950684, 0.08941912651062012, -0.0949493944644928, -0.10387146472930908, -0.08985192328691483, 0.22059954702854156, 0.28655681014060974, 0.18840520083904266, 0.2026548832654953, 0.25266942381858826, -0.11865751445293427, -0.19988928735256195, 0.10070731490850449, -0.13717208802700043, 0.19890102744102478, -0.09254097193479538, -0.29044783115386963, -0.3001798987388611, 0.16912786662578583, -0.22422732412815094, 0.31555014848709106, -0.24075947701931, -0.07609636336565018, 0.2824791371822357, 0.13282181322574615, -0.04773283377289772, 0.12669743597507477, -0.07056090980768204, -0.057643044739961624, 0.15538418292999268], [0.04792432114481926, 0.21916629374027252, 0.13459916412830353, -0.053611066192388535, -0.1155288890004158, 0.1301240772008896, 0.15099263191223145, 0.2664080560207367, -0.30288490653038025, 0.18035438656806946, -0.16085271537303925, -0.053214795887470245, -0.05610962212085724, 0.1768445372581482, 0.08593625575304031, 0.07283961772918701, 0.2825946807861328, 0.12906977534294128, -0.1538521647453308, -0.12665437161922455, 0.18426308035850525, -0.08747725188732147, 0.1488676220178604, -0.24033650755882263, -0.13019557297229767, -0.18148621916770935, 0.21197232604026794, -0.2938331067562103, 0.28504371643066406, -0.2603727877140045, -0.19339264929294586, 0.18996641039848328, -0.015835585072636604, 0.11385659128427505, 0.03288540989160538, 0.057997480034828186, -0.03060644492506981, 0.059577930718660355], [-0.17893749475479126, -0.12702429294586182, -0.2797701954841614, -0.010083775967359543, 0.23108701407909393, -0.15391936898231506, 0.053872182965278625, -0.18344557285308838, 0.25559768080711365, -0.2180846929550171, 0.18779128789901733, 0.16189323365688324, 0.3231263756752014, 0.07829926162958145, -0.41464492678642273, -0.3432155251502991, -0.28312602639198303, -0.3611164093017578, 0.31765779852867126, 0.2815309166908264, -0.14604756236076355, 0.2569506764411926, -0.31165698170661926, 0.23393909633159637, 0.19645193219184875, 0.3646225929260254, -0.19520604610443115, 0.1718001514673233, -0.3613269329071045, 0.17008867859840393, 0.3341809809207916, -0.5143142342567444, 0.15522409975528717, 0.1151464506983757, 0.10398941487073898, 0.40843209624290466, 0.053388889878988266, -0.19625894725322723], [0.1853865683078766, 0.12847787141799927, 0.13501402735710144, -0.15754370391368866, -0.28199419379234314, 0.05599815025925636, 0.24995899200439453, 0.25559526681900024, -0.10560067743062973, 0.19362473487854004, -0.22376380860805511, -0.13354311883449554, -0.1491478681564331, 0.00844701286405325, 0.2477293610572815, 0.21000950038433075, 0.27412769198417664, 0.2471824586391449, -0.28245270252227783, -0.13297604024410248, 0.2810104489326477, -0.04960225895047188, 0.24016903340816498, -0.23527169227600098, -0.3289857506752014, -0.23002250492572784, 0.2960343062877655, -0.21202506124973297, 0.2548891305923462, -0.1580248773097992, -0.220223531126976, 0.3055974543094635, 0.01701713353395462, 0.07801636308431625, 0.022760648280382156, -0.13516001403331757, 0.05679729953408241, 0.15188924968242645], [-0.19846248626708984, 0.05548039823770523, -0.1855970174074173, -0.31336313486099243, 0.04270942136645317, -0.1562672108411789, -0.02489270642399788, -0.19641153514385223, 0.22168941795825958, -0.3447501063346863, 0.09396829456090927, 0.15624362230300903, 0.18364515900611877, 0.15902559459209442, -0.19333909451961517, -0.2102821171283722, -0.30787211656570435, -0.3383892774581909, 0.06373549997806549, 0.20311467349529266, -0.12226758897304535, 0.23210640251636505, -0.16231079399585724, 0.07875935733318329, 0.1692187488079071, 0.2466958612203598, -0.22904804348945618, 0.2892260253429413, -0.45629703998565674, 0.19063740968704224, 0.08546619117259979, -0.3421545624732971, 0.011393198743462563, 0.1176055520772934, 0.15248967707157135, 0.14672818779945374, 0.040770597755908966, -0.08384125679731369], [0.08262529224157333, 0.12428487837314606, 0.18118248879909515, 0.06948284804821014, -0.1855495721101761, 0.019505299627780914, 0.15148748457431793, 0.17259173095226288, -0.2901688516139984, 0.07548856735229492, -0.09067609906196594, -0.14335978031158447, -0.0097538772970438, 0.19657808542251587, 0.18168757855892181, 0.10558437556028366, 0.24219416081905365, 0.21702265739440918, -0.1820930540561676, -0.17024928331375122, 0.20713067054748535, -0.23118920624256134, 0.22119122743606567, -0.3070782721042633, -0.14422379434108734, -0.18330678343772888, 0.145394966006279, -0.29528799653053284, 0.2429259568452835, -0.3279683291912079, -0.12310516834259033, 0.28254711627960205, 0.01777791976928711, -0.00461115688085556, 0.057222623378038406, -0.09425338357686996, -0.09061548858880997, 0.1395937204360962], [0.0002876957005355507, -0.002395639196038246, 0.00025657564401626587, -0.00026511208852753043, 0.001983579248189926, 0.0005857523647136986, 0.00010212493361905217, 0.0017134440131485462, -0.00016650134057272226, -0.0009624678059481084, -0.0010724428575485945, -4.419948163558729e-05, 0.0001329548831563443, -0.002438231837004423, -0.0010157125070691109, -0.0021091781090945005, 0.002119771670550108, -0.00545121543109417, -0.006852040532976389, -0.0017693672562018037, -0.0006882938323542476, -0.004199625924229622, -0.0025899491738528013, -0.004004625137895346, 0.0006265522097237408, -0.003960008732974529, -0.0005057689850218594, -0.000566428410820663, 0.012184234336018562, -4.4885018724016845e-06, -0.002012922428548336, -0.0003881863958667964, -0.000169847029610537, -0.0018009996274486184, -0.001803362276405096, 0.0002823674294631928, -0.0011886589927598834, -0.0020352741703391075], [-0.14889952540397644, -0.01663191057741642, -0.14350032806396484, -0.2010534703731537, 0.12078463286161423, -0.20297424495220184, -0.09373734146356583, -0.2517222762107849, 0.15407873690128326, -0.14038342237472534, 0.1287400722503662, 0.2205359786748886, 0.20082008838653564, 0.08093725144863129, -0.3356071412563324, -0.2691675126552582, -0.33173441886901855, -0.3772673010826111, 0.13211733102798462, 0.11795841157436371, -0.1703415811061859, 0.14124912023544312, -0.1558847278356552, 0.20733018219470978, 0.2487581968307495, 0.2735133469104767, -0.2419881671667099, 0.26509889960289, -0.4403177797794342, 0.08543311059474945, 0.1872703582048416, -0.29339295625686646, -0.07565473765134811, 0.12224680930376053, 0.18965202569961548, 0.1638539880514145, 0.09316299855709076, -0.06961112469434738], [0.14375457167625427, 0.13691671192646027, 0.25165367126464844, -0.06458152830600739, -0.34584787487983704, 0.06605828553438187, 0.18429194390773773, 0.23498114943504333, -0.1826583743095398, 0.119988352060318, -0.1982516497373581, -0.18791240453720093, -0.18629448115825653, 0.08178813755512238, 0.2574878931045532, 0.2875160276889801, 0.19710777699947357, 0.20232093334197998, -0.1074063703417778, -0.042548201978206635, 0.16206710040569305, -0.14187215268611908, 0.2360605150461197, -0.30975309014320374, -0.2112688571214676, -0.20686599612236023, 0.2794633209705353, -0.07109630852937698, 0.28574061393737793, -0.10253321379423141, -0.26879674196243286, 0.3736969232559204, 0.14260277152061462, 0.03290858864784241, -0.08887005597352982, -0.12233597040176392, -0.06578738242387772, 0.06347951292991638], [-0.09116920083761215, 0.014421827159821987, -0.050202175974845886, -0.18162760138511658, 0.05259270593523979, -0.0832902118563652, 0.021960951387882233, -0.04694376140832901, 0.154469296336174, -0.22574172914028168, 0.11267992109060287, 0.05539001524448395, 0.18904206156730652, 0.05423049256205559, -0.276852011680603, -0.07200691103935242, -0.09560620039701462, -0.20815205574035645, 0.1588383913040161, 0.20849911868572235, -0.06670907139778137, 0.18418699502944946, -0.1306132972240448, 0.07558717578649521, 0.14143256843090057, 0.2598055601119995, -0.19725970923900604, 0.21490703523159027, -0.4184943735599518, 0.13318736851215363, 0.1365877389907837, -0.17037180066108704, 0.0820571631193161, 0.11662815511226654, 0.11493027210235596, 0.1453191488981247, 0.0769035741686821, -0.0031995566096156836], [0.07266099750995636, 0.1883547604084015, 0.04824615642428398, 0.07156794518232346, -0.28506556153297424, 0.23895348608493805, 0.03531462326645851, 0.139124795794487, -0.2310422956943512, 0.20452852547168732, -0.0808614119887352, -0.07068543136119843, -0.11913072317838669, 0.034799009561538696, 0.25623950362205505, 0.19492319226264954, 0.2799319326877594, 0.0703129842877388, -0.3099411427974701, -0.1301872730255127, 0.1436266303062439, -0.11268752068281174, 0.23229484260082245, -0.14880798757076263, -0.07788383960723877, -0.27896690368652344, 0.23969915509223938, -0.1912444680929184, 0.341592937707901, -0.30123627185821533, -0.1520148664712906, 0.1923336237668991, 0.04318385571241379, 0.155743807554245, 0.03373287618160248, -0.12603363394737244, 0.027620961889624596, 0.20334364473819733], [-0.07103970646858215, -0.03876613825559616, -0.23551426827907562, -0.16070500016212463, 0.18930210173130035, -0.009994395077228546, 0.05101482570171356, -0.2963552474975586, 0.26526379585266113, -0.2160656899213791, 0.19649909436702728, 0.3353055715560913, 0.1816347986459732, -0.046383995562791824, -0.14716829359531403, -0.29182347655296326, -0.19587388634681702, -0.3487699031829834, 0.08813630789518356, 0.11623989790678024, -0.1834762543439865, 0.24804183840751648, -0.2819749712944031, 0.000165722391102463, 0.28702312707901, 0.3170371651649475, -0.2286100536584854, 0.1487334966659546, -0.40889081358909607, 0.10183531790971756, 0.2481795996427536, -0.2991454005241394, 0.018641453236341476, -0.06546089798212051, -0.027710868045687675, 0.3625483512878418, 0.13471905887126923, -0.032016411423683167], [-0.17335520684719086, 0.07391052693128586, -0.06991826742887497, -0.1717878133058548, 0.06795962899923325, -0.1343606412410736, 0.03286366909742355, -0.11536268144845963, 0.23721960186958313, -0.24144989252090454, 0.18707092106342316, 0.07754064351320267, 0.09583115577697754, -0.04770907387137413, -0.4150887131690979, -0.28142571449279785, -0.32605206966400146, -0.21869219839572906, 0.16858913004398346, 0.12706463038921356, -0.1810266375541687, 0.24247963726520538, -0.2479865401983261, 0.17334039509296417, 0.22892597317695618, 0.12966027855873108, -0.22315055131912231, 0.24768929183483124, -0.23888134956359863, 0.10429681837558746, 0.24808622896671295, -0.3400053381919861, -0.061420828104019165, 0.16227638721466064, 0.016360245645046234, 0.303740531206131, 0.03533066809177399, -0.1289277970790863], [0.20623470842838287, 0.19907589256763458, 0.17916077375411987, -0.09414218366146088, -0.2406349927186966, 0.02538234181702137, 0.15131303668022156, 0.19956862926483154, -0.23491625487804413, 0.2711590528488159, -0.1563524603843689, -0.15989185869693756, -0.008822867646813393, 0.13696780800819397, 0.1942334920167923, 0.27803313732147217, 0.25101521611213684, 0.21123218536376953, -0.3090404272079468, -0.1383027881383896, 0.048380255699157715, -0.09571011364459991, 0.26601967215538025, -0.282492458820343, -0.10724227130413055, -0.2654937505722046, 0.24787041544914246, -0.3068760633468628, 0.3137757480144501, -0.16113413870334625, -0.18373271822929382, 0.2560320496559143, -0.04918331652879715, 0.14352868497371674, 0.13769228756427765, -0.05524145066738129, -0.08954264223575592, 0.09341613203287125], [0.07212071865797043, 0.2156473994255066, 0.13358962535858154, -0.05383399873971939, -0.2957518994808197, 0.18646776676177979, 0.11212659627199173, 0.2727610468864441, -0.17580333352088928, 0.0048939841799438, -0.17536860704421997, -0.1803991198539734, -0.23046813905239105, 0.06763196736574173, 0.2564541697502136, 0.1390976458787918, 0.30256685614585876, 0.19505390524864197, -0.25732579827308655, -0.14183309674263, 0.14594854414463043, -0.15260329842567444, 0.35128459334373474, -0.2805381119251251, -0.28414982557296753, -0.18629150092601776, 0.31231746077537537, -0.15359823405742645, 0.2947060763835907, -0.24661098420619965, -0.10400653630495071, 0.2998931109905243, 0.13897500932216644, 0.032062094658613205, -0.07785135507583618, -0.07982879132032394, 0.04927214980125427, 0.19539900124073029]], "fc1.bias": [0.05982730910181999, 0.19469444453716278, 0.059404730796813965, 0.018940648064017296, 0.08949156850576401, 0.01196609903126955, 0.20589762926101685, -0.0018141795881092548, 0.15626615285873413, -0.09548330307006836, 0.11511964350938797, 0.06706704199314117, 0.17375582456588745, 0.10718081891536713, 0.06313836574554443, -0.10323546081781387], "fc2.weight": [[-0.8183370232582092, -0.7070416212081909, -0.7350447773933411, 0.4221106171607971, -0.6717379093170166, 0.7090370655059814, -1.119579792022705, 0.0011521866545081139, 0.6979907155036926, -0.8868125081062317, 0.20521435141563416, -0.5870251655578613, 0.6244269609451294, 0.6566874980926514, -0.6736814975738525, -0.7021381855010986]], "fc2.bias": [0.7291759848594666], "norm_mean": [0.07154832780361176, 0.3785971403121948, 0.38981983065605164, 0.4140884578227997, 0.04073603078722954, 0.027454674243927002, 0.4287418723106384, 2.4731602668762207, 0.19466851651668549, 0.47657209634780884, 0.04181978479027748], "norm_std": [0.11773912608623505, 0.28342512249946594, 0.2765069901943207, 0.26559215784072876, 0.10784662514925003, 0.07988913357257843, 0.18651443719863892, 1.8327561616897583, 0.39594560861587524, 0.26250457763671875, 0.5205041766166687]}