{"tool_embed.weight": [[-1.5265896320343018, 1.886021375656128, -0.5162213444709778, 0.07009454071521759], [2.240506172180176, -1.7152272462844849, -1.4357616901397705, -1.3116683959960938], [0.2577109932899475, 0.07083819806575775, 0.15213698148727417, 1.6628682613372803], [1.3768643140792847, -0.28455981612205505, -0.7146613001823425, 0.25226500630378723], [0.027572227641940117, -1.4040225885394645e-39, -6.890429776316382e-39, -2.4181417757063173e-06], [4.373780617468074e-25, 2.6312237316565663e-39, 1.5414500375168014e-18, 1.4067116805915976e-25], [-0.07287544012069702, -0.5496715903282166, 1.039678931236267, 0.5185125470161438]], "conv3.weight": [[[-0.040876951068639755, 0.15508106350898743, 0.1783304065465927], [0.1540737748146057, 0.09637188911437988, -0.08200209587812424], [-0.17648127675056458, -0.032285891473293304, 0.13829964399337769], [-0.11096761375665665, -0.03477542847394943, 0.26451247930526733], [0.09294534474611282, -0.012169242836534977, -0.2218935191631317], [0.009754630737006664, 0.12371239066123962, 0.0879601389169693], [0.17035698890686035, 0.17260919511318207, -0.009957392700016499], [-0.08866912871599197, 0.1476876437664032, -0.09165824204683304], [-0.0838710144162178, 0.061367690563201904, 0.02845216915011406], [0.09517563134431839, 0.15749061107635498, -0.251608282327652], [-0.10259706526994705, 0.07263011485338211, 0.07208287715911865], [-0.1896323710680008, 0.008849307894706726, 0.20475365221500397], [-0.42414745688438416, -0.3671344816684723, 0.24036987125873566], [-0.1666848361492157, 0.00778126809746027, 0.09977125376462936], [-0.16020642220973969, -0.12591464817523956, 0.018732964992523193]], [[0.026417654007673264, 0.1277773529291153, -0.34871721267700195], [-0.05447179079055786, 0.041646502912044525, 0.11538029462099075], [-0.06618592888116837, -0.13406911492347717, 0.06281085312366486], [0.08360855281352997, -0.017393965274095535, -0.00800889078527689], [0.0017769553232938051, 0.06399080902338028, 0.0040581184439361095], [-0.038210853934288025, -0.07980415970087051, 0.017154822126030922], [0.1881183385848999, -0.17465701699256897, 0.0061664581298828125], [0.06861118972301483, 0.023913206532597542, -0.048809267580509186], [0.18102286756038666, 0.01622435823082924, -0.04235614463686943], [-0.012945007532835007, 0.12973524630069733, -0.03253040090203285], [-0.18065376579761505, 0.22768321633338928, 0.119953453540802], [0.16502486169338226, 0.03859347850084305, 0.08178258687257767], [0.10081939399242401, 0.06946166604757309, 0.10091077536344528], [0.27418065071105957, 0.024247627705335617, 0.0574900284409523], [-0.0014430888695642352, 0.006782673764973879, 0.019239414483308792]], [[0.03143537789583206, -0.005620666313916445, -0.02164669707417488], [-0.19217811524868011, 0.03578244894742966, -0.027672795578837395], [0.19110943377017975, -0.015124190598726273, 0.024793041869997978], [0.12575682997703552, 0.14851349592208862, -0.01692655310034752], [0.09377266466617584, 0.1155787780880928, 0.16892576217651367], [0.1813988834619522, -0.3065513074398041, 0.19362851977348328], [-0.03071858361363411, 0.042901210486888885, 0.2061796635389328], [-0.012941529974341393, 0.10512974858283997, 0.044101715087890625], [-0.12264909595251083, 0.04427032917737961, 0.11402303725481033], [0.035702090710401535, -0.09135382622480392, -0.09969266504049301], [0.20282423496246338, 0.04740681126713753, 0.1143355444073677], [0.10663823783397675, 0.07152804732322693, 0.11955996602773666], [-0.37936946749687195, 0.1615592986345291, -0.1340046375989914], [-0.10227123647928238, -0.08879079669713974, 0.30953580141067505], [-0.16462065279483795, -0.1177176982164383, -0.1508348137140274]], [[0.049283936619758606, 0.14536447823047638, 0.06149303540587425], [-0.19992171227931976, -0.13364136219024658, 0.18396010994911194], [-0.13578717410564423, -0.12462820112705231, 0.11205388605594635], [-0.07355551421642303, 0.3026293218135834, 0.1575193703174591], [0.042299654334783554, -0.2314159870147705, 0.11655232310295105], [0.029192538931965828, -0.05613654851913452, 0.10471601039171219], [0.11884824931621552, 0.26002609729766846, 0.12325458973646164], [0.08814684301614761, -0.07093700021505356, -0.11558526009321213], [0.07173247635364532, -0.11644019186496735, 0.18061377108097076], [0.12459534406661987, -0.2244803011417389, 0.2147442102432251], [-0.09117885679006577, -0.15863828361034393, -0.09709502756595612], [-0.19895167648792267, -0.29789888858795166, 0.03017641417682171], [-0.4036153256893158, -0.3392097055912018, -0.07075955718755722], [0.030210910364985466, -0.059177983552217484, 0.14224639534950256], [-0.2175246924161911, -0.07322479784488678, 0.03698628023266792]], [[0.022266576066613197, 0.03318638354539871, 0.055019836872816086], [0.07146921753883362, 0.056380849331617355, 0.07689116895198822], [0.15847904980182648, -0.13631975650787354, -0.031222134828567505], [0.13550761342048645, 0.02550928294658661, -0.006497601978480816], [0.057660773396492004, -0.014905326999723911, -0.02940441109240055], [0.059995535761117935, -0.03415156528353691, 0.20243290066719055], [-0.13568809628486633, 0.02033166214823723, -0.09705908596515656], [-0.07707539200782776, 0.10855653136968613, -0.011978106573224068], [-0.0600549653172493, 0.13490614295005798, -0.03548409044742584], [0.15776066482067108, -0.07479342073202133, -0.04704323410987854], [-0.10593944042921066, -0.13072499632835388, -0.07372090220451355], [0.08457540720701218, -0.024661920964717865, -0.21821948885917664], [-0.08598177880048752, 0.08451025933027267, 0.11614017933607101], [0.022959880530834198, 0.08041723072528839, -0.2019588053226471], [-0.08126867562532425, -0.024729633703827858, 0.061068274080753326]], [[-0.1289164274930954, 0.1466943621635437, -0.19975872337818146], [0.0011283427011221647, -0.13620872795581818, 0.021969936788082123], [0.07801567018032074, 0.048451926559209824, -0.20405346155166626], [0.24717573821544647, 0.004374724812805653, -0.2526176869869232], [-0.09038884937763214, 0.13902229070663452, -0.015580647625029087], [-0.04472018778324127, 0.10342098027467728, 0.09310735762119293], [0.05565152317285538, 0.050898969173431396, -0.05584554374217987], [0.10964630544185638, 0.10011317580938339, 0.039595238864421844], [0.24793104827404022, -0.024416882544755936, -0.13029994070529938], [0.1487196385860443, -0.03570960462093353, -0.1260073482990265], [-0.051021791994571686, 0.03998910263180733, -0.05844323709607124], [0.0980507880449295, -0.10263341665267944, -0.08203212916851044], [0.04401601478457451, 0.09890498220920563, 0.0025480054318904877], [0.06358017772436142, 0.06554538011550903, 0.1867004632949829], [-0.11254614591598511, 0.10773073136806488, 0.07624681293964386]], [[-0.10889589786529541, 0.1239449754357338, 0.09201884269714355], [0.09774607419967651, -0.0075005232356488705, 0.024856306612491608], [-0.23074965178966522, -0.04942186921834946, 0.06520048528909683], [-0.2251206934452057, 0.1875281035900116, 0.0231985654681921], [0.07960397750139236, 0.09993007779121399, -0.10098087042570114], [0.004765239544212818, 0.008704259060323238, -0.1077045351266861], [0.004042351618409157, 0.1859402358531952, -0.260746031999588], [-0.03826920688152313, -0.0279344841837883, 0.08051884174346924], [-0.059403326362371445, -0.05935775116086006, 0.10646139830350876], [0.06313302367925644, 0.042134277522563934, 0.08160459250211716], [0.4165197014808655, -0.04946867749094963, 0.3761255443096161], [-0.10129629075527191, -0.08011932671070099, -0.10758952051401138], [0.19961120188236237, 0.10683047026395798, 0.07428949326276779], [0.07460281252861023, 0.04473216086626053, 0.1310202181339264], [-0.029582714661955833, -0.025388609617948532, -0.018675437197089195]], [[-0.0847875103354454, 0.11099545657634735, -0.14043393731117249], [-0.054872047156095505, -0.11707378178834915, 0.04037836939096451], [0.14984211325645447, -0.0033793861512094736, -0.049256332218647], [0.13146142661571503, -0.015149679034948349, -0.1759101152420044], [-0.024089092388749123, -0.08153212815523148, -0.05293280631303787], [-0.014204523526132107, 0.027528120204806328, 0.14744801819324493], [0.05224018171429634, 0.1533724069595337, -0.06216916814446449], [0.005274346563965082, 0.21294166147708893, -0.01304936595261097], [-0.029783010482788086, 0.0351979061961174, 0.18014805018901825], [0.09044073522090912, -0.20544441044330597, 0.027778934687376022], [-0.16651158034801483, -0.1509501039981842, -0.22124484181404114], [0.02406514436006546, -0.07236503809690475, -0.14700280129909515], [0.04383426904678345, 0.15130895376205444, 0.13599014282226562], [-0.1469428837299347, 0.08434396982192993, -0.13209973275661469], [-0.11648467183113098, -0.11766134947538376, 0.013448473066091537]], [[-0.14976279437541962, 0.00457431236281991, 0.07046835869550705], [0.2237355262041092, 0.09836474806070328, -0.03885950148105621], [-0.09055983275175095, 0.023197680711746216, 0.1463312953710556], [-0.14338766038417816, 0.1378059834241867, 0.07667779922485352], [0.040616847574710846, 0.029509909451007843, -0.10459113866090775], [-0.250681072473526, -0.06651801615953445, 0.0011385083198547363], [-0.1228652074933052, -0.09731981158256531, 0.02930108644068241], [0.1451684683561325, 0.07705483585596085, 0.19245712459087372], [0.09324222058057785, -0.045813340693712234, 0.15561074018478394], [0.012982159852981567, 0.06190328299999237, 0.028002992272377014], [0.40342822670936584, -0.20780782401561737, -0.24032270908355713], [-0.13900382816791534, 0.05893709883093834, -0.0015554782003164291], [-0.1611587256193161, 0.07071231305599213, 0.0789538025856018], [0.038963962346315384, -0.1412932276725769, 0.04888386279344559], [0.00032504956470802426, 0.08923991769552231, -0.11087781935930252]], [[0.17870481312274933, -0.054892461746931076, -0.05783436819911003], [-0.0608554445207119, -0.03723473474383354, -0.08075499534606934], [0.022006060928106308, 0.08872201293706894, 0.07373058050870895], [-0.016285590827465057, 0.05367651581764221, 0.030831364914774895], [-0.12561249732971191, -0.032509736716747284, -0.04649560898542404], [-0.19914083182811737, 0.014595504850149155, -0.17546166479587555], [-0.06392363458871841, 0.035627108067274094, 0.049131859093904495], [0.14329734444618225, 0.4798761308193207, 0.3713577389717102], [-0.01978500559926033, 0.13410340249538422, -0.14297610521316528], [-0.13085535168647766, -0.0315079465508461, 0.24320872128009796], [-0.11738040298223495, -0.09925690293312073, 0.008770341984927654], [0.3768405020236969, -0.012360366061329842, 0.0062515102326869965], [-0.2652176320552826, -0.412253737449646, -0.3354036211967468], [-0.15609760582447052, -0.17045044898986816, -0.32712599635124207], [0.048688724637031555, 0.14490583539009094, 0.10919642448425293]], [[-0.012050876393914223, -0.12154243886470795, -0.11339292675256729], [0.02070358581840992, 0.13279615342617035, 0.2504551112651825], [-0.17355673015117645, 0.12744538486003876, -0.25900930166244507], [-0.09579135477542877, 0.025365568697452545, 0.04773125797510147], [-0.06876305490732193, 0.2088225781917572, 0.07079794257879257], [-0.020028552040457726, -0.13972359895706177, -0.1416698545217514], [-0.021366577595472336, -0.1329439878463745, -0.1933242380619049], [-0.006398226134479046, 0.18129704892635345, 0.03501513600349426], [-0.010814866051077843, -0.15888816118240356, 0.03807356581091881], [-0.19633343815803528, 0.10461460053920746, -0.15636540949344635], [-0.075172558426857, -0.18664756417274475, 0.14009039103984833], [-0.04844818264245987, -0.03810512274503708, -0.001129210228100419], [-0.4067106246948242, -0.3280700445175171, -0.10363420099020004], [-0.297934353351593, -0.14500635862350464, -0.13475529849529266], [-0.11445172876119614, 0.13547226786613464, -0.15244700014591217]], [[0.1001354232430458, 0.1313585638999939, -0.0020384767558425665], [-0.18545804917812347, -0.2123645842075348, -0.16007991135120392], [-0.19563423097133636, -0.15967874228954315, 0.012069541960954666], [0.05473863333463669, -0.030418051406741142, -0.02624770812690258], [0.002667873864993453, -0.016841214150190353, 0.08141839504241943], [0.17154496908187866, -0.013965299353003502, -0.25536876916885376], [-0.10502278059720993, 0.05353908985853195, -0.16757942736148834], [0.18542857468128204, -0.1845249980688095, -0.11998356133699417], [-0.06648492068052292, 0.02128208614885807, 0.02205759659409523], [0.05907071754336357, 0.11975044757127762, 0.10103268921375275], [0.0836653858423233, -0.17290596663951874, 0.28498220443725586], [-0.17436529695987701, -0.05527724325656891, -0.09568118304014206], [-0.012121484614908695, 0.048880450427532196, -0.0227582398802042], [0.012450735084712505, -0.061593685299158096, 0.093045674264431], [-0.01141710951924324, -0.1725677102804184, 0.017498891800642014]], [[0.03941396251320839, -0.03604341298341751, 0.1346094012260437], [0.04497797042131424, -0.06802599132061005, -0.010900632478296757], [-0.16025850176811218, 0.1973971575498581, -0.21562744677066803], [-0.2572905123233795, 0.05253741890192032, -0.17240454256534576], [-0.12970663607120514, 0.16567349433898926, -0.29314565658569336], [-0.10725334286689758, 0.2162754386663437, 0.26785576343536377], [-0.1311837136745453, -0.005266897846013308, -0.04939388111233711], [-0.04648847505450249, 0.08107604086399078, 0.024002356454730034], [-0.2733590006828308, 0.11799676716327667, 0.10859711468219757], [0.0873960554599762, 0.10648888349533081, -0.017751334235072136], [-0.10874205827713013, -0.045401740819215775, -0.0382009856402874], [0.048763457685709, 0.18900883197784424, -0.3052230179309845], [0.18359911441802979, -0.34732651710510254, -0.099432073533535], [-0.11808200925588608, -0.09843232482671738, -0.003931727726012468], [-0.14926737546920776, 0.07279910147190094, 0.013004119507968426]], [[0.06378167122602463, 0.1624407321214676, 0.014798933640122414], [-0.07596172392368317, -0.0905388668179512, -0.005586450919508934], [-0.053186867386102676, -0.01197929959744215, -0.05283152312040329], [-0.05698679760098457, 0.02031608857214451, 0.01796918362379074], [0.05063752084970474, 0.0004958162899129093, 0.08217642456293106], [0.04810912907123566, -0.09613655507564545, 0.007760657928884029], [-0.14372338354587555, -0.09879976511001587, 0.008177264593541622], [0.033585075289011, -0.09711778163909912, 0.06994699686765671], [0.04196944460272789, 0.15391658246517181, 0.032392069697380066], [0.04049050807952881, 0.012582551687955856, 0.06583838164806366], [0.29387277364730835, -0.15196990966796875, 0.39259666204452515], [-0.12382509559392929, -0.012760631740093231, -0.127548947930336], [0.0035292026586830616, 0.04459274932742119, 0.05193040892481804], [0.264078289270401, 0.12131065875291824, 0.13484852015972137], [-0.05605914816260338, 0.005533734802156687, 0.05211009830236435]], [[-0.06403080374002457, -0.05147818475961685, -0.024936776608228683], [-0.03224264457821846, 0.1823708564043045, -0.09135887026786804], [0.07146742194890976, -0.07524270564317703, 0.01721501164138317], [-0.0781966894865036, -0.1303860992193222, 0.304907888174057], [0.23368321359157562, -0.26347413659095764, 0.18887197971343994], [0.25025835633277893, 0.0833292081952095, -0.11817401647567749], [0.2846992313861847, 0.1803009808063507, 0.12278138101100922], [-0.2567810118198395, -0.17638273537158966, 0.017347918823361397], [0.22772987186908722, -0.15487949550151825, 0.11068663746118546], [-0.018467284739017487, 0.07415568083524704, 0.04048647731542587], [0.0536235012114048, -0.052607063204050064, 0.009286178275942802], [0.09059888869524002, -0.06648349016904831, -0.1621628850698471], [0.09444174915552139, 0.06261756271123886, 0.027126669883728027], [-0.016800740733742714, 0.10662158578634262, 0.12040495127439499], [-0.08557352423667908, -0.07054224610328674, -0.10619140416383743]], [[0.09507891535758972, 0.05064280703663826, -0.18363872170448303], [-0.08208657801151276, -0.34506839513778687, 0.2544935941696167], [-0.22169646620750427, 0.22327226400375366, 0.06043548136949539], [-0.07433450222015381, 0.08191954344511032, 0.11945940554141998], [-0.001101001282222569, -0.18876096606254578, -0.10804589092731476], [-0.1136491522192955, 0.2524389624595642, -0.06540572643280029], [-0.13613438606262207, 0.27014702558517456, 0.04565510153770447], [-0.10765589773654938, -0.1943170577287674, 0.1437944918870926], [0.03476427495479584, -0.13131123781204224, -0.014884735457599163], [0.0655895546078682, -0.01241234503686428, 0.1464194506406784], [-0.11524667590856552, -0.044411301612854004, -0.024911710992455482], [-0.33310601115226746, -0.11861159652471542, 0.1325533390045166], [0.021923722699284554, 0.0964006707072258, 0.18180544674396515], [-0.1684035211801529, 0.08921917527914047, -0.15582850575447083], [0.1033838614821434, -0.006968195550143719, 0.10977011173963547]]], "conv3.bias": [-0.008695504628121853, 0.10377378761768341, 0.14482565224170685, 0.09270460158586502, -0.17520993947982788, -0.015427970327436924, 0.03271307423710823, -0.19910429418087006, 0.0824260264635086, -0.08876393735408783, 0.0631602331995964, -0.027315884828567505, 0.13635508716106415, -0.10930729657411575, -0.013050857931375504, 0.0579216293990612], "conv5.weight": [[[0.02556510642170906, 0.06866870075464249, 0.03298839554190636, 0.1482713520526886, -0.1015879437327385], [-0.0332065112888813, -0.2421998828649521, -0.0759446769952774, -0.12612400949001312, 0.07057130336761475], [0.004140517674386501, -0.021436186507344246, -0.009993486106395721, 0.06514103710651398, 0.14601565897464752], [0.026651879772543907, 0.003227097447961569, -0.15965238213539124, -0.07319018989801407, -0.030215967446565628], [-0.05718423053622246, -0.107389435172081, 0.0838702991604805, -0.08629201352596283, 0.08451420068740845], [0.09188556671142578, 0.13442325592041016, 0.03777621313929558, -0.20395782589912415, -0.05324775353074074], [0.009836583398282528, -0.044845741242170334, 0.1316612809896469, -0.0019232057966291904, -0.024198750033974648], [-0.16656389832496643, 0.12681502103805542, -0.22444365918636322, 0.0928884819149971, -0.03349854052066803], [-0.1001829206943512, -0.09552790969610214, -0.08467992395162582, 0.19496379792690277, -0.032866790890693665], [-0.09138445556163788, 0.08518160879611969, -0.10784845799207687, 0.20452770590782166, -0.10342130064964294], [-0.05222085490822792, 0.082330122590065, -0.09002358466386795, 0.33628207445144653, -0.22397564351558685], [0.11074917018413544, -0.1409643143415451, 0.17349949479103088, -0.24902863800525665, -0.13944116234779358], [-0.07264667004346848, 0.124456025660038, 0.09201805293560028, 0.08652191609144211, 0.11879640817642212], [0.03692564740777016, -0.19470550119876862, 0.03821534290909767, -0.0010842746123671532, -0.11717391014099121], [-0.07840102910995483, -0.07672113180160522, -0.048529721796512604, -0.013969211839139462, -0.12358791381120682]], [[-0.0055562700144946575, 0.040269531309604645, 0.0633191466331482, -0.1452382653951645, -0.0688987448811531], [-0.019154850393533707, -0.10122812539339066, -0.043010178953409195, -0.1069360002875328, 0.09826936572790146], [0.0030222346540540457, -0.025245530530810356, -0.07867444306612015, 0.09393608570098877, 0.0496843047440052], [-0.09906948357820511, -0.3724837303161621, -0.13935250043869019, -0.18246187269687653, -0.3075404465198517], [0.012165513820946217, 0.1011672392487526, -0.1342354118824005, -0.21226316690444946, -0.07903601974248886], [0.05945955216884613, 0.07146124541759491, -0.14265337586402893, -0.09463272988796234, -0.07025989145040512], [0.06640703231096268, -0.0287750493735075, -0.16019123792648315, 0.027594566345214844, -0.10431302338838577], [0.10171740502119064, 0.0904121994972229, 0.20366054773330688, -0.06601434201002121, 0.037417441606521606], [0.02264525555074215, 0.0014456758508458734, 0.021316375583410263, -0.006130129098892212, -0.029027819633483887], [-0.055885449051856995, -0.06694053113460541, 0.19631806015968323, 0.06354524195194244, 0.08819733560085297], [-0.05124220624566078, -0.11229307949542999, 0.3577963411808014, 0.003125102026388049, 0.5246706008911133], [-0.05931200087070465, -0.041683379560709, -0.03191915526986122, -0.05549919977784157, -0.3394652009010315], [-0.04531741887331009, -0.37482815980911255, -0.205586776137352, -0.11920063942670822, -0.033233389258384705], [0.10866129398345947, 0.0725298598408699, 0.06195206567645073, 0.05345792695879936, 0.06755102425813675], [-0.01664619892835617, 0.06189073249697685, -0.05554717034101486, 0.00979049876332283, 0.02271871641278267]], [[0.00019059509213548154, 0.13718895614147186, 0.17867426574230194, -0.17780648171901703, 0.05849698930978775], [-0.10738492012023926, 0.1030663475394249, -0.04432594031095505, 0.2783207297325134, 0.03268503397703171], [0.050070226192474365, 0.01591339334845543, -0.2460237741470337, 0.04206231236457825, 0.10371769964694977], [0.09834625571966171, 0.21652188897132874, -0.07813974469900131, 0.06613187491893768, 0.011939815245568752], [-0.04208199679851532, -0.13110794126987457, -0.050053082406520844, -0.09768232703208923, 0.07216185331344604], [-0.07821971923112869, -0.012089992873370647, -0.05644070729613304, 0.012257423251867294, 0.07841546833515167], [0.2235027700662613, -0.23279733955860138, 0.2179780751466751, 0.12410055100917816, -0.1228451356291771], [-0.15208184719085693, 0.2205013781785965, 0.16423363983631134, -0.09167841821908951, 0.06098485738039017], [-0.017754366621375084, -0.07224387675523758, 0.10202980786561966, -0.18676038086414337, -0.24300804734230042], [-0.2803966999053955, -0.04192783311009407, -0.039475977420806885, -0.04800184443593025, -0.20204472541809082], [0.018410956487059593, -0.1858372837305069, -0.030294643715023994, -0.06994225829839706, 0.08877397328615189], [-0.22360381484031677, -0.12230916321277618, 0.020377639681100845, 0.2262272983789444, 0.1265709400177002], [-0.3685285449028015, -0.10585317760705948, -0.31116026639938354, -0.07608337700366974, -0.41177088022232056], [-0.1714717000722885, -0.014502952806651592, 0.03167980536818504, -0.1159154623746872, -0.20205345749855042], [0.03999634459614754, 0.006449105218052864, -0.07433786988258362, 0.059721287339925766, -0.010166405700147152]], [[0.06314253062009811, 0.09874267131090164, -0.04511023312807083, 0.007271852344274521, -0.24288895726203918], [-0.11912471801042557, -0.1441127061843872, 0.023457353934645653, 0.07970647513866425, 0.33483973145484924], [-0.07637811452150345, 0.2786114513874054, -0.10513177514076233, -0.019265171140432358, -0.030406203120946884], [-0.10943982750177383, 0.052804071456193924, 0.08848312497138977, -0.06404580175876617, -0.010287743993103504], [0.2579510509967804, -0.32493120431900024, 0.06737156212329865, 0.06593503057956696, -0.04332467168569565], [0.1113564595580101, -0.07113740593194962, -0.09291547536849976, -0.12314154952764511, -0.0969575047492981], [0.039309483021497726, -0.07805375009775162, -0.08388032764196396, 0.009957687929272652, 0.32154008746147156], [0.17484429478645325, -0.12780706584453583, 0.09824283421039581, -0.10040289163589478, -0.055080387741327286], [0.10877826064825058, -0.024486854672431946, 0.007102497853338718, 0.16059941053390503, 0.010100491344928741], [0.1383955031633377, -0.07657001912593842, -0.05753512308001518, 0.12981130182743073, 0.01534970011562109], [-0.04346424341201782, -0.07181573659181595, 0.0003625605022534728, -0.11208603531122208, 0.21312950551509857], [0.010231350548565388, -0.3369285464286804, 0.04958923161029816, 0.07157471030950546, 0.22593815624713898], [0.13171084225177765, -0.4285077452659607, 0.28985461592674255, -0.2235117107629776, -0.2612636089324951], [0.157819464802742, -0.11539874970912933, -0.021991156041622162, 0.037997692823410034, -0.00012641603825613856], [-0.11340025067329407, -0.08330296725034714, -0.02929123304784298, -0.11131773144006729, -0.04860791563987732]], [[0.02956978604197502, -0.16171792149543762, -0.06110319122672081, -0.033887721598148346, 0.204847514629364], [-0.08720853924751282, 0.10799869894981384, -0.05774450674653053, -0.08028437942266464, -0.07899028062820435], [-0.0409371443092823, 0.011704017408192158, -0.044009167701005936, -0.0636621043086052, -0.10573231428861618], [-0.12168260663747787, -0.18607330322265625, -0.22200343012809753, -0.09408831596374512, 0.042727403342723846], [-0.19573307037353516, 0.03327425569295883, -0.11715476214885712, 0.0793207585811615, -0.1738518476486206], [0.11686825007200241, 0.16240255534648895, 0.07676278799772263, 0.31699126958847046, 0.15206769108772278], [0.20877406001091003, 0.4952537715435028, 0.24687983095645905, 0.2718619704246521, 0.2943335175514221], [0.009430758655071259, 0.042453866451978683, 0.026726050302386284, 0.013056766241788864, 0.13396196067333221], [0.10877889394760132, -0.022656893357634544, -0.01605604961514473, -0.09778566658496857, 0.05274096503853798], [-0.027775311842560768, -0.01022415142506361, -0.1473160684108734, -0.028031829744577408, -0.04495108500123024], [0.20846445858478546, 0.0494130440056324, -0.07567987591028214, -0.07482727617025375, 0.04821852594614029], [-0.0918581411242485, -0.013484111055731773, -0.02209593914449215, -0.007001441437751055, -0.007171943783760071], [0.1438083052635193, -0.11584542691707611, 0.059102483093738556, -0.0035354311112314463, 0.09843622148036957], [0.5171806812286377, 0.392601877450943, 0.22146502137184143, 0.40194272994995117, 0.37075984477996826], [-0.032482802867889404, 0.0476929172873497, -0.05368885397911072, 0.12956075370311737, 0.10761101543903351]], [[0.007567000575363636, -0.05138510465621948, 0.13235659897327423, -0.022712349891662598, 0.1373651623725891], [0.1609286218881607, -0.15144066512584686, -0.1406765729188919, -0.047608382999897, -0.044040754437446594], [-0.0702173188328743, -0.1386624425649643, 0.01563228853046894, -0.03111356310546398, 0.12871593236923218], [0.07643523812294006, -0.13576875627040863, -0.12389983981847763, -0.08493655174970627, 0.006953917443752289], [0.012774624861776829, -0.03283415734767914, -0.08430776000022888, -0.0030621150508522987, -0.2934669852256775], [0.06122516095638275, 0.09612717479467392, 0.013027897104620934, -0.14892154932022095, -0.004484362900257111], [-0.22286437451839447, 0.09034113585948944, -0.04625672847032547, -0.090391606092453, -0.23124869167804718], [-0.043525565415620804, 0.20715969800949097, 0.011945920065045357, -0.13985757529735565, -0.05983799695968628], [-0.09894054383039474, -0.13523699343204498, -0.06971467286348343, -0.031690385192632675, -0.045572299510240555], [0.12875676155090332, -0.11624035984277725, 0.0524907186627388, -0.03755711391568184, 0.2495580017566681], [0.3142179250717163, -0.153549462556839, 0.008040153421461582, -0.017979910597205162, 0.35290104150772095], [-0.14970578253269196, 0.038748860359191895, -0.032989129424095154, 0.1833096444606781, 0.03489011526107788], [-0.14688806235790253, -0.1791088730096817, 0.14582324028015137, 0.10541405528783798, -0.06443231552839279], [0.19826391339302063, -0.06497607380151749, -0.19637413322925568, -0.09228396415710449, 0.09207556396722794], [-0.023172153159976006, 0.012016921304166317, -0.020681826397776604, -0.02415168657898903, 0.021581539884209633]], [[0.12880030274391174, 0.10155957192182541, 0.037383630871772766, -0.13995106518268585, -0.22324107587337494], [-0.04305867850780487, -0.0012207037070766091, 0.0230772253125906, 0.11990489065647125, -0.008334753103554249], [-0.10287169367074966, -0.1367170661687851, -0.04475054144859314, 0.16746081411838531, 0.20852123200893402], [-0.07803193479776382, -0.008342375047504902, -0.12322739511728287, 0.045373011380434036, -0.1153104230761528], [-0.08097470551729202, 0.17491358518600464, 0.13874246180057526, 0.0014867221470922232, 0.04913615435361862], [-0.0032722929026931524, -0.10740897804498672, -0.2031707763671875, -0.06150660291314125, 0.039196524769067764], [-0.10190838575363159, -0.22399784624576569, 0.07350686192512512, -0.014487732201814651, -0.15050262212753296], [0.06043397635221481, -0.022724468261003494, -0.05848478525876999, 0.10276419669389725, 0.07251538336277008], [-0.0057538230903446674, -0.026028648018836975, 0.09055113047361374, -0.04748183488845825, 0.09128357470035553], [0.17395900189876556, 0.044750843197107315, -0.02023647166788578, -0.04935983568429947, 0.0312996469438076], [0.23161058127880096, 0.23035480082035065, 0.2927823066711426, -0.10064240545034409, -0.025525188073515892], [-0.03870803490281105, 0.04862208664417267, -0.04837837815284729, -0.04430710896849632, -0.14103570580482483], [0.16999466717243195, 0.041526343673467636, 0.0635591670870781, 0.19370537996292114, 0.1540476232767105], [0.0036299992352724075, 0.07343251258134842, 0.08410019427537918, 0.04173398017883301, -0.0833313912153244], [-0.029332326725125313, -0.04607518017292023, 0.024686582386493683, -0.10483714938163757, 0.10939496010541916]], [[0.016514744609594345, 0.01692621223628521, -0.16052556037902832, 0.1627378761768341, 0.06533004343509674], [-0.022949563339352608, -0.01857210136950016, -0.1754327416419983, -0.06434985995292664, -0.13912318646907806], [-0.16119393706321716, 0.14858169853687286, 0.1925077885389328, -0.05116167291998863, -0.01891189068555832], [-0.04721081256866455, -0.055348414927721024, 0.008186194114387035, -0.18496431410312653, 0.02401886135339737], [0.02372555434703827, -0.0021042702719569206, 0.06239651143550873, 0.05373995378613472, -0.12293469905853271], [0.08566293120384216, -0.11902140825986862, -0.015492675825953484, -0.07969534397125244, -0.052440542727708817], [0.13854776322841644, -0.003104196162894368, -0.021007003262639046, -0.0726136788725853, 0.0889364629983902], [0.1379656195640564, -0.020114293321967125, 0.21970456838607788, -0.1228782907128334, -0.22221291065216064], [0.13263140618801117, -0.07112447172403336, 0.06018349528312683, 0.05619454383850098, 0.041471365839242935], [0.1048421859741211, 0.010097688995301723, 0.07648918777704239, -0.020435113459825516, 0.05897849425673485], [-0.1375426948070526, -0.017702298238873482, 0.03974670171737671, 0.07965266704559326, -0.08243924379348755], [0.12192627787590027, -0.24470661580562592, -0.059995025396347046, -0.0905950590968132, 0.009741216897964478], [0.13172456622123718, -0.18744763731956482, 0.016628235578536987, 0.28742074966430664, 0.024998264387249947], [0.10240494459867477, -0.1430218517780304, 0.03750535473227501, -0.11900098621845245, -0.01694043166935444], [0.0026685220655053854, 0.12747082114219666, -0.04582474008202553, 0.08969543129205704, 0.014871060848236084]], [[0.07234537601470947, -0.1116332933306694, 0.04187929257750511, 0.0006822590949013829, -0.13658377528190613], [0.056778598576784134, 0.1664511263370514, 0.14735908806324005, 0.08285517990589142, 0.07950407266616821], [-0.0783955380320549, -0.2505773603916168, -0.16979308426380157, 0.021150466054677963, 0.015486566349864006], [-0.01781899482011795, 0.028489843010902405, -0.020171601325273514, 0.03003755398094654, -0.0020898920483887196], [0.07919932156801224, 0.174064502120018, 0.20207098126411438, -0.028894565999507904, -0.06607642024755478], [0.13771790266036987, 0.07468000054359436, 0.0653301551938057, 0.015098522417247295, 0.14548160135746002], [0.04411916062235832, -0.10336868464946747, 0.012607580982148647, -0.03896385803818703, 0.020986424759030342], [-0.030007561668753624, 0.15463325381278992, 0.2791508138179779, 0.3738204538822174, 0.26903191208839417], [-0.045993462204933167, -0.0021675110328942537, 0.06684118509292603, -0.03737330809235573, 0.03849588707089424], [0.119858518242836, -0.12081126868724823, -0.01766759343445301, -0.06966045498847961, -0.10203904658555984], [0.14452971518039703, 0.15961816906929016, 0.05527084320783615, -0.004670427180826664, -0.08466649800539017], [0.09975577145814896, -0.021743936464190483, -0.017931582406163216, 0.11907258629798889, 0.13882428407669067], [0.09606049209833145, 0.1950918436050415, 0.22246621549129486, 0.09599999338388443, 0.12609988451004028], [0.07277581095695496, 0.030209723860025406, 0.2219454050064087, -0.1489710658788681, -0.052848488092422485], [-0.020731760188937187, -0.024544889107346535, 0.06124173104763031, -0.02437778189778328, 0.07366844266653061]], [[-0.16391003131866455, 0.014896079897880554, 0.003517556469887495, -0.018758855760097504, -0.06803304702043533], [-0.03607119992375374, 0.02004070021212101, -0.05292438715696335, 0.08061143010854721, -0.022501545026898384], [0.14002655446529388, 0.009681458584964275, 0.000694295740686357, 0.06635142117738724, -0.004147158470004797], [-0.005919360090047121, -0.020673934370279312, 0.11062759160995483, 0.07825132459402084, 0.004208789672702551], [0.08845724165439606, -0.054458245635032654, -0.3029671907424927, 0.05481141433119774, -0.09879642724990845], [-0.03702617436647415, 0.07205921411514282, -0.06353014707565308, -0.03081868402659893, -0.09468024224042892], [0.07725739479064941, -0.0044044614769518375, -0.24520371854305267, -0.14294449985027313, 0.06435905396938324], [-0.02014395035803318, -0.07831484079360962, 0.11330288648605347, -0.0494208000600338, -0.027277613058686256], [0.011253789998590946, 0.020827779546380043, -0.09454786777496338, -0.03976916894316673, 0.004297460429370403], [0.1236298531293869, -0.07365471124649048, 0.07017949223518372, 0.04451936483383179, 0.05196741968393326], [-0.09329106658697128, -0.11729191243648529, 0.4889009892940521, -0.13423705101013184, 0.06969739496707916], [0.03976414352655411, 0.09923619776964188, 0.03941841423511505, -0.0509302020072937, -0.12797164916992188], [0.045284904539585114, 0.14075428247451782, 0.0888531357049942, 0.10428318381309509, 0.20228101313114166], [0.14368180930614471, 0.002827172400429845, 0.17271015048027039, -0.06228543072938919, -0.08121081441640854], [0.06246315687894821, 0.07002081722021103, -0.03870975971221924, 0.0578552708029747, -0.11287929117679596]], [[0.1772783249616623, -0.06704828888177872, -0.005674439482390881, -0.052568402141332626, -0.05600350722670555], [-0.11065700650215149, 0.05186023190617561, -0.013191036880016327, 0.11399433761835098, -0.14751751720905304], [-0.1036885604262352, -0.01709463633596897, 0.21027866005897522, 0.08455829322338104, 0.1522558182477951], [-0.06380188465118408, -0.08035499602556229, 0.014805201441049576, -0.006981782149523497, -0.016954520717263222], [0.13550521433353424, 0.15592962503433228, 0.13508570194244385, -0.18131078779697418, 0.06637676805257797], [-0.07439085841178894, 0.12990842759609222, 0.1108204573392868, 0.04010152444243431, 0.05897349864244461], [0.0020781292114406824, -0.07501198351383209, 0.030968453735113144, -0.10256585478782654, -0.25737738609313965], [-0.03965352103114128, 0.049431219696998596, -0.07106731832027435, -0.22974422574043274, -0.019708571955561638], [0.020190244540572166, -0.037797458469867706, -0.02480076253414154, -0.08401090651750565, 0.0786927342414856], [0.12601499259471893, 0.028544139117002487, 0.14306868612766266, -0.10419099032878876, 0.05166921019554138], [0.31261441111564636, 0.1390630304813385, 0.008003165014088154, 0.10438336431980133, 0.3391232192516327], [-0.06428825855255127, 0.0637427344918251, -0.00504568126052618, 0.2128104716539383, -0.04459799826145172], [-0.08112939447164536, -0.06505521386861801, 0.08520451188087463, 0.04469618573784828, 0.04799611121416092], [0.00503222132101655, -0.020432142540812492, 0.07554388791322708, -0.03503790125250816, 0.06386156380176544], [0.04113299772143364, 0.06532705575227737, 0.08837731927633286, 0.034626927226781845, -0.0395352877676487]], [[-0.17017804086208344, -0.09174247831106186, 0.06361307948827744, 0.019343309104442596, 0.02690262533724308], [0.05930368974804878, 0.02677229605615139, -0.04261302575469017, 0.10761211067438126, -0.14749112725257874], [-0.02446531504392624, 0.06211858615279198, -0.02066800184547901, 0.03738228604197502, 0.27295252680778503], [0.07559742033481598, 0.17885324358940125, -0.052079178392887115, -0.004387910943478346, -0.02363242581486702], [-0.057293571531772614, -0.11166318506002426, 0.08495673537254333, 0.13217973709106445, -0.07766678184270859], [-0.1377210021018982, -0.008333494886755943, 0.11300971359014511, -0.010023210197687149, -0.2516888380050659], [-0.13093233108520508, -0.2535637617111206, 0.03430968523025513, 0.15863770246505737, -0.00012393001816235483], [-0.09807702898979187, -0.06478239595890045, -0.08415233343839645, 0.028857160359621048, -0.17143619060516357], [0.0821910947561264, 0.06710896641016006, -0.03815740719437599, 0.09110872447490692, -0.017499012872576714], [0.052904561161994934, 0.12664368748664856, -0.14060834050178528, -0.035590361803770065, -0.07262733578681946], [0.08211638033390045, 0.31281277537345886, -0.031165938824415207, -0.08744148910045624, 0.020813439041376114], [0.10458552837371826, 0.052888188511133194, -0.07363922148942947, -0.20064277946949005, -0.016188692301511765], [-0.017000755295157433, -0.13448236882686615, 0.11690922826528549, 0.23341724276542664, 0.003300934098660946], [-0.002388572786003351, 0.025600310415029526, 0.009888425469398499, 0.025566192343831062, 0.045508358627557755], [-0.03499331697821617, -0.03446294739842415, -0.023526081815361977, 0.06635797023773193, -0.10104995220899582]], [[0.023602409288287163, 0.025697952136397362, -0.11440479010343552, -0.0707821473479271, 0.012856071814894676], [0.07190252840518951, -0.14089816808700562, -0.1583770364522934, 0.15279050171375275, -0.11611334979534149], [-0.16210736334323883, -0.03287513926625252, 0.11330568790435791, -0.08477988094091415, 0.19464938342571259], [-0.033690210431814194, 0.21601267158985138, 0.018089210614562035, -0.07827112823724747, -0.12955394387245178], [0.21712546050548553, 0.018973665311932564, -0.020577870309352875, -0.22596324980258942, -0.26161250472068787], [0.21210359036922455, 0.0705210268497467, -0.05601052939891815, 0.046424683183431625, -0.00823176372796297], [0.050407130271196365, -0.08803711086511612, -0.036148376762866974, 0.03903048112988472, -0.19031381607055664], [-0.11893858760595322, 0.12011166661977768, 0.11901415884494781, -0.10235758125782013, -0.020725123584270477], [-0.12161678820848465, 0.10711292922496796, 0.002351568778976798, -0.08317939937114716, -0.12139283865690231], [0.01100575178861618, 0.18820928037166595, 0.10754185914993286, -0.0810261219739914, 0.10814473032951355], [-0.09119296073913574, 0.0815700814127922, -0.07250875234603882, 0.23115867376327515, 0.2398213893175125], [-0.011749188415706158, 0.033432263880968094, 0.02600998803973198, -0.0013003890635445714, -0.041853148490190506], [-0.024160023778676987, -0.019275421276688576, 0.0465603843331337, 0.10806523263454437, 0.04094625264406204], [-0.04942264035344124, 0.1178383007645607, 0.0476248636841774, 0.0872572585940361, -0.02538938820362091], [0.027661265805363655, -0.03496653959155083, -0.08502934873104095, -0.07729066908359528, 0.07652544975280762]], [[0.08342843502759933, -0.063762366771698, 0.1201796755194664, -0.09244145452976227, -0.07401080429553986], [0.11335505545139313, 0.36087873578071594, -0.12620310485363007, 0.06139102205634117, -0.013694695197045803], [-0.09922408312559128, -0.22141045331954956, -0.09379472583532333, 0.28731873631477356, -0.038024161010980606], [-0.19800715148448944, 0.14558109641075134, 0.13235892355442047, 0.1291980743408203, -0.027001436799764633], [-0.1201084703207016, 0.0989130437374115, 0.02415570057928562, -0.020377768203616142, -0.005258213263005018], [0.17102868854999542, 0.15906400978565216, 0.006281600333750248, -0.022246427834033966, 0.19369995594024658], [0.23498095571994781, 0.10582344979047775, 0.2561549246311188, 0.3912365734577179, 0.2857234477996826], [-0.06411919742822647, 0.06164582446217537, 0.018135927617549896, -0.14435426890850067, 0.02802218869328499], [-0.03601619228720665, -0.08091933280229568, 0.030527792870998383, 0.11647793650627136, 0.07299122214317322], [0.23707571625709534, 0.18274368345737457, 0.142612487077713, -0.15548056364059448, -0.18410171568393707], [-0.09089649468660355, 0.007807470392435789, -0.14487159252166748, 0.008966440334916115, -0.007627715822309256], [-0.0814623311161995, 0.083990179002285, 0.021914377808570862, -0.2699168920516968, 0.4159754514694214], [-0.20191818475723267, 0.009026062674820423, -0.3386469781398773, -0.1867167204618454, 0.010250325314700603], [-0.061716608703136444, 0.014014783315360546, -0.04017835855484009, 0.14521895349025726, 0.12865576148033142], [-0.16894063353538513, 0.029948947951197624, -0.0004878529580309987, -0.03701116517186165, 0.13493701815605164]], [[-0.0665254294872284, 0.1808132827281952, -0.03531846031546593, -0.018411632627248764, -0.16376259922981262], [-0.0023906712885946035, -0.05184250697493553, 0.12047582119703293, -0.14746077358722687, -0.03976130113005638], [0.011375936679542065, -0.036345139145851135, -0.06390858441591263, 0.12997014820575714, 0.03758406266570091], [0.05303042009472847, -0.043203603476285934, 0.05692213028669357, -0.008478588424623013, 0.015138898976147175], [0.145216703414917, -0.1347772479057312, 0.1322522759437561, -0.03945720195770264, 0.007314235903322697], [0.09370063990354538, -0.030230196192860603, -0.0930936336517334, 0.02860684134066105, 0.031088054180145264], [-0.06610029935836792, -0.19949978590011597, -0.17619968950748444, -0.1500261425971985, -0.05406949296593666], [0.004026466049253941, -0.00177102186717093, -0.21097461879253387, 0.1659679114818573, -0.007161302957683802], [-0.16579356789588928, 0.04332553595304489, -0.11025140434503555, 0.24045805633068085, 0.13471896946430206], [-0.054186005145311356, 0.09462539106607437, -0.03656695783138275, 0.0037801184225827456, -0.007472842000424862], [0.0949573665857315, 0.08103855699300766, 0.2898367941379547, 0.2474314272403717, -0.02557140216231346], [0.17584113776683807, -0.11915088444948196, 0.06903127580881119, -0.28318560123443604, 0.07884965091943741], [0.10209356993436813, 0.1220315545797348, 0.0915798470377922, 0.09075780212879181, 0.16188056766986847], [0.04913896322250366, -0.07050400972366333, 0.06919305771589279, -0.1856238842010498, 0.0183161161839962], [0.03832590952515602, 0.005947032943367958, 0.037079013884067535, 0.07980496436357498, -0.09414694458246231]], [[0.16013136506080627, 0.09195675700902939, 0.1295822113752365, -0.03715309873223305, -0.06906960159540176], [-0.04766923561692238, -0.0791497752070427, -0.021633608266711235, -0.022993111982941628, -0.011403875425457954], [-0.039198894053697586, -0.07782860845327377, 0.07371655106544495, -0.059162385761737823, 0.1729687601327896], [0.0694739893078804, 0.17386119067668915, 0.18390393257141113, -0.04991486668586731, -0.11345043778419495], [-0.24931111931800842, -0.22565577924251556, 0.016504503786563873, -0.1349022537469864, -0.02137281931936741], [0.0241411030292511, 0.053148772567510605, -0.046966444700956345, 0.2736240327358246, -0.10010183602571487], [0.377352237701416, 0.21198786795139313, 0.10767930001020432, 0.40915077924728394, 0.21164366602897644], [-0.0890275090932846, 0.059653133153915405, -0.02892187237739563, -0.049045123159885406, -0.006296472158282995], [0.05063522607088089, 0.1690361350774765, 0.01844625547528267, 0.1314021199941635, 0.05860135704278946], [-0.30064207315444946, -0.16335290670394897, -0.13959245383739471, -0.0020882305689156055, 0.11713413894176483], [0.14374467730522156, -0.024102164432406425, -0.055621303617954254, -0.10427429527044296, 0.10377298295497894], [0.038878072053194046, -0.13917569816112518, 0.10922327637672424, -0.0875169113278389, 0.0642012357711792], [-0.14191535115242004, -0.07961522787809372, -0.24989883601665497, -0.21116456389427185, 0.06388965249061584], [0.12272446602582932, 0.11929703503847122, -0.03573358431458473, 0.22828537225723267, 0.07648471742868423], [-0.03451836109161377, 0.04884105920791626, 0.063405342400074, -0.04946892708539963, -0.04055066779255867]]], "conv5.bias": [-0.05721820518374443, -0.15897206962108612, 0.15622766315937042, 0.003593720495700836, -0.27546972036361694, 0.0008171636145561934, -0.09592703729867935, 0.09387554228305817, -0.17884008586406708, 0.014448108151555061, -0.0814405232667923, -0.1009199470281601, -0.15982043743133545, 0.1479397565126419, -0.03897258639335632, 0.09153617173433304], "fc1.weight": [[0.14727401733398438, -0.15463358163833618, 0.07009478658437729, 0.36881884932518005, 0.06203169375658035, -0.15623213350772858, -0.09048198163509369, 0.1062869131565094, -0.24881157279014587, 0.32948237657546997, 0.09863360226154327, -0.16436025500297546, 0.10925783216953278, -0.19345001876354218, 0.26470088958740234, 0.1555270403623581, -0.1543108969926834, -0.32794389128685, 0.3167989253997803, 0.26791805028915405, 0.39908456802368164, -0.23173552751541138, -0.135727658867836, 0.171366348862648, -0.1352817714214325, -0.02142694592475891, -0.13590477406978607, -0.26372793316841125, -0.22062498331069946, 0.3047267496585846, -0.008642916567623615, 0.16180619597434998, 0.1926366537809372, 0.23605750501155853, 0.15511150658130646, -0.08535457402467728, 0.17120397090911865, 0.01700514368712902], [-0.30246955156326294, 0.13912545144557953, -0.22877980768680573, -0.11579687148332596, -0.04272963106632233, 0.12918305397033691, 0.12756869196891785, 0.19872942566871643, 0.13439209759235382, -0.3894142508506775, -0.13555075228214264, 0.07252561300992966, -0.2214265912771225, 0.16631317138671875, -0.1429041028022766, -0.023298468440771103, 0.2662143111228943, 0.29546236991882324, -0.30576732754707336, -0.3717508018016815, -0.48798561096191406, 0.20215632021427155, 0.21102820336818695, -0.08444791287183762, 0.16008947789669037, 0.2286505550146103, 0.05504884198307991, 0.0805598571896553, 0.11086256802082062, -0.17059466242790222, 0.25423726439476013, -0.3213154077529907, -0.16766248643398285, 0.04918200150132179, -0.13495641946792603, 0.02239602617919445, 0.0389447920024395, -0.050414618104696274], [-0.18186956644058228, 0.16175268590450287, -0.2940903902053833, -0.22745244204998016, 0.09234116226434708, 0.18705610930919647, 0.17402490973472595, 0.11388185620307922, 0.2015691101551056, -0.358445942401886, -0.22818779945373535, 0.029601633548736572, -0.14473332464694977, 0.12252285331487656, -0.20005322992801666, -0.03861699253320694, 0.2906888425350189, 0.324850469827652, -0.34066298604011536, -0.24726128578186035, -0.3497081995010376, 0.30090564489364624, 0.2156461924314499, -0.08633066713809967, 0.048809830099344254, 0.09052303433418274, 0.27027446031570435, 0.1499304622411728, 0.07046639919281006, -0.5747935771942139, 0.13908210396766663, -0.2503414750099182, 0.04148879274725914, -0.026772426441311836, 0.09805165231227875, 0.22110214829444885, 0.11414018273353577, -0.14852461218833923], [0.12200517952442169, -0.11515527963638306, 0.20395229756832123, 0.24693405628204346, -0.09388095140457153, -0.05420113354921341, -0.2865198254585266, 0.02915031649172306, -0.17442812025547028, 0.3633984923362732, 0.08635441958904266, -0.010170934721827507, 0.11752910912036896, -0.2109803408384323, 0.17989656329154968, 0.2147165834903717, -0.03546538203954697, -0.37895068526268005, 0.39701128005981445, 0.25724825263023376, 0.2674081027507782, -0.14048653841018677, -0.23353616893291473, 0.21824058890342712, 0.0038009248673915863, -0.020394928753376007, -0.18970054388046265, -0.1458408087491989, -0.07866094261407852, 0.2526609003543854, -0.12312051653862, 0.21315765380859375, 0.04973088949918747, 0.11700133234262466, 0.10723382234573364, -0.22094810009002686, -0.0284857340157032, -0.04851824417710304], [0.21800543367862701, -0.05070541426539421, 0.13483303785324097, 0.2526039481163025, -0.017356451600790024, -0.1476534605026245, -0.15094397962093353, 0.009862218052148819, -0.02874845825135708, 0.19241806864738464, 0.21350589394569397, -0.1347695142030716, 0.10118594020605087, -0.11501824855804443, 0.22702544927597046, 0.09676817059516907, -0.2361295074224472, -0.33707743883132935, 0.28999924659729004, 0.3097204566001892, 0.2150963395833969, -0.035409554839134216, -0.11335096508264542, 0.05939551442861557, -0.09802841395139694, -0.09174298495054245, -0.03775600716471672, -0.13545826077461243, -0.2372216135263443, 0.2530997693538666, -0.01122894138097763, 0.2697792947292328, 0.01780708134174347, -0.05237830430269241, -0.05428886041045189, -0.03307844698429108, -0.056217171251773834, 0.08973213285207748], [-0.08357589691877365, 0.17134398221969604, 0.020204711705446243, -0.012855482287704945, 0.07062200456857681, 0.14009326696395874, 0.09945616871118546, 0.0823327824473381, 0.15438443422317505, -0.1355171799659729, -0.006018735468387604, 0.06445101648569107, -0.055467404425144196, 0.09865584969520569, -0.004103262908756733, 0.03063979372382164, 0.033156853169202805, 0.0806521326303482, -0.05201803892850876, -0.08212751150131226, -0.09369117021560669, 0.19718635082244873, 0.08533676713705063, 0.0919300988316536, 0.07956879585981369, 0.12145067751407623, 0.10346386581659317, 0.09250500053167343, 0.06413756310939789, 0.009074095636606216, 0.135917067527771, -0.1111188530921936, 0.05509215593338013, 0.01609034277498722, 0.1493816375732422, 0.12986578047275543, 0.06095515564084053, 0.01783597096800804], [-0.29324886202812195, 0.14541321992874146, -0.09443654119968414, -0.30933287739753723, 0.20378395915031433, 0.08964752405881882, 0.25489455461502075, 0.08984772861003876, 0.08220506459474564, -0.2769097089767456, -0.2725476920604706, 0.02566804178059101, -0.19945624470710754, 0.07398184388875961, -0.172403022646904, -0.1445046067237854, 0.26243844628334045, 0.1617015153169632, -0.2992238700389862, -0.23879575729370117, -0.448867529630661, 0.1693691611289978, 0.2632158696651459, -0.06398777663707733, 0.1190970167517662, 0.19538119435310364, 0.2520425319671631, 0.1710244119167328, 0.1505061537027359, -0.4468981921672821, 0.21445833146572113, -0.17554759979248047, 0.004660435486584902, 0.012776466086506844, -0.14629052579402924, 0.07197042554616928, -0.08607785403728485, -0.11251825094223022], [0.17038622498512268, -0.1571648269891739, 0.2107003927230835, 0.23600484430789948, 0.09447527676820755, -0.11850985139608383, -0.10076290369033813, -0.11994096636772156, -0.011103309690952301, 0.0745568722486496, 0.24611695110797882, -0.1168086901307106, 0.220101460814476, -0.13022854924201965, 0.26204225420951843, 0.057229552417993546, -0.21819214522838593, -0.2000347226858139, 0.12893104553222656, 0.20604367554187775, 0.2391517162322998, -0.0982084795832634, -0.043779999017715454, 0.07930448651313782, -0.031354036182165146, -0.0775020495057106, -0.14628969132900238, -0.17655132710933685, -0.15490040183067322, 0.15917637944221497, -0.09228356927633286, 0.18955577909946442, -0.06916404515504837, 0.06860680133104324, 0.2016121745109558, -0.15495136380195618, -0.020239192992448807, 0.0630212351679802], [-0.0029875098261982203, -0.0054411194287240505, -0.002828678349032998, -0.004199281334877014, -0.0005071447812952101, -0.0016130137955769897, 0.00034610278089530766, -0.0016338066197931767, -0.0013787016505375504, -0.012222222052514553, -0.0034584265667945147, -0.00016039496404118836, -0.009358467534184456, -0.0010828550439327955, -0.0005462160333991051, -0.003310766303911805, -0.005283260717988014, -0.0011221078457310796, -0.013545257970690727, -0.001426898641511798, -0.007694000378251076, -0.013710975646972656, -0.00015728645666968077, 0.0033592351246625185, -0.00047058629570528865, 0.004775450099259615, -0.0018347217701375484, -0.058169495314359665, -0.002122191246598959, -0.004673500545322895, -0.006791193503886461, -0.0034220870584249496, -0.00062466663075611, 0.014397937804460526, 0.031204797327518463, -3.645741399052305e-39, 0.005822112318128347, -0.0010660882107913494], [0.03991512581706047, 0.10216930508613586, 0.19052964448928833, 0.1901492029428482, 0.08398228883743286, -0.16854286193847656, -0.29788491129875183, 0.034354981034994125, -0.2171229124069214, 0.35078635811805725, 0.193791463971138, -0.051929935812950134, 0.22646963596343994, -0.06423497200012207, 0.17298662662506104, 0.12325961142778397, -0.1489040106534958, -0.30176907777786255, 0.14330224692821503, 0.11520179361104965, 0.34428513050079346, 0.00823867879807949, -0.10480552166700363, 0.17777076363563538, -0.2114648073911667, -0.20642872154712677, -0.20476756989955902, -0.13354232907295227, -0.1243671402335167, 0.25424641370773315, -0.14276085793972015, 0.17775388062000275, 0.14846564829349518, 0.19529962539672852, 0.16953545808792114, -0.06079000607132912, 0.15031777322292328, 0.17285595834255219], [0.12154240161180496, -0.1287013292312622, 0.2757861912250519, 0.17123180627822876, 0.06510692834854126, -0.14814920723438263, -0.1442248672246933, 0.02076593041419983, -0.1737334132194519, 0.3174889385700226, 0.15707634389400482, -0.09425386786460876, 0.1859753280878067, -0.02340058609843254, 0.14895567297935486, 0.09977266937494278, -0.2615932822227478, -0.3542458713054657, 0.2158825844526291, 0.2860700190067291, 0.3141975402832031, -0.14456011354923248, -0.050627801567316055, 0.04725569859147072, -0.1081114187836647, -0.02431063912808895, -0.2395012080669403, -0.10906845331192017, -0.14800038933753967, 0.2275063395500183, -0.16964171826839447, 0.29385340213775635, 0.110863097012043, 0.2038048803806305, 0.1408834308385849, -0.03138115629553795, 0.18261827528476715, -0.032260216772556305], [0.1617925465106964, -0.1195235550403595, -0.006462087854743004, 0.2959417700767517, 0.030701732262969017, -0.04434608668088913, -0.29018592834472656, -0.10224272310733795, -0.06130978837609291, 0.18648409843444824, 0.08695735782384872, 0.004147840663790703, 0.24775999784469604, -0.13910463452339172, 0.1014559268951416, 0.3008841872215271, -0.06925561279058456, -0.32984623312950134, 0.39625635743141174, 0.2583034038543701, 0.23314706981182098, -0.2114896923303604, -0.24841833114624023, 0.1355563849210739, 0.02540254220366478, -0.1728285700082779, -0.20516866445541382, -0.18024705350399017, -0.09916546940803528, 0.16548019647598267, 0.025284456089138985, 0.30567240715026855, 0.10778460651636124, 0.12659455835819244, 0.08492209017276764, -0.11368894577026367, -0.0533774308860302, 0.02953333966434002], [-0.15047687292099, 0.22524717450141907, -0.2336026430130005, -0.1619611531496048, 0.13409177958965302, 0.027790354564785957, 0.1205403208732605, 0.18832236528396606, 0.17761661112308502, -0.2302144318819046, -0.31649306416511536, 0.19621498882770538, -0.04912545904517174, -0.05452185869216919, -0.22067829966545105, -0.02667076885700226, 0.19485227763652802, 0.3192749321460724, -0.2989169955253601, -0.2838350534439087, -0.3915410339832306, 0.2748067378997803, 0.041653089225292206, -0.14433355629444122, 0.3017212748527527, 0.10467075556516647, 0.07315194606781006, 0.2642011344432831, 0.07764635980129242, -0.4033227562904358, 0.20788632333278656, -0.1708410233259201, 0.04718175157904625, 0.06613501161336899, -0.00815383531153202, 0.23668596148490906, -0.12687134742736816, -0.1742352992296219], [0.10493317246437073, 0.09148475527763367, 0.23290900886058807, 0.09034093469381332, 0.06622147560119629, -0.07670963555574417, -0.2001408338546753, -0.026408398523926735, -0.16299089789390564, 0.335821270942688, 0.09723898023366928, 0.010434889234602451, 0.1240825280547142, -0.25631392002105713, 0.2601219713687897, 0.10437102615833282, -0.1466711312532425, -0.25634583830833435, 0.23772169649600983, 0.33301445841789246, 0.23789414763450623, -0.03240028768777847, -0.24963882565498352, 0.0696052759885788, -0.24400845170021057, -0.17741349339485168, -0.26559901237487793, -0.24743714928627014, -0.11590654402971268, 0.29580822587013245, 0.055558085441589355, 0.2926079034805298, 0.04543652758002281, 0.15710987150669098, 0.15429945290088654, -0.1313832402229309, 0.18164262175559998, 0.15449155867099762], [0.18717418611049652, -0.05794581025838852, 0.1444283127784729, 0.2337348759174347, -0.11443198472261429, -0.0864015519618988, -0.19778016209602356, 0.07660267502069473, -0.1553979367017746, 0.2510111331939697, 0.21315839886665344, -0.10096101462841034, 0.26608675718307495, -0.1833321750164032, 0.11054027825593948, 0.1926051378250122, -0.07173634320497513, -0.39705890417099, 0.2938201427459717, 0.15316304564476013, 0.31255635619163513, -0.13270802795886993, -0.1058313399553299, 0.18361854553222656, -0.20816627144813538, -0.13810618221759796, -0.15219594538211823, -0.14570656418800354, -0.07941187918186188, 0.340019166469574, -0.11123580485582352, 0.30111920833587646, 0.22579705715179443, 0.15890009701251984, -0.042562417685985565, -0.027771441265940666, -0.022009653970599174, 0.14479093253612518], [-0.26331302523612976, -0.026743866503238678, -0.0868532732129097, -0.31975796818733215, -0.02263643592596054, 0.15299099683761597, 0.10532186180353165, 0.204095259308815, 0.16311924159526825, -0.3323584794998169, -0.22578032314777374, 0.17926988005638123, -0.24435146152973175, 0.06625156849622726, -0.044474583119153976, -0.17569167912006378, 0.21412664651870728, 0.3377746343612671, -0.3815203309059143, -0.3130247890949249, -0.5403491854667664, 0.18511167168617249, 0.16464075446128845, -0.022482730448246002, 0.2508638799190521, 0.28205063939094543, 0.24496318399906158, 0.09332344681024551, 0.2226828634738922, -0.31784680485725403, 0.2769993245601654, -0.1424671858549118, 0.029481615871191025, 0.10742679238319397, -0.02973209321498871, 0.05419820547103882, -0.0989885926246643, -0.16887159645557404]], "fc1.bias": [0.17844438552856445, 0.02654150314629078, -0.08927978575229645, 0.20238393545150757, 0.01968185417354107, 0.10840599238872528, 0.14454782009124756, 0.2142498642206192, 0.04312281683087349, 0.13911835849285126, 0.24696090817451477, 0.22015270590782166, -0.12981508672237396, -0.020835109055042267, 0.11694575101137161, 0.03515470400452614], "fc2.weight": [[-0.7360885739326477, 0.6558231115341187, 0.486889511346817, -0.9526593089103699, -0.6738834381103516, 0.17082518339157104, 0.6534344553947449, -0.5558887124061584, 0.052014630287885666, -0.7641099095344543, -0.8183873891830444, -0.7828540802001953, 0.5991618037223816, -0.7417098879814148, -0.7269560098648071, 0.6990094184875488]], "fc2.bias": [0.322005033493042], "norm_mean": [0.07265399396419525, 0.3804696500301361, 0.39187145233154297, 0.4114798903465271, 0.041467927396297455, 0.027432916685938835, 0.42771583795547485, 2.479201316833496, 0.19573883712291718, 0.47850215435028076, 0.03257296234369278], "norm_std": [0.11861486732959747, 0.2833503782749176, 0.27610287070274353, 0.2639046311378479, 0.10973375290632248, 0.07991235703229904, 0.18520668148994446, 1.8363301753997803, 0.3967686593532562, 0.2621874511241913, 0.46674418449401855]}