{"tool_embed.weight": [[-1.6039059162139893, 0.6707711219787598, 0.38222765922546387, 1.6084115505218506], [-0.38781750202178955, -1.473270297050476, 1.2303502559661865, 0.85089111328125], [1.427803874015808, -1.16572105884552, -0.878167986869812, 2.1527907848358154], [-0.779994547367096, 0.006634157616645098, 0.15678101778030396, -1.7884860038757324], [0.4066590666770935, -1.2242892449082348e-39, 0.06000225991010666, 0.2403370440006256], [-0.4504626393318176, -0.6589981913566589, 0.06453046947717667, 0.20715788006782532], [-0.3157118558883667, 0.8707582950592041, 0.07831303775310516, 1.1360185146331787]], "conv3.weight": [[[0.007191195152699947, -0.19454823434352875, -0.13046571612358093], [-0.18749690055847168, 0.09830254316329956, -0.16322271525859833], [0.15088100731372833, 0.11448980122804642, 0.17093013226985931], [-0.11128731071949005, 0.09571561217308044, -0.12954622507095337], [0.05433545261621475, 0.08411389589309692, -0.06625001132488251], [-1.5763830003006492e-38, 2.663030404199811e-39, 2.8090008626315986e-40], [6.154278647560305e-39, -2.9632636448558746e-38, -8.954563433743803e-40], [-0.008466742001473904, 0.016360705718398094, -0.06742613017559052], [5.36765695201464e-39, 2.5956447636473592e-39, 6.745988134509173e-39], [0.02489403262734413, -0.15121698379516602, -0.3150414824485779], [-0.010360274463891983, -0.10168178379535675, -0.05733482167124748], [0.13012667000293732, 0.0011118302354589105, 0.13864931464195251], [-0.0845370814204216, 0.0708012506365776, 0.016304701566696167], [0.09162643551826477, 0.21370774507522583, 0.320769339799881], [-0.11095882207155228, 0.029392024502158165, -0.11371549963951111], [0.0909724161028862, 0.15859487652778625, -0.002905473345890641], [0.052568621933460236, -0.12527333199977875, -0.23192568123340607], [-0.14048969745635986, 0.15621435642242432, 0.13205711543560028], [0.13045088946819305, 0.0405978299677372, 0.00194039405323565]], [[-0.029474426060914993, 0.16954077780246735, 0.16968436539173126], [0.11703070253133774, -0.05462757498025894, -0.05391785502433777], [-0.02867414429783821, -0.10004730522632599, -0.1200747862458229], [0.017814554274082184, -0.09633911401033401, -0.02771717682480812], [0.14535054564476013, -0.1402052938938141, -0.09828861802816391], [2.3486546989223956e-39, 2.3923906252924375e-39, -5.75141514815617e-39], [5.60387243284741e-39, 5.5257724642367306e-39, -3.866063352702703e-39], [-0.1719723492860794, -0.1309579759836197, -0.21635495126247406], [3.0772177964941545e-39, -1.859129297290557e-39, -2.04875776989777e-38], [-0.05670015141367912, 0.08736865222454071, 0.06884285062551498], [0.21650919318199158, -0.134959414601326, 0.1748432070016861], [-0.18897607922554016, 0.11987566202878952, 0.04224802181124687], [0.1150137335062027, -0.013289988040924072, -0.0016031248960644007], [0.07527841627597809, 0.15273989737033844, 0.07061704248189926], [-0.11836925894021988, 0.15849106013774872, 0.07991760224103928], [0.041663046926259995, -0.12133822590112686, 0.007991883903741837], [-0.015160144306719303, 0.12580890953540802, 0.0590304397046566], [-0.03415002301335335, 0.1425350308418274, 0.07186374813318253], [-0.0091567886993289, -0.13327310979366302, 0.14528359472751617]], [[-0.02412230521440506, -0.1101195216178894, 0.15265561640262604], [0.1113862693309784, 0.14108385145664215, -0.12650828063488007], [-0.12838414311408997, -0.10734791308641434, 0.0848378911614418], [-0.05091184750199318, 0.031189478933811188, -0.08728113770484924], [0.03005475550889969, 0.023001350462436676, -0.030615761876106262], [3.174972377365454e-39, -1.77128049526357e-39, -3.722032291345541e-39], [-6.111526432712219e-39, -5.938719146870761e-38, -4.7862512126739517e-39], [-0.022390024736523628, 0.1971583068370819, -0.10995376855134964], [-5.1437098392370336e-39, -3.4728477932254444e-39, -1.5357395995115258e-38], [-0.04413769394159317, 0.2124602198600769, -0.024060377851128578], [0.07978779822587967, -0.03242579102516174, 0.015162667259573936], [0.024208704009652138, -0.14784279465675354, 0.14697174727916718], [-0.08001621067523956, -0.1189814954996109, 0.0665704756975174], [-0.044601209461688995, 0.05636748671531677, -0.09170009195804596], [0.04146742448210716, -0.07490719109773636, 0.02542566880583763], [-0.061059173196554184, -0.12601222097873688, -0.023542732000350952], [0.0707947388291359, 0.1290910840034485, -0.08378047496080399], [-0.08037938922643661, -0.0735873132944107, 0.20352603495121002], [-0.09233816713094711, 0.08395044505596161, 0.03312162682414055]], [[-0.15160606801509857, -0.08039141446352005, -0.13166135549545288], [0.14887715876102448, -0.0979762151837349, 0.0009657444315962493], [-0.16521085798740387, -0.015854883939027786, -0.06665171682834625], [0.1179296150803566, 0.06963615864515305, 0.14380137622356415], [0.07815051823854446, -0.06462343037128448, 0.09817017614841461], [1.404154310595111e-39, 3.695410423120298e-39, 1.6463855657352276e-39], [-1.6193783404322954e-39, 5.923944416382306e-39, 6.747994793910086e-40], [-0.0005496201338246465, -0.1662379950284958, 0.029742714017629623], [-7.877742635325719e-39, -4.874640915908168e-39, 5.19128672469779e-39], [0.08074221014976501, -0.32353487610816956, 0.03930576518177986], [0.03656115010380745, 0.04371730238199234, 0.03476271778345108], [0.04081796854734421, 0.15605220198631287, 0.023806743323802948], [-0.05867285281419754, 0.010571728460490704, 0.08589672297239304], [-0.13828244805335999, -0.12681539356708527, 0.0663553923368454], [0.05605971813201904, 0.05829842388629913, 0.14526215195655823], [0.02288905903697014, 0.11687301844358444, -0.159123033285141], [0.013608824461698532, -0.006260600872337818, 0.15807752311229706], [0.13191741704940796, -0.08774641901254654, 0.10960958898067474], [-0.19640828669071198, -0.14440900087356567, 0.14206495881080627]], [[0.052848897874355316, -0.07154642045497894, -0.07693611830472946], [-0.11801565438508987, -0.013245515525341034, -0.18350915610790253], [0.005530362483114004, 0.09369193017482758, 0.028912248089909554], [0.13139095902442932, 0.03371496871113777, 0.05728303641080856], [0.03633790463209152, 0.014360710978507996, 0.07878495752811432], [-6.869802662921521e-39, 2.3019508224049138e-39, -3.727581433264267e-39], [1.072045173251665e-39, -4.073305586487093e-39, -5.1397021256290646e-39], [0.08545491844415665, 0.14967338740825653, -0.023364771157503128], [4.317885417853418e-39, 2.254665407024737e-39, 5.569976424293857e-39], [-0.015277688391506672, 0.10617677122354507, -0.04719924554228783], [-0.1424388736486435, 0.07672593742609024, -0.07758097350597382], [0.1439419537782669, -0.0743652731180191, 0.0045162090100348], [-0.045936282724142075, -0.07510215789079666, -0.22446183860301971], [-0.03801657631993294, 0.05140625312924385, 0.11709956079721451], [-0.14287994801998138, -0.003480407875031233, -0.1912163943052292], [-0.03460407257080078, 0.005224606022238731, 0.13750626146793365], [-0.048921920359134674, -0.08948589861392975, 0.034852754324674606], [0.20317021012306213, 0.007556862197816372, 0.1977609395980835], [0.0008414947660639882, -0.08656995743513107, 0.05092752352356911]], [[-0.05825388431549072, -0.21620678901672363, -0.13177700340747833], [-0.10140181332826614, 0.09988295286893845, -0.14288173615932465], [-0.17987380921840668, 0.0789768174290657, 0.056970659643411636], [-0.09031418710947037, -0.012280098162591457, 0.056651514023542404], [0.06593221426010132, 0.03489718958735466, -0.09585320949554443], [-6.459764515380043e-39, 9.469694762214249e-40, 5.318027164303648e-39], [-1.2159501177470378e-39, -2.4209378776076626e-39, -1.3736494443252241e-39], [0.07631903141736984, 0.09386701881885529, -0.065498948097229], [-6.270593426591586e-39, -1.0396135215933315e-39, 2.6186137270358e-38], [-0.15732425451278687, 0.12964706122875214, -0.30577078461647034], [0.06175946816802025, 0.024413669481873512, -0.002887711627408862], [0.0023120236583054066, 0.08159353584051132, 0.11878381669521332], [-0.026078730821609497, -0.06159098446369171, -0.10096501559019089], [0.09649038314819336, 0.08954086899757385, 0.09563465416431427], [0.13974888622760773, 0.041409075260162354, -0.17136670649051666], [-0.08328335732221603, -0.04122137650847435, 0.06663312017917633], [-0.05411466956138611, -0.03655187413096428, 0.023354636505246162], [0.23564985394477844, -0.06500521302223206, -0.11341337114572525], [0.05868716165423393, -0.19370652735233307, -0.04491179436445236]], [[-0.022954976186156273, 0.0024463608860969543, -0.039494626224040985], [-0.21420685946941376, -0.1786241978406906, -0.0871848464012146], [-0.07240675389766693, -0.05815128609538078, 0.027435842901468277], [0.18692810833454132, 0.11801976710557938, -0.01604350283741951], [0.015897629782557487, 0.01698041334748268, -0.024369562044739723], [-6.535501894779871e-40, -4.2101732100946264e-39, 6.395932567733119e-39], [-5.945246955636972e-39, 5.244380522212593e-39, 5.563872368183258e-39], [-0.11774078011512756, 0.2523757517337799, 0.14467298984527588], [1.493736518822468e-39, -4.012789111006761e-39, -5.6237288320868926e-39], [0.007566219195723534, 0.15080802142620087, 0.025519508868455887], [-0.05990009009838104, -0.16078394651412964, -0.19310249388217926], [-0.09422627091407776, 0.0815977081656456, 0.12055888772010803], [-0.11889494955539703, 0.03345455601811409, -0.0748535692691803], [-0.1415913701057434, -0.059094399213790894, 0.13386744260787964], [-0.08519291877746582, -0.03898794949054718, -0.07259433716535568], [0.014032961800694466, 0.15828688442707062, 0.05488564074039459], [0.10787051916122437, -0.08131784200668335, -0.14030779898166656], [-0.13263773918151855, -0.06390503793954849, 0.17505238950252533], [-0.04260092228651047, -0.19871105253696442, -0.1913570761680603]], [[0.04623815417289734, 0.10131246596574783, 0.038199346512556076], [-0.04117012396454811, -0.19880597293376923, 0.039082083851099014], [-0.15586058795452118, 0.22830349206924438, -0.00492364726960659], [-0.1209663525223732, -7.671458297409117e-05, -0.018452420830726624], [-0.06514676660299301, -0.2439204305410385, 0.07840326428413391], [-3.7366520382238415e-39, 2.633386775966098e-38, -5.5981621416052864e-39], [-1.3848402138613221e-39, 4.96666138346345e-39, 3.0190832481434823e-38], [0.13701650500297546, 0.09350989758968353, -0.008878433145582676], [-3.0989225084080816e-39, 5.336242643041406e-40, -8.468771091220925e-39], [0.0934147983789444, 0.1094660758972168, 0.03287677466869354], [-0.01681937463581562, -0.1334458589553833, -0.03682805225253105], [0.03167133033275604, -0.052569471299648285, -0.08935213088989258], [0.08958166837692261, 0.01787879690527916, -0.03752966597676277], [0.1998983919620514, -0.07492876052856445, 0.13685102760791779], [-0.14704152941703796, 0.10806715488433838, -0.169467031955719], [-0.06009447202086449, 0.024526182562112808, -0.11009426414966583], [0.030923089012503624, 0.12824927270412445, -0.027775485068559647], [-0.16878235340118408, -0.10041617602109909, 0.09679915755987167], [-0.025471307337284088, -0.004346005152910948, -0.10231413692235947]], [[0.023114191368222237, -0.17403431236743927, 0.01887235790491104], [0.20939411222934723, 0.0731365755200386, -0.10686223953962326], [-0.2660951614379883, -0.08916695415973663, -0.08355801552534103], [0.01593606173992157, 0.14565619826316833, -0.002363631036132574], [-0.050951216369867325, 0.15488781034946442, -0.04593996703624725], [-4.981306353714109e-39, 5.97737872942394e-41, -3.6824498136237576e-39], [2.8362925515227887e-39, -2.6548440185712254e-40, 6.884859614920691e-40], [0.1044885516166687, 0.16783681511878967, -0.05757627636194229], [3.232141150814513e-39, 1.709417652218715e-38, -5.6272012496814895e-39], [0.04988443851470947, -0.16498103737831116, 0.08456987142562866], [-0.0008713488350622356, 0.07688198238611221, -0.1463419497013092], [-0.11179595440626144, -0.03219149634242058, -0.025823840871453285], [-0.03969302400946617, -0.22327181696891785, -0.07821691781282425], [-0.046411480754613876, 0.09655968844890594, -0.07054197043180466], [0.12993735074996948, 0.07322848588228226, -0.04940438270568848], [0.008772638626396656, -0.15118920803070068, -0.0850335955619812], [-0.04012727364897728, 0.07731038331985474, -0.11952872574329376], [0.08971182256937027, -0.12954166531562805, 0.060828328132629395], [-0.12792915105819702, 0.07413418591022491, -0.12337638437747955]], [[0.0868082270026207, 0.16799190640449524, 0.08791302144527435], [0.041818831115961075, 0.26185891032218933, 0.16099806129932404], [-0.09693863242864609, -0.2388371378183365, 0.01740887574851513], [0.07367527484893799, -0.08549370616674423, -0.2101416289806366], [-0.22988983988761902, 0.05533852055668831, 0.0760427862405777], [4.329320013322308e-39, -3.666063029381943e-39, -3.0582273997056246e-39], [2.7468672887234362e-39, 2.864818784361049e-39, 3.258088994478416e-40], [-0.02682541497051716, 0.05435245856642723, 0.11013126373291016], [1.610681041383617e-38, -2.980103609021052e-39, -1.3659849582966917e-37], [0.16415241360664368, -0.0757283940911293, 0.0739915668964386], [-0.0041151647455990314, 0.05944397673010826, 0.07085953652858734], [0.005383457522839308, 0.24668149650096893, -0.04994559660553932], [-0.17379970848560333, -0.018414465710520744, 0.12252164632081985], [0.06957730650901794, 0.05350780487060547, -0.015712330117821693], [-0.20504255592823029, -0.15564826130867004, 0.058228086680173874], [-0.15078948438167572, -0.09770595282316208, 0.06369440257549286], [-0.0657697543501854, -0.004743661265820265, -0.13277219235897064], [0.15235349535942078, 0.24308407306671143, 0.12241038680076599], [0.14190123975276947, 0.12437541782855988, 0.03871669992804527]], [[-0.10497946292161942, -0.13469037413597107, 0.0254320427775383], [0.011738988570868969, 0.21465447545051575, 0.19269369542598724], [-0.0008601265144534409, -0.0016671568155288696, -0.04136249050498009], [-0.01076272688806057, 0.1303696185350418, -0.05743775889277458], [-0.12710487842559814, -0.1473989337682724, -0.28734278678894043], [1.3009192514298374e-39, -1.101738687710708e-39, 2.9353012945196586e-39], [-6.632513787465078e-40, -3.378017722249191e-39, 4.52335921297583e-39], [0.2162904590368271, -0.09668561816215515, -0.0025271871127188206], [-2.0654620883716003e-39, 4.682200597802441e-40, -7.496101801163783e-39], [-0.07534552365541458, 0.1515195071697235, 0.045042168349027634], [0.2161887288093567, 0.1472303718328476, 0.2590189278125763], [-0.12797294557094574, -0.022226553410291672, -0.04727518931031227], [0.10916165262460709, 0.07768747210502625, 0.1252015233039856], [-0.09282945096492767, 0.014619932509958744, -0.04520713537931442], [-0.15746617317199707, -0.2320464849472046, -0.06578553467988968], [-0.009984786622226238, -0.0612083375453949, 0.06986367702484131], [-0.041293974965810776, -0.003908977843821049, -0.06971383839845657], [-0.15953899919986725, -0.10999263823032379, 0.05288580432534218], [0.07914786785840988, -0.03535452485084534, 0.05001506581902504]], [[-0.1276710033416748, 0.1162584125995636, -0.14709657430648804], [0.29396769404411316, -0.03527570515871048, -0.14660371840000153], [-0.18886373937129974, -0.07359012216329575, 0.046858541667461395], [0.12802907824516296, 0.09349162131547928, 0.04042549803853035], [0.12038446962833405, -0.08915658295154572, 0.08970729261636734], [-6.403233332732252e-41, 9.399282316978855e-39, 5.780720502940595e-40], [6.475133956936758e-39, 6.083061857006389e-39, -1.9617842188916e-39], [0.15408830344676971, -0.09541954845190048, -0.07224483042955399], [-4.2270644617835977e-38, 1.5994356212074103e-38, -6.062776660436823e-39], [-0.0431915707886219, -0.15820369124412537, -0.023323606699705124], [-0.04399972781538963, -0.007858281955122948, 0.028666380792856216], [-0.0014314521104097366, 0.11095516383647919, 0.2273251712322235], [0.024496380239725113, 0.03984525799751282, -0.06351763010025024], [0.10929254442453384, -0.04251575842499733, -0.06871706992387772], [0.15236032009124756, -0.08975628018379211, 0.11521168053150177], [0.018069686368107796, 0.06414888799190521, 0.05718948692083359], [0.06088744103908539, -0.009793069213628769, 0.0862194076180458], [-0.13664597272872925, -0.06149166077375412, 0.28667065501213074], [-0.06401684880256653, -0.17909611761569977, -0.10840420424938202]], [[-0.029517102986574173, 0.02801489643752575, 0.048515286296606064], [0.03865693137049675, 0.003572349902242422, 0.290672242641449], [0.007339784875512123, 0.12899072468280792, 0.13201145827770233], [-0.12509794533252716, -0.04903119057416916, 0.017681129276752472], [0.15708023309707642, -0.20897608995437622, -0.11732140928506851], [6.613414089396331e-40, -1.5303706645753116e-39, 7.626945242673185e-40], [2.4845274006202585e-39, -3.220133424273714e-39, -2.6513547853950566e-39], [-0.1420118361711502, -0.0693662017583847, -0.03037521429359913], [3.166141394443279e-39, -3.959693912193494e-39, 2.6334237702455563e-39], [-0.03199482709169388, 0.04212585836648941, -0.15886403620243073], [0.1658819317817688, -0.1371353417634964, 0.26146262884140015], [-0.0954093262553215, 0.007796240504831076, 0.03844667226076126], [-0.05450768023729324, -0.19051256775856018, -0.05053276941180229], [-0.044122353196144104, 0.0659373328089714, -0.07879360765218735], [0.10542573034763336, 0.032164961099624634, -0.11706875264644623], [0.06791063398122787, -0.04336179047822952, -0.1951197385787964], [0.06517282873392105, -0.09980225563049316, -0.019821196794509888], [-0.027924271300435066, 0.05191551893949509, 0.06338118761777878], [-0.21437042951583862, 0.21049997210502625, 0.031384482979774475]], [[-0.0520796924829483, -0.014587730169296265, 0.09496670216321945], [0.016011299565434456, 0.17271576821804047, 0.11926468461751938], [-0.054991934448480606, -0.09888803958892822, -0.09449335932731628], [-0.0577038899064064, -0.15463997423648834, 0.052068520337343216], [-0.26037144660949707, 0.013406598009169102, -0.22770406305789948], [9.098266591260313e-40, 2.391939407186925e-39, -5.213853235167277e-40], [4.199911501440376e-39, 4.495581273517519e-39, -1.0567738225874532e-39], [0.21309277415275574, 0.33870643377304077, 0.1176089495420456], [1.902331328945691e-39, -4.451769677030404e-39, -1.4350277183611154e-39], [0.005316611845046282, 0.04454777389764786, 0.002723192796111107], [0.1341487318277359, -0.08060436695814133, 0.13632521033287048], [0.07152556627988815, -0.022202150896191597, 0.05228892341256142], [-0.1333516538143158, 0.021934041753411293, 0.04552420601248741], [0.041411396116018295, -0.0556621327996254, -0.17944453656673431], [-0.036081504076719284, -0.008727301843464375, 0.022412080317735672], [0.009232399053871632, -0.09431694447994232, 0.005212869960814714], [0.17865243554115295, -0.059999868273735046, 0.20317278802394867], [0.17040857672691345, 0.11731275171041489, -0.02148102968931198], [-0.08133282512426376, 0.01055171899497509, -0.057295992970466614]], [[0.10811600089073181, 0.07608801871538162, -0.13144321739673615], [-0.14557626843452454, -0.12322406470775604, 0.10753574967384338], [0.16527660191059113, 0.07547968626022339, -0.13708573579788208], [-0.054212018847465515, -0.07312421500682831, -0.01913507655262947], [0.008483072742819786, 0.15425755083560944, -0.030264027416706085], [6.492368526749489e-39, 5.2435551574171054e-39, 3.1016536391150507e-39], [-2.9082548328597253e-41, 6.9406032678315325e-40, 1.9843142956010145e-39], [-0.2082766741514206, 0.24667491018772125, 0.07772728055715561], [-1.905293393639581e-38, -6.495597118411293e-39, -4.1745479992360966e-39], [-0.11218538135290146, 0.07054615765810013, 0.11952367424964905], [-0.11914096772670746, -0.10662691295146942, 0.06466154009103775], [0.15556654334068298, -0.012689251452684402, -0.06446434557437897], [0.06151464581489563, 0.10498732328414917, -0.13648025691509247], [0.005413284990936518, -0.023144546896219254, 0.009913180954754353], [-0.0033333469182252884, 0.07033033668994904, 0.09848399460315704], [-0.011890878900885582, 0.1339796781539917, -0.023241695016622543], [-0.05078588053584099, -0.050207097083330154, -0.18686679005622864], [0.1437230110168457, -0.23663662374019623, 0.09903857111930847], [0.14604240655899048, -0.12543529272079468, 0.07977993786334991]], [[0.05528674274682999, -0.20027445256710052, -0.07100394368171692], [-0.043475937098264694, -0.06987135857343674, 0.2552923858165741], [0.17922820150852203, 0.07765276730060577, 0.026457538828253746], [0.11749282479286194, 0.018206512555480003, -0.11487230658531189], [0.14041085541248322, -0.08187975734472275, -0.05989254638552666], [4.6154637584389716e-39, -1.2976444169187104e-40, -3.0377950667973044e-39], [3.6965300605932933e-39, 1.940166387482461e-39, -4.478220586842999e-39], [-0.1013006791472435, 0.11297329515218735, 0.25729188323020935], [3.999926592402724e-39, 2.6825490905093914e-39, -8.195606172480839e-39], [0.1838243305683136, -0.3958832323551178, 0.008571320213377476], [0.03834414482116699, -0.08791358768939972, -0.09564749896526337], [0.051132626831531525, -0.17176911234855652, 0.0028196368366479874], [0.05091312900185585, -0.11714640259742737, 0.0575779527425766], [0.02538008987903595, 0.24554872512817383, 0.014512807130813599], [0.1062350794672966, 0.034223347902297974, 0.06855588406324387], [-0.16720229387283325, 0.12164423614740372, -0.04482032358646393], [0.0868624597787857, -0.037891123443841934, 0.10337071120738983], [-0.00013543333625420928, -0.12763629853725433, -0.10699198395013809], [0.035453345626592636, 0.0005049229366704822, -0.2157391756772995]]], "conv3.bias": [-0.137595996260643, -0.02055601216852665, 0.02934921532869339, -0.12206688523292542, -0.052033230662345886, 0.029066435992717743, -0.09341588616371155, -0.07847628742456436, -0.014300184324383736, 0.011051059700548649, -0.07318214327096939, 0.09132568538188934, 0.028319869190454483, 0.044021908193826675, 0.1044062077999115, 0.065651535987854], "conv5.weight": [[[0.12364010512828827, 0.11692996323108673, 0.06134014576673508, -0.007321069482713938, 0.09587884694337845], [-0.16357535123825073, 0.04741853475570679, -0.09781259298324585, -0.06678342819213867, 0.20603592693805695], [0.15157005190849304, 0.2457684874534607, -0.04571472108364105, 0.23085030913352966, -0.06768353283405304], [-0.07951734960079193, 0.005884385667741299, 0.04827796667814255, 0.02650173008441925, -0.007996130734682083], [-0.09349291026592255, 0.15210756659507751, -0.2394500970840454, -0.13349446654319763, -0.04729185998439789], [6.208906866893543e-39, -3.691321434201398e-39, 2.5807881973285875e-39, 3.8110007308455233e-39, 1.6611062061029598e-39], [4.59523181121105e-39, -5.542007908244398e-39, -4.550128217539827e-40, -5.168315238972113e-39, -2.030240451470796e-39], [0.16194020211696625, 0.11398180574178696, -0.020287055522203445, 0.010497239418327808, -0.11840306222438812], [3.726823330795067e-39, -3.8111352554980985e-39, -2.9904087579276964e-39, -1.1223279660470325e-39, 6.19447769660639e-39], [-0.013938170857727528, -0.10319776087999344, 0.008062818087637424, 0.018999267369508743, 0.16499845683574677], [-0.15075747668743134, 0.17164571583271027, -0.1311667561531067, 0.1260237842798233, -0.006026545073837042], [0.0978042334318161, -0.10500412434339523, -0.025637418031692505, 0.009109416045248508, 0.08110741525888443], [0.0008421610109508038, 0.0404680073261261, -0.11821746081113815, -0.0198916457593441, -0.00769025320187211], [0.17141862213611603, 0.24405314028263092, -0.047279924154281616, -0.0666261836886406, 0.030393745750188828], [0.06272978335618973, -0.1656239628791809, 0.2284485548734665, 0.08670782297849655, -0.10834680497646332], [0.03732513263821602, 0.011052004061639309, -0.01253244373947382, -0.01348020788282156, -0.002684131497517228], [0.058161213994026184, 0.008549301885068417, 0.14927202463150024, -0.02422112226486206, 0.07578538358211517], [-0.13534224033355713, -0.07230572402477264, 0.013101707212626934, 0.14887599647045135, 0.047126248478889465], [-0.23843108117580414, -0.11431501805782318, -0.020475875586271286, 0.015254473313689232, -0.07604403793811798]], [[-0.05615481734275818, 0.051509249955415726, -0.14516346156597137, 0.06129991635680199, -0.1879463791847229], [0.06499732285737991, 0.11411191523075104, -0.08207330107688904, -0.13021628558635712, 0.1282573640346527], [-0.10081374645233154, -0.0458577424287796, 0.08220349252223969, 0.13216626644134521, 0.050115782767534256], [-0.08950144052505493, 0.14931979775428772, 0.09250795841217041, -0.02716955356299877, -0.08737915754318237], [-0.0998660996556282, 0.11337824910879135, -0.08222045004367828, 0.08187571913003922, 0.005996997933834791], [5.75797322496921e-39, 1.472363914644586e-39, 2.710964901028663e-38, 4.6342635786363534e-39, -1.914979448884687e-38], [-3.625746271264854e-39, 4.002783839971482e-39, -3.071606997442998e-39, 4.4331576308272416e-39, 3.194051336216929e-38], [0.10043076425790787, -0.05210395157337189, 0.025600574910640717, -0.12751244008541107, 0.03396178036928177], [-4.0926743338609905e-40, 3.204542577559636e-39, -5.3495493732586346e-39, -2.1788257328370137e-39, 6.267751593305935e-39], [0.19892501831054688, 0.03757433220744133, 0.004030274227261543, 0.03046649694442749, -0.04143159091472626], [-0.09051986783742905, -0.11106093972921371, -0.1117929145693779, -0.04682842269539833, 0.00996163859963417], [0.03226552903652191, 0.10137399286031723, 0.03277519345283508, 0.21568924188613892, -0.06433234363794327], [-0.16443605720996857, -0.08094724267721176, 0.07865378260612488, 0.05411601811647415, 0.0447225384414196], [-0.04559015482664108, -0.03950422629714012, -0.019497260451316833, 0.1271335780620575, 0.09610147029161453], [-0.07093100994825363, -0.03428544104099274, -0.024026809260249138, 0.13381657004356384, 0.10836629569530487], [0.00386759452521801, -0.13983236253261566, 0.027375970035791397, -0.03521018102765083, 0.034753408282995224], [0.018180347979068756, 0.0549728125333786, 0.04193465784192085, -0.15201078355312347, 0.16031582653522491], [-0.2106160968542099, 0.12364215403795242, -0.024125345051288605, 0.16129887104034424, -0.11496681720018387], [-0.18004639446735382, -0.10436951369047165, 0.009341634809970856, 0.03185325860977173, 0.11732572317123413]], [[0.038888316601514816, 0.10861646384000778, -0.006298094987869263, 0.08481056988239288, -0.07064276933670044], [-0.0536750890314579, -0.00485859252512455, -0.050891052931547165, 0.09232942014932632, 0.0601099357008934], [0.27062171697616577, -0.16753807663917542, 0.13484445214271545, -0.05514954403042793, -0.017334606498479843], [-0.1098584309220314, 0.05229633301496506, 0.04196919873356819, -0.023770509287714958, 0.021321313455700874], [0.10375635325908661, -0.30376455187797546, 0.10336001217365265, -0.01298004761338234, -0.11848059296607971], [5.728736533809537e-39, -6.250240967695732e-39, -1.761168725545002e-39, 3.839102370249093e-39, 6.782222910199684e-39], [-5.387960365464242e-39, -4.589438843359531e-39, -4.038774789729201e-39, 9.90104105420425e-39, 4.2152347001477676e-39], [0.05807080119848251, 0.10465113073587418, -0.008849394507706165, -0.18225033581256866, -0.11276005208492279], [-2.460378824184549e-39, -4.040924381573475e-39, 6.544760273733665e-39, -3.2839023134897434e-39, 2.6887932764664228e-39], [-0.03567630052566528, -0.17148563265800476, 0.05452897027134895, 0.15868288278579712, 0.08465993404388428], [-0.04365186020731926, 0.2786307632923126, 0.2148684859275818, 0.15008579194545746, 0.1698589026927948], [-0.30962252616882324, 0.12086915224790573, -0.15597930550575256, 0.05855993181467056, -0.05326208844780922], [0.06114982068538666, 0.029051994904875755, 0.05959013104438782, 0.10971168428659439, 0.017306767404079437], [0.029580622911453247, 0.04781616851687431, -0.07448337227106094, 0.059455521404743195, -0.09425339847803116], [0.06937377899885178, -0.13372910022735596, -0.007766311056911945, -0.038261521607637405, -0.027393829077482224], [-0.15855562686920166, -0.09099699556827545, -0.06747490912675858, -0.009135974571108818, 0.0022433693520724773], [0.06856605410575867, 0.041117697954177856, -0.06601058691740036, 0.06011992320418358, 0.06855488568544388], [0.1162252128124237, 0.03579353541135788, -0.033469028770923615, 0.00405575055629015, -0.0066596390679478645], [0.1320321410894394, -0.06348777562379837, 0.11086652427911758, -0.040048178285360336, -0.0016800248995423317]], [[-0.020617270842194557, -0.10928498208522797, -0.0035096616484224796, -0.032867010682821274, -0.1443903148174286], [0.044059813022613525, 0.2679702043533325, -0.016248580068349838, 0.08751900494098663, 0.2103489190340042], [-0.0009997624438256025, -0.06809841841459274, 0.018485315144062042, -0.040828827768564224, -0.019852010533213615], [0.042854346334934235, 0.10099233686923981, 0.014604275114834309, -0.00898214615881443, 0.05346348509192467], [-0.035135429352521896, 0.07674679160118103, 0.05388926342129707, 0.0025962193030864, -0.03724679350852966], [-1.4163764358009521e-39, -5.7797269823293886e-39, 2.4183062390916606e-39, 6.490074601163389e-39, -1.9904828114409724e-39], [2.236727385382915e-39, -6.43228365119617e-39, 9.894330235858598e-40, 8.350370059035957e-38, -1.0319884961295545e-38], [-0.06875772774219513, 0.15320292115211487, 0.026924189180135727, 0.10661789774894714, 0.23425418138504028], [1.7533761047848917e-39, -6.285525663027431e-39, -3.1472827197103953e-39, -5.4123878002943524e-39, 1.5912999625832333e-38], [-0.011839144863188267, 0.00039211034891195595, -0.07093740999698639, -0.053772591054439545, 0.03510034829378128], [0.20556941628456116, 0.1683264821767807, 0.11116476356983185, 0.23865029215812683, 0.10839337855577469], [0.2623971402645111, -0.11761331558227539, -0.01724812015891075, -0.19116973876953125, -0.1922377198934555], [0.09994415193796158, -0.005238623358309269, -0.025291282683610916, -0.05066968500614166, -0.1798202395439148], [-0.01622152142226696, 0.09404890984296799, -0.024253619834780693, 0.12949953973293304, 0.11189737915992737], [0.0322207473218441, -0.1483006775379181, 0.0662769004702568, -0.08214689046144485, 0.02510216273367405], [0.08426990360021591, -0.1404644101858139, 0.0024205748923122883, -0.018664909526705742, 0.006176173686981201], [-0.02483510784804821, 0.2572675943374634, -0.04227730259299278, -0.022587386891245842, 0.05098884180188179], [0.029280830174684525, -0.035952091217041016, 0.2122865468263626, -0.1934421807527542, -0.050244733691215515], [-0.11144789308309555, -0.005211488343775272, -0.08188708126544952, -0.09920838475227356, 0.05253760144114494]], [[0.033146828413009644, -0.05863981321454048, -0.12327621877193451, -0.026586154475808144, -0.02858208306133747], [-0.1399741768836975, 0.11087193340063095, 0.1508629471063614, 0.02531750127673149, 0.09375710785388947], [0.10056114196777344, 0.043832965195178986, -0.0695251002907753, -0.04464229568839073, -0.1026669293642044], [-0.08285698294639587, -0.032780930399894714, -0.05774400383234024, 0.08584751933813095, 0.13816186785697937], [0.04032798483967781, -0.025001714006066322, -0.05342806130647659, 0.09147871285676956, 0.006179709453135729], [-2.4093141068460883e-39, -5.3630915216178696e-39, -9.071025349113838e-41, -1.692940904615491e-39, 5.080432805781982e-38], [-3.092309780954933e-39, 2.2501041805233599e-38, 7.48300386441774e-40, 8.00273145185117e-40, 6.240223084974274e-39], [-0.1371011734008789, 0.16080044209957123, 0.027591053396463394, 0.015626374632120132, 0.15959793329238892], [-5.987036478440066e-39, 3.254015419842624e-39, -1.9301120710009306e-39, 3.125541574036396e-39, -1.3808212898656385e-39], [0.07236183434724808, 0.06544901430606842, -0.018105821684002876, -0.06646949797868729, -0.001377785811200738], [-0.004511216189712286, 0.017963474616408348, 0.04844103753566742, 0.02953791245818138, -0.09344088286161423], [0.21929576992988586, -0.06264277547597885, -0.04043564200401306, 0.0067492760717868805, 0.09292882680892944], [0.07720265537500381, 0.06750736385583878, -0.024182945489883423, -0.005289692431688309, -0.18388807773590088], [0.09468600898981094, -0.01608113758265972, 0.0076697166077792645, 0.08628576248884201, 0.00652264803647995], [0.008954441174864769, 0.0838126614689827, 0.043896470218896866, -0.042258989065885544, -0.024020574986934662], [0.03150596097111702, -0.03370610624551773, 0.027087271213531494, 0.019630994647741318, 0.023951394483447075], [-0.026345379650592804, -0.03017854504287243, 0.08882071822881699, 0.0892183780670166, -0.11376514285802841], [0.29851460456848145, -0.17766015231609344, 0.07042638957500458, -0.04305333271622658, -0.07528930902481079], [0.1770867556333542, -0.0661763921380043, -0.04461503401398659, 0.06204590946435928, 0.008705101907253265]], [[-0.10026183724403381, -0.10347513854503632, 0.021551284939050674, 0.02546761929988861, -0.08765652030706406], [-0.04806826263666153, 0.1615002304315567, -0.11364573985338211, -0.0009187852847389877, 0.011702537536621094], [0.005207086447626352, 0.14065705239772797, 0.012241948395967484, -0.10897931456565857, -0.06619496643543243], [0.10080371052026749, 0.029174473136663437, -0.0919288694858551, -0.040785860270261765, 0.022193999961018562], [-0.001997797517105937, 0.12171754986047745, -0.09579115360975266, -0.11446114629507065, -0.06695559620857239], [3.1227235628246386e-39, -5.926200506909869e-39, 2.9208497034570768e-39, 4.7774706764964924e-39, -4.553325980635416e-39], [-3.72661033342849e-39, 2.3322510990990093e-40, -9.988959921154453e-40, 3.442393373700273e-39, -4.8938401061678825e-39], [-0.10934360325336456, 0.11639177054166794, -0.10790456831455231, -0.056391797959804535, 0.18416915833950043], [1.5727165028687433e-39, 8.855948455615408e-39, -2.8970486490405198e-39, -5.153483896025699e-39, 1.2464017346752804e-39], [0.007441913243383169, 0.07162342220544815, -0.19521954655647278, -0.0382482074201107, -0.00441777752712369], [0.05454614758491516, 0.05543989688158035, 0.06604567170143127, -0.009152666665613651, 0.1153801903128624], [0.24040937423706055, 0.06975755095481873, -0.006731186993420124, -0.06832387298345566, -0.1045849546790123], [-0.07449110597372055, 0.16683359444141388, 0.00474852928891778, -0.05372605845332146, -0.19612793624401093], [-0.01775249093770981, 0.016951264813542366, -0.012324701063334942, 0.10142850130796432, 0.05019237473607063], [-0.049789655953645706, 0.021278340369462967, 0.06874503940343857, -0.11183319240808487, -0.07744962722063065], [0.04307008907198906, -0.12112702429294586, -0.04811941087245941, -0.08610785007476807, 0.06259464472532272], [0.08912655711174011, 0.04907131940126419, 0.00706158671528101, 0.05525815859436989, -0.02678159810602665], [0.21553786098957062, -0.0750250592827797, 0.03254625201225281, 0.08970784395933151, -0.16859273612499237], [-0.10421820729970932, -0.06949952244758606, 0.08782891929149628, 0.05932272970676422, 0.1137615293264389]], [[-0.08045697212219238, 0.02288053371012211, 0.06951725482940674, -0.0846831202507019, -0.09755123406648636], [0.07565086334943771, -0.047118376940488815, -0.15776583552360535, 0.16720996797084808, 0.12763071060180664], [0.055879391729831696, 0.0013508811825886369, -0.13884319365024567, -0.0023884649854153395, -0.07157417386770248], [0.07767185568809509, 0.10461641848087311, -0.03476225584745407, 0.05821152776479721, -0.00974866934120655], [0.15629753470420837, -0.12794777750968933, 0.09480589628219604, 0.004397660959511995, -0.06241759657859802], [-8.219750545021155e-40, -4.435371682400875e-39, -1.4173307200551573e-39, -1.4413744793657354e-38, 4.1004823689042084e-39], [-5.915633315190395e-39, -6.754381912310479e-39, -2.0660282129511876e-39, -1.6619708072554482e-39, -4.1860582648220606e-39], [-0.02509225904941559, -0.05718747526407242, 0.04032059758901596, 0.15132425725460052, 0.12937980890274048], [-6.453527335915334e-39, -5.680499636772084e-39, -2.9630484054117543e-39, -3.350286025640203e-39, 2.0881157596055682e-38], [-0.06401039659976959, -0.12367326766252518, 0.11057335883378983, -0.1417870968580246, -0.08216524124145508], [0.046643584966659546, -0.00011513481149449944, -0.004375732969492674, -0.06775671988725662, -0.02560003101825714], [0.05115948244929314, -0.1277460753917694, 0.010082738474011421, -0.1136307567358017, -0.002882641274482012], [-0.0007200948311947286, -0.12998776137828827, 0.14283037185668945, -0.040166355669498444, -0.02989605814218521], [-0.0928938165307045, -0.059947386384010315, 0.08795606344938278, 0.06429432332515717, 0.0685310810804367], [0.08740979433059692, 0.05454203113913536, -0.009070551954209805, 0.19232545793056488, -0.020795946940779686], [0.03754863888025284, -0.08261606842279434, -0.10282234847545624, -0.004492670763283968, 0.0014034771593287587], [-0.1018628180027008, 0.04750118777155876, 0.10028635710477829, 0.08527503907680511, 0.051611002534627914], [0.0833061933517456, -0.15981225669384003, 0.07182525098323822, -0.15137183666229248, 0.011790961027145386], [-0.06448471546173096, -0.018254157155752182, 0.05250846594572067, -0.14602823555469513, -0.14676564931869507]], [[-0.03720559924840927, -0.008112169802188873, 0.0613633468747139, 0.05548834800720215, 0.029955023899674416], [0.06018399819731712, 0.11958697438240051, -0.03307696431875229, 0.1221979632973671, 0.19130705296993256], [-0.14963239431381226, 0.15424653887748718, -0.03431270271539688, -0.09662294387817383, -0.03574114665389061], [0.14022883772850037, 0.09358326345682144, 0.04513799026608467, 0.024394435808062553, 0.005078799556940794], [-0.2928222119808197, -0.12117552012205124, -0.1611752212047577, -0.3024350702762604, -0.1215912327170372], [-2.0366471880496891e-41, 2.5481043119466755e-39, 6.27609632566099e-39, -5.322333354484518e-39, 7.834057155700393e-40], [-3.105140069694291e-39, 3.141175861002868e-39, 2.9298474408965065e-39, -1.1299089907390297e-40, 3.225197716923784e-39], [0.11305298656225204, -0.04033346474170685, -0.021337829530239105, 0.011710090562701225, 0.04985336586833], [-9.44853963955803e-38, -4.15337157684322e-39, 6.367976663369839e-40, -1.2250399204955736e-38, -5.3642083564939365e-39], [-0.10262276232242584, 0.07543183863162994, 0.12500445544719696, 0.18348035216331482, 0.04710273817181587], [0.32355889678001404, 0.10552342236042023, 0.029436426237225533, 0.18300701677799225, 0.3082767724990845], [0.1767854392528534, -0.025413258001208305, 0.06028347462415695, 0.08019379526376724, -0.031832579523324966], [0.020617224276065826, 0.16802047193050385, 0.027164798229932785, 0.04616277292370796, 0.08280190080404282], [0.06754332035779953, -0.002868659095838666, 0.090633824467659, -0.07745987921953201, -0.079688161611557], [0.004989790730178356, 0.08459056168794632, -0.03786954656243324, -0.16755686700344086, -0.0952172577381134], [0.11360105127096176, 0.01730605587363243, -0.03448069840669632, -0.0017843907698988914, 0.0016921923961490393], [0.04775320738554001, 0.024324577301740646, 0.057820145040750504, -0.02289273403584957, -0.005288987420499325], [-0.03127186745405197, -0.008385415188968182, 0.1230977401137352, -0.019135713577270508, 0.0337175652384758], [0.03229769691824913, -0.07084955275058746, -0.016901779919862747, 0.08967775851488113, 0.038760505616664886]], [[-0.1769564151763916, -0.07477311044931412, -0.17833563685417175, -0.07109835743904114, 0.09361185878515244], [0.28868117928504944, 0.13906380534172058, 0.16068734228610992, -0.08489080518484116, -0.003618407528847456], [-0.08766467869281769, 0.032932695001363754, -0.09605692327022552, 0.04153918847441673, -0.040476392954587936], [-0.04628156125545502, 0.0335337333381176, 0.07512999325990677, -0.04383079335093498, -0.07733919471502304], [0.16844820976257324, 0.049352336674928665, -0.003074761014431715, -0.06713107228279114, -0.0032878718338906765], [-5.486510883863278e-39, 6.004828765041599e-39, 4.800768664764357e-39, -2.2922986785826444e-39, 5.124772691790148e-39], [1.7617110280506957e-38, 2.2144929826494733e-39, 4.0328290803450705e-39, -1.2547072306733336e-39, 4.379793382708824e-39], [0.2137395739555359, 0.07200518250465393, 0.1071472242474556, -0.060905132442712784, 0.0018457446713000536], [3.550708139798724e-39, -3.516851367602172e-39, -4.4114837474795296e-39, -6.559288936211785e-39, 1.9588527025042326e-39], [-0.043379493057727814, -0.1509382426738739, -0.1663098931312561, -0.07289452850818634, 0.01090669259428978], [-0.048097118735313416, 0.006606565788388252, -0.08618372678756714, -0.009952748194336891, -0.06827302277088165], [-0.10828129947185516, -0.0724596157670021, -0.04962305724620819, 0.02743031084537506, -0.154940664768219], [-0.023358231410384178, -0.1546722650527954, -0.04826692119240761, -0.11726323515176773, -0.005344906356185675], [0.1914568841457367, 0.13630251586437225, 0.046282801777124405, 0.027162054553627968, -0.005233392119407654], [0.10216204077005386, -0.05918005108833313, 0.10322501510381699, -0.1735157072544098, -0.08298331499099731], [0.0075055621564388275, -0.010721114464104176, -0.020629769191145897, -0.033138733357191086, -0.05997644364833832], [0.007441995199769735, 0.007172096986323595, 0.120195671916008, -0.01811886951327324, 0.03153848275542259], [-0.092287078499794, 0.03630031645298004, 0.030391449108719826, -0.06185181066393852, -0.006687439978122711], [0.03769093379378319, -0.03616877645254135, -0.03175890073180199, -0.0619029700756073, 0.05378620699048042]], [[0.020116858184337616, -0.15410761535167694, -0.14377932250499725, -0.04757639765739441, -0.18911349773406982], [0.08482865244150162, -0.012043158523738384, -0.09934137016534805, -0.02371816709637642, 0.04087680205702782], [-0.10851243138313293, 0.0958171933889389, 0.1431863158941269, -0.03691733628511429, 0.049726035445928574], [-0.008978154510259628, -0.13812901079654694, -0.12781260907649994, -0.08262469619512558, -0.008643615990877151], [0.012729990296065807, 0.09229476004838943, 0.10560671240091324, 0.04796679690480232, -0.042088232934474945], [5.66408062266559e-39, 5.2843105219535284e-39, 1.741418824988808e-39, 3.242195467296044e-39, -6.016849103268577e-39], [4.463750778900381e-39, -4.238190771590337e-38, 1.4160149007971563e-39, -2.6341874779086133e-39, 3.281347746389279e-39], [-0.0027652904391288757, -0.0019445279613137245, -0.02863253280520439, 0.15384206175804138, 0.12429631501436234], [1.1145661738531373e-39, 4.165499815051951e-40, -3.0459534264566035e-39, -5.7391607930856494e-39, -6.3755576880618365e-40], [-0.11509772390127182, -0.18701477348804474, -0.19910407066345215, -0.21003761887550354, -0.1821744441986084], [0.045023951679468155, 0.0491829514503479, 0.01819521375000477, -0.026243021711707115, -0.0321718193590641], [-0.044197339564561844, 0.13530680537223816, 0.15768875181674957, -0.07430057972669601, 0.04019710794091225], [0.015310104005038738, 0.014667484909296036, 0.02048545703291893, -0.011260314844548702, -0.039664287120103836], [0.17590588331222534, 0.04623046889901161, 0.17313916981220245, -0.015580788254737854, 0.08239128440618515], [-0.12692412734031677, -0.07916627824306488, -0.015726298093795776, 0.07727067917585373, -0.12151005864143372], [-0.10088629275560379, 0.09825059771537781, 0.017301226034760475, -0.018638795241713524, -0.05485273525118828], [-0.12082284688949585, 0.07112277299165726, 0.12116051465272903, -0.08800278604030609, 0.08473414182662964], [-0.015549032017588615, 0.16335031390190125, 0.1308310478925705, -0.12125912308692932, 0.12770605087280273], [-0.014165020547807217, -0.09354184567928314, 0.03174262493848801, -0.1483326107263565, -0.0508183054625988]], [[-0.05225885286927223, -0.09744556993246078, -0.0027104837354272604, -0.09683410078287125, -0.06933611631393433], [-0.03868866339325905, -0.05909048020839691, 0.08056183159351349, 0.03405376523733139, -0.0571170300245285], [-0.04587453976273537, -0.028349658474326134, 0.00019647006411105394, 0.07183375954627991, 0.13924743235111237], [-0.039176493883132935, -0.02562887966632843, 0.06322113424539566, 0.08972674608230591, 0.04280873015522957], [0.013731276616454124, -0.015034697018563747, -0.031599950045347214, 0.06623101979494095, -0.03035985864698887], [1.1012132007865861e-39, -3.78528270012977e-39, 4.0514355213543754e-39, 4.31632437136416e-39, 1.8850070760312434e-39], [-3.039066044504447e-40, -3.551199995559702e-39, -2.0406226717929786e-39, 1.6637616666928553e-40, -3.6548386286827014e-39], [-0.09174705296754837, -0.004148536361753941, -0.09626111388206482, 0.021346842870116234, 0.06760306656360626], [3.3681483771649514e-39, 2.291537773516516e-39, -6.172135393891196e-39, -1.2119410028406045e-40, 5.746838507371685e-39], [0.08831409364938736, 0.2388685643672943, 0.019383050501346588, 0.06746046245098114, -0.2848926782608032], [-0.058225665241479874, -0.00679436232894659, -0.1475794017314911, -0.11514215171337128, -0.044493168592453], [-0.03618527203798294, -0.04761200770735741, -0.07605862617492676, -0.01685114949941635, -0.006208101287484169], [0.048192303627729416, -0.18640078604221344, 0.13040043413639069, 0.060534004122018814, 0.05634644255042076], [0.10229817777872086, 0.02588597871363163, 0.10732882469892502, 0.17502596974372864, 0.19629377126693726], [-0.17171278595924377, -0.015113710425794125, -0.25408047437667847, -0.08037489652633667, -0.1354130059480667], [0.06460526585578918, -0.06177208200097084, 0.11865031719207764, -0.05925267934799194, -0.049879319965839386], [-0.17802110314369202, -0.08301883190870285, 0.13437411189079285, 0.029498577117919922, 0.06045908108353615], [0.0926559567451477, 0.14978723227977753, 0.10985533148050308, -0.1524541974067688, 0.22563865780830383], [0.04252457246184349, -0.09630937874317169, -0.01693899556994438, -0.03610135242342949, 0.020757334306836128]], [[0.09393174946308136, 0.0894681066274643, 0.014496568590402603, -0.035376716405153275, 0.026767250150442123], [0.20648439228534698, -0.0017422470264136791, 0.05170803144574165, 0.20629915595054626, -0.01342757511883974], [-0.09757128357887268, -0.007420088164508343, 0.04175746068358421, -0.06860987842082977, -0.08207222074270248], [0.041218288242816925, -0.04690881818532944, -0.07876842468976974, -0.006865859497338533, 0.02223711647093296], [0.007212574128061533, -0.16720418632030487, -0.23856981098651886, -0.04600166901946068, -0.3160642087459564], [1.3548215981585559e-39, -6.906229416501645e-39, -3.827905995519138e-39, 5.541918225142681e-39, -1.0547657618880758e-39], [1.9404606601599694e-38, -5.466117787311959e-39, 2.4487690664076178e-39, 7.409839829517798e-38, -2.4976214137306025e-38], [0.05239001289010048, -0.017754344269633293, -0.14195212721824646, -0.2702639102935791, -0.054269637912511826], [1.8457090618977182e-39, -2.909538422253047e-38, 4.1194951864681675e-39, -6.467048464797604e-40, -3.4441590097653224e-39], [-0.09481862932443619, 0.02864343486726284, -0.02147236093878746, 0.0610087625682354, 0.17712384462356567], [0.268718421459198, 0.09073110669851303, 0.19813889265060425, 0.22715245187282562, -0.0473906435072422], [0.015642361715435982, 0.00755278067663312, -0.013048743829131126, -0.0966842994093895, 0.0999281108379364], [0.1430482268333435, 0.04069257527589798, 0.03945649415254593, 0.10046994686126709, -0.0030293914023786783], [-0.02804148569703102, 0.04660838097333908, 0.11288907378911972, 0.09817604720592499, -0.026838578283786774], [-0.11996009200811386, 0.05834747850894928, -0.16554778814315796, 0.10207697749137878, 0.15263570845127106], [0.05934823304414749, 0.04486069828271866, 0.0026068624574691057, 0.05855277553200722, 0.014875629916787148], [-0.07550830394029617, 0.09025797247886658, 0.023632587864995003, 0.0023758322931826115, 0.09747921675443649], [-0.0793381929397583, -0.07799529284238815, -0.027370348572731018, 0.08863506466150284, 0.09617702662944794], [-0.030026793479919434, 0.0328897200524807, 0.15088923275470734, 0.1054842621088028, 0.09800272434949875]], [[-0.05434124171733856, -0.1661863476037979, -0.024959532544016838, -0.04730520024895668, 0.1268884390592575], [-0.11963387578725815, 0.08943206816911697, -0.04806815832853317, -0.11887072771787643, -0.0982353612780571], [0.11189407855272293, 0.1868188977241516, 0.11575781553983688, 0.042753707617521286, -0.10458605736494064], [-0.07381797581911087, -0.010676514357328415, -0.03962569683790207, 0.0820835754275322, 0.00495182117447257], [-0.21181003749370575, -0.23769162595272064, -0.11310528218746185, -0.11646324396133423, 0.00842340849339962], [3.068711914815703e-39, -7.503743081689747e-40, 2.8552128833881024e-39, -3.62586818423125e-39, -6.608669292796127e-39], [-4.303688863111343e-39, -3.627020051568925e-39, 4.7509777277299674e-39, 5.320151252515871e-38, -2.151470985514929e-39], [-0.033560268580913544, -0.027978546917438507, 0.04655449837446213, 0.14223173260688782, 0.06152861937880516], [-5.8012677423229897e-39, -2.165422313025747e-39, 2.111126201428553e-40, 3.523032495128309e-39, 4.520366039456032e-39], [0.0746697336435318, -0.19587552547454834, -0.015147708356380463, -0.046769510954618454, 0.17678621411323547], [-0.07971970736980438, -0.11693042516708374, -0.17884264886379242, -0.025526296347379684, -0.15353062748908997], [-0.043032143265008926, 0.12215130031108856, 0.0799107626080513, 0.00347108650021255, -0.02029871754348278], [0.07543327659368515, -0.17720066010951996, -0.15939247608184814, 0.018012918531894684, 0.0755469873547554], [0.18422472476959229, 0.004305178299546242, 0.004181647207587957, 0.09996574372053146, 0.046745214611291885], [0.13409170508384705, 0.060493968427181244, 0.13197459280490875, -0.0659167543053627, 0.06797592341899872], [-0.028743017464876175, -0.029176859185099602, -0.007051739376038313, 0.001200616592541337, 0.008705158717930317], [-0.08352351188659668, -0.023086778819561005, -0.03296886384487152, -0.03233249858021736, 0.06491000950336456], [0.039086561650037766, -0.1534499228000641, 0.04163771867752075, -0.1281958967447281, -0.16378866136074066], [-0.05033047869801521, -0.2049531787633896, -0.19241461157798767, 0.021907154470682144, -0.2186339795589447]], [[-0.07202398777008057, -0.022573422640562057, 0.012652886100113392, -0.018108701333403587, 0.07768110930919647], [0.05695796385407448, 0.16667130589485168, -0.13989220559597015, 0.019393548369407654, 0.10431301593780518], [-0.06362129747867584, 0.016113946214318275, -0.009469478391110897, 0.1641830950975418, 0.08716888725757599], [-0.03499799221754074, -0.056971225887537, -0.06431083381175995, 0.024375807493925095, -0.05395526811480522], [0.03486475348472595, 0.03794574737548828, -0.3440321683883667, -0.3555700480937958, -0.12313586473464966], [2.3950909274331914e-39, -3.983685543201199e-39, 2.516168719944713e-39, -1.154000113937702e-39, -5.399792929697001e-39], [4.818066293007982e-39, -1.5605392192137606e-39, -2.098321136061553e-39, 4.336086883606533e-39, -6.809807470469918e-39], [-0.11293672025203705, -0.08003214746713638, 0.053460635244846344, 0.034475792199373245, 0.034513212740421295], [3.451880164303752e-39, -4.768464531266277e-39, -4.8462169778578036e-39, -1.0322785649116697e-38, -6.550732607788618e-39], [-0.041388723999261856, -0.12262231111526489, 0.14197660982608795, 0.09806182235479355, -0.07154200226068497], [0.12257035076618195, 0.07160504162311554, -0.02899102121591568, 0.04197230935096741, 0.2791067361831665], [-0.11970262974500656, -0.10810504853725433, 0.04744143411517143, 0.10363525152206421, 0.1057489663362503], [0.08157390356063843, 0.07354415208101273, -0.05611509457230568, 0.0744965597987175, -0.0009826039895415306], [-0.03208449110388756, 0.04936401546001434, 0.011212793178856373, 0.04282420873641968, -0.015339191071689129], [-0.10536900162696838, -0.1250758022069931, 0.09442409873008728, -0.07526888698339462, -0.006070050876587629], [-0.18247690796852112, -0.0402306392788887, 0.15639732778072357, -0.09835731983184814, 0.18602067232131958], [-0.0240644384175539, -0.12744630873203278, 0.13369503617286682, -0.05795029178261757, 0.08262714743614197], [0.05655946582555771, 0.03688814118504524, -0.1359841674566269, -0.16388212144374847, 0.01407319214195013], [0.14911293983459473, 0.08925982564687729, -0.10405562818050385, 0.14333075284957886, -0.05964506044983864]], [[0.009609650820493698, -0.021670281887054443, -0.04466637969017029, 0.010392572730779648, 0.12970440089702606], [-0.05878102034330368, 0.03738810122013092, -0.13265888392925262, -0.14947006106376648, -0.09705985337495804], [0.04481210187077522, -0.08279190212488174, -0.009006966836750507, -0.07014941424131393, -0.16377393901348114], [0.046248216181993484, 0.13976967334747314, -0.06245956942439079, -0.02411556802690029, 0.019626621156930923], [0.029294012114405632, 0.1485377848148346, 0.11465022712945938, -0.005640193819999695, 0.028464626520872116], [3.774005050088884e-40, 4.175317312093011e-39, 3.350414945098921e-39, -1.153603546472298e-39, -1.3940607577565794e-39], [-2.0545123421713662e-39, 2.0410237234134684e-38, 6.769444469503506e-39, 1.4218737296764984e-39, 4.529587984649754e-39], [-0.06684073060750961, 0.0681285709142685, 0.10514751821756363, 0.18123361468315125, 0.04949359595775604], [-2.2897497166760376e-40, 5.313344024835874e-39, 5.951377636418393e-39, -2.8858312548335996e-39, 2.1015987731696087e-39], [-0.22211389243602753, -0.07094740122556686, -0.04954450577497482, -0.03830545023083687, 0.1784006655216217], [-0.07538339495658875, -0.08198053389787674, -0.029125940054655075, 0.007496959529817104, -0.17296822369098663], [0.047685932368040085, -0.0262747909873724, 0.11742311716079712, -0.033138349652290344, -0.030284766107797623], [0.052592355757951736, 0.08870040625333786, -0.12074937671422958, -0.08961132913827896, -0.22302258014678955], [0.07012933492660522, 0.16260026395320892, 0.03159954026341438, -0.07444500923156738, -0.13531097769737244], [-0.13977698981761932, -0.13478222489356995, 0.03430807963013649, 0.13516610860824585, -0.0030916256364434958], [0.013534142635762691, -0.0351821593940258, 0.05722658336162567, -0.08472125232219696, 0.00933582242578268], [0.12260361760854721, -0.016127023845911026, -0.09780997037887573, 0.026995113119482994, -0.05429144203662872], [0.1282719075679779, -0.11285080015659332, 0.19555987417697906, -0.10633205622434616, -0.013492535799741745], [-0.016224456951022148, -0.03559679165482521, 0.05130300298333168, 0.07961603999137878, -0.04015383496880531]], [[0.01937122456729412, -0.09755159914493561, -0.043656717985868454, 0.1696232706308365, -0.08421579003334045], [0.15604738891124725, 0.05365943908691406, 0.0728667601943016, 0.1342429220676422, 0.030291691422462463], [-0.15433183312416077, 0.13472607731819153, -0.05437101051211357, -0.06807626783847809, 0.02440028078854084], [-0.012840374372899532, -0.056948814541101456, 0.0008068120805546641, -0.10161798447370529, -0.015098800882697105], [0.09673542529344559, -0.24053512513637543, -0.009763223119080067, 0.0468204990029335, -0.25463101267814636], [-2.034304217017338e-39, -6.115827017699232e-41, 1.1302116712073239e-39, -4.921207465176146e-39, -4.211267624195264e-39], [-2.1070021800480452e-39, -3.3069312524524574e-39, 5.262659339640939e-38, -1.1041671379493829e-40, 1.6578005430256175e-39], [0.1746366024017334, -0.16544339060783386, -0.06897148489952087, 0.012233173474669456, -0.0772612914443016], [2.8122616841580824e-39, -1.3287462363343997e-39, -1.1658733158259262e-39, -3.182302569632337e-39, -3.248788576570692e-39], [-0.18067796528339386, 0.12308133393526077, 0.046539973467588425, 0.11234965920448303, 0.11849755048751831], [0.2627781331539154, 0.14564816653728485, 0.15978200733661652, 0.20108084380626678, -0.03188101574778557], [0.11936795711517334, -0.1711626648902893, -0.0038776048459112644, -0.03381301835179329, -0.05428018048405647], [-0.021698545664548874, 0.15831105411052704, 0.020534224808216095, -0.08220118284225464, 0.1268254667520523], [-0.00854097492992878, 0.06885150074958801, 0.11851385235786438, 0.035486459732055664, -0.02437785267829895], [-0.1217803806066513, 0.049624934792518616, -0.060415368527173996, -0.00044867623364552855, -0.042062222957611084], [0.10832367837429047, -0.038046639412641525, 0.1589674949645996, 0.1373337060213089, 0.02398485690355301], [-0.03224871680140495, -0.061126064509153366, -0.0517442412674427, 0.055729154497385025, -0.021739928051829338], [-0.06978714466094971, -0.08657954633235931, 0.05380141735076904, 0.16917003691196442, 0.08027123659849167], [0.040576208382844925, 0.025292279198765755, 0.1112426146864891, 0.08684079349040985, 0.11104798316955566]]], "conv5.bias": [-0.02279115840792656, 0.07284894585609436, 0.028813671320676804, -0.04523204267024994, 0.09237971901893616, 0.03364646062254906, -0.06498990952968597, 0.06292308121919632, 0.02194451540708542, -0.022674817591905594, -0.06174711510539055, -0.013880088925361633, -0.037265896797180176, -0.059477269649505615, 0.12221402674913406, 0.013099213130772114], "fc1.weight": [[0.02468460239470005, -0.2568400204181671, 0.18252651393413544, 0.048023879528045654, 0.20013566315174103, 0.043462060391902924, 0.2010696828365326, -0.11860722303390503, 0.16727860271930695, -0.2939924895763397, -0.005903973709791899, 0.23803986608982086, -0.015105306170880795, 0.11624663323163986, 0.1884293258190155, 0.0381140261888504, -0.18404243886470795, -0.072028249502182, -0.1733713448047638, 0.19774964451789856, -0.029086599126458168, -0.025036320090293884, 0.1878967136144638, 0.08430997282266617, 0.182941272854805, 0.20033416152000427, -0.035043489187955856, -0.15044699609279633, -0.0021421106066554785, -0.15423166751861572, -0.027138693258166313, -0.28495723009109497, 0.059710126370191574, -0.03177454695105553, -0.048285070806741714, 0.07832738012075424, -0.06735432147979736, 0.0024671924766153097], [-0.29468613862991333, 0.02539406158030033, -0.11378046125173569, -0.1550283432006836, -0.18163606524467468, -0.06026359274983406, -0.09421490132808685, 0.0724148377776146, -0.1028362512588501, 0.11708229780197144, 0.19383621215820312, 0.02723041921854019, -0.0620904304087162, 0.03795195370912552, -0.08201434463262558, -0.07786670327186584, 0.05967387929558754, -0.286235511302948, 0.2590198516845703, 0.15838167071342468, 0.007664659526199102, -0.006002509966492653, 0.09079859405755997, 0.10308825224637985, -0.17480148375034332, -0.2473263144493103, -0.2261909395456314, 0.16352489590644836, -0.10665179789066315, 0.0795258954167366, -0.07465464621782303, 0.18998941779136658, 0.21764755249023438, -0.04456935077905655, 0.16554512083530426, -0.09245620667934418, 0.1253099888563156, -0.21044741570949554], [0.16094599664211273, -0.24671362340450287, -0.020038150250911713, 0.022397994995117188, 0.08005934953689575, -0.09016035497188568, 0.1382932960987091, -0.14073477685451508, 0.005738269072026014, -0.17151868343353271, -0.006912169046700001, 0.1340954601764679, -0.2079981118440628, 0.016960298642516136, 0.15303169190883636, 0.020828938111662865, -0.04225556179881096, 0.14493635296821594, -0.07032673060894012, 0.16798090934753418, 0.11132996529340744, 0.19301486015319824, 0.048352260142564774, -0.11813793331384659, 0.18041691184043884, 0.1924249529838562, 0.22932814061641693, -0.12768582999706268, -0.14462919533252716, -0.06549634039402008, 0.13226735591888428, -0.13711358606815338, -0.16290777921676636, 0.11564725637435913, -0.03904270753264427, -0.09061644971370697, -0.08382514119148254, 0.058024607598781586], [0.14223462343215942, -0.07770761847496033, 0.04831501841545105, 0.18754784762859344, -0.05244222283363342, -0.005362990312278271, 0.028493618592619896, -0.15717525780200958, 0.06606747210025787, -0.09193385392427444, -0.00914377998560667, 0.1318894922733307, -0.1760314404964447, 0.11673802137374878, 0.293069064617157, 0.15070697665214539, -0.2563647925853729, 0.20421017706394196, -0.13813526928424835, 0.21490535140037537, 0.01758594624698162, -0.05137595534324646, 0.19920916855335236, -0.1396235078573227, 0.11488202214241028, 0.13146577775478363, 0.14936865866184235, -0.030525805428624153, -0.1801813244819641, -0.19575583934783936, -0.0043096081353724, -0.19230449199676514, -0.22298987209796906, -0.032436203211545944, 0.14147569239139557, 0.08387492597103119, -0.04816313460469246, -0.03187860548496246], [0.09898852556943893, -0.20205043256282806, 0.14955297112464905, 0.10634040832519531, -0.06402704119682312, 0.2083715945482254, -0.028235994279384613, -0.11569274216890335, 0.14046546816825867, -0.028505252674221992, -0.04562760889530182, 0.06095809489488602, 0.011646255850791931, -0.02388012409210205, 0.23362335562705994, 0.11624697595834732, -0.1465037614107132, 0.0675181895494461, -0.2526467740535736, 0.1472616344690323, 0.10742278397083282, -0.026202186942100525, 0.1744316667318344, 0.02418052777647972, 0.09293416142463684, 0.1777896285057068, 0.07006018608808517, -0.262942910194397, -0.02615554817020893, -0.14019112288951874, 0.10661514103412628, 0.013505074195563793, -0.0876159742474556, -0.0894019827246666, 0.14247708022594452, -0.15893855690956116, -0.11212292313575745, 0.14433318376541138], [0.06761173158884048, -0.2692049443721771, 0.008414200507104397, 0.186009481549263, -0.0323544442653656, -0.03022194467484951, 0.24947255849838257, -0.05028746277093887, 0.04929850250482559, -0.3052369952201843, -0.11503250151872635, 0.15435713529586792, -0.1604069024324417, 0.10854074358940125, 0.26381486654281616, 0.2075682431459427, -0.25128352642059326, 0.18877625465393066, -0.021387752145528793, 0.2151261270046234, 0.24314965307712555, 0.2710072696208954, -0.006992693990468979, -0.1293235421180725, 0.1030653640627861, 0.20612521469593048, 0.03005601279437542, -0.24400250613689423, -0.08217387646436691, -0.08840120583772659, -0.03821023553609848, -0.219525545835495, -0.23080192506313324, -0.04935671016573906, -0.11953405290842056, -0.008367575705051422, -0.0049949935637414455, 0.21249517798423767], [0.07935032993555069, 0.16951033473014832, 0.009286724030971527, 0.06604374945163727, 0.08072301745414734, -0.04336712136864662, 0.09558320790529251, -0.020038317888975143, 0.15683740377426147, 0.08491289615631104, 0.11091694980859756, 0.1296985000371933, 0.15228678286075592, 0.011832942254841328, 0.15862487256526947, 0.012409722432494164, 0.0010287356562912464, 0.1105935126543045, -0.10982555150985718, 0.05704083293676376, 0.06365831941366196, 0.1250215768814087, 0.00447452999651432, 0.002191685140132904, 0.18205682933330536, -0.04581506922841072, -0.01751870848238468, 0.04656106233596802, 0.05751049146056175, 0.10080000758171082, 0.10830098390579224, -0.11541669070720673, 0.01893981173634529, 0.08676259964704514, 0.02407098188996315, 0.0441046841442585, 0.01614033617079258, 0.003656556364148855], [0.06357589364051819, -0.2443230152130127, -0.025765715166926384, 0.0759088471531868, 0.12513841688632965, 0.12025833874940872, 0.09012573212385178, -0.19407182931900024, 0.10364051908254623, -0.28849679231643677, 0.026783417910337448, 0.06984814256429672, -0.21267208456993103, -0.05017535760998726, 0.1344541609287262, 0.15227334201335907, -0.15987862646579742, 0.11217667162418365, -0.13582155108451843, 0.14354294538497925, 0.03375845029950142, 0.22996480762958527, -0.10737571120262146, -0.15033307671546936, 0.19959978759288788, 0.2112133949995041, 0.14076392352581024, -0.13196708261966705, -0.20222842693328857, -0.030825216323137283, 0.11162856221199036, -0.21505765616893768, 0.05212659016251564, 0.11671603471040726, 0.024424627423286438, -0.1197345182299614, 0.11546693742275238, 0.0564880333840847], [0.15367391705513, -0.058452095836400986, 0.04355171322822571, 0.13544721901416779, -0.008430146612226963, 0.22576966881752014, 0.12654125690460205, -0.14627929031848907, 0.22503753006458282, -0.19448091089725494, -0.17023079097270966, 0.14880409836769104, -0.14819686114788055, 0.1704780012369156, 0.1014222577214241, 0.0803498849272728, -0.1425606906414032, 0.0022951196879148483, 0.016000481322407722, 0.048926495015621185, 0.0014523181598633528, 0.1461070328950882, 0.22186127305030823, -0.18350158631801605, 0.026198863983154297, -0.05946638062596321, -0.023500626906752586, -0.02743005007505417, -0.13759271800518036, -0.06356704980134964, 0.23085515201091766, -0.01500914990901947, -0.20024795830249786, 0.11235616356134415, -0.032480448484420776, 0.07946553081274033, -0.04432596638798714, -0.10272199660539627], [0.3179996609687805, -0.2655402719974518, 0.2165365070104599, 0.16900138556957245, 0.19785001873970032, 0.08320301026105881, 0.16033358871936798, -0.029178600758314133, 0.21000884473323822, -0.1394616812467575, 0.07028859108686447, 0.05155855044722557, -0.1866801530122757, -0.057729773223400116, 0.1484205722808838, 0.004522155039012432, -0.013799170032143593, -0.0033775006886571646, -0.26778870820999146, 0.18093468248844147, 0.023662781342864037, 0.27662402391433716, 0.0479881577193737, -0.07769026607275009, 0.2503030598163605, 0.32345670461654663, 0.14707908034324646, -0.19148319959640503, 0.06266621500253677, 0.029086634516716003, 0.24291987717151642, -0.2318212240934372, 0.0062723103910684586, -0.11402878910303116, 0.07557600736618042, -0.06477593630552292, -0.14980295300483704, 0.2105514258146286], [-0.2879618704319, 0.10631260275840759, -0.07102671265602112, -0.1895337700843811, -0.051897577941417694, -0.11610884964466095, -0.13456867635250092, 0.06086399778723717, -0.23665767908096313, -0.08672284334897995, 0.27204757928848267, -0.032484665513038635, 0.22439490258693695, 0.14465534687042236, -0.08621242642402649, 0.022375894710421562, 0.19330048561096191, -0.24423368275165558, 0.13828764855861664, 0.08964217454195023, -0.005888252053409815, 0.03591541200876236, -0.19091656804084778, 0.2608568072319031, -0.20943792164325714, -0.23037074506282806, -0.19009414315223694, 0.21235010027885437, 0.13458818197250366, 0.23166215419769287, -0.12959878146648407, 0.2785167694091797, 0.23708608746528625, -0.025734731927514076, -0.13002102077007294, -0.0014513562200590968, 0.26412901282310486, -0.19540338218212128], [-0.07756002247333527, 0.13656766712665558, -0.02088128961622715, -0.2272171676158905, -0.2601669728755951, -0.15727916359901428, -0.1991097629070282, 0.1128058061003685, -0.09324166178703308, 0.13562552630901337, 0.09455811977386475, 0.08626887947320938, 0.14809849858283997, 0.04541083052754402, -0.03287686035037041, -0.012472044676542282, 0.1188209056854248, -0.05255676433444023, 0.07035123556852341, -0.019422275945544243, -0.07105527073144913, -0.204624742269516, -0.05459772050380707, 0.26526638865470886, -0.18107101321220398, -0.15190482139587402, -0.016936197876930237, 0.2897753119468689, 0.19519738852977753, 0.17163264751434326, -0.2540844678878784, 0.148270845413208, 0.24028253555297852, 0.10410316288471222, 0.1676809936761856, 0.0995689406991005, -0.052930548787117004, -0.25427722930908203], [-0.28312838077545166, 0.04757680371403694, 0.11305337399244308, -0.20648476481437683, -0.09770778566598892, -0.1718272864818573, -0.33454352617263794, 0.10014823079109192, -0.05344410240650177, 0.027854830026626587, 0.024445567280054092, 0.12271110713481903, 0.19763024151325226, 0.21945179998874664, -0.042389702051877975, -0.19629734754562378, 0.22096116840839386, -0.21060098707675934, 0.03171173483133316, 0.1364191621541977, -0.025901304557919502, 0.0889364555478096, -0.14315290749073029, 0.10970652848482132, 0.01918111927807331, -0.2311725616455078, -0.20579999685287476, 0.2466319501399994, -0.1487974226474762, 0.03393580764532089, -0.13754624128341675, 0.14102791249752045, 0.05127616599202156, 0.09700654447078705, 0.13981981575489044, -0.10467492789030075, 0.14242221415042877, -0.044816624373197556], [-0.24555210769176483, 0.04740822687745094, 0.007226604502648115, 0.006749995984137058, 0.013813541270792484, -0.2684241235256195, -0.10365591943264008, -0.04667459428310394, -0.06599508970975876, 0.2231445610523224, 0.2566794753074646, -0.045115381479263306, 0.018336515873670578, 0.18594472110271454, -0.0437302403151989, -0.21061471104621887, 0.07637331634759903, -0.1087501123547554, 0.28452977538108826, 0.08256816118955612, -0.09253796935081482, -0.13583773374557495, 0.0012475079856812954, 0.16405481100082397, -0.09014706313610077, 0.0035765524953603745, -0.08116389811038971, 0.12498180568218231, -0.12149567902088165, 0.1290360540151596, -0.23013782501220703, 0.017573565244674683, 0.23981936275959015, -0.061042409390211105, -0.0389062836766243, 0.16245293617248535, 0.2312118113040924, -0.0643315538764], [-0.2995145618915558, 0.05306709185242653, 0.04095139354467392, -0.20475079119205475, -0.09272932261228561, -0.13547752797603607, -0.27964964509010315, 0.005819846410304308, 0.01971263624727726, 0.017575975507497787, 0.2653600871562958, -0.11760494112968445, 0.18017615377902985, 0.18547743558883667, -0.14624005556106567, -0.1618785560131073, 0.21538323163986206, -0.2868582606315613, 0.11726801842451096, 0.20530268549919128, 0.012609530240297318, -0.04370160773396492, -0.1731337010860443, 0.2820833623409271, -0.17607279121875763, -0.21721802651882172, -0.2725580632686615, 0.21260686218738556, -0.18308205902576447, 0.3116426169872284, -0.080382339656353, 0.10808217525482178, 0.19415800273418427, 0.026966169476509094, 0.04391876608133316, 0.0914498046040535, 0.22183360159397125, -0.24743866920471191], [0.13736602663993835, -0.23729307949543, 0.2242414802312851, -0.027943085879087448, -0.04600179195404053, 0.09342753887176514, -0.04180329293012619, -0.09238765388727188, -0.08261245489120483, -0.14404217898845673, -0.020676372572779655, 0.23145632445812225, 0.015367447398602962, 0.1204015389084816, 0.11921922862529755, 0.1301341950893402, -0.17338545620441437, 0.029483746737241745, -0.21733754873275757, 0.008688321337103844, 0.21566390991210938, 0.14816725254058838, 0.19226522743701935, 0.045653145760297775, 0.225653737783432, 0.03900948539376259, 0.05790077522397041, -0.28154256939888, -0.06251295655965805, -0.1668420135974884, 0.16478867828845978, -0.26919305324554443, -0.21114306151866913, 0.0518326573073864, 0.13766764104366302, -0.11714538186788559, -0.06352152675390244, 0.0993054136633873]], "fc1.bias": [0.04707879573106766, 0.1305808126926422, 0.05839826166629791, 0.059776194393634796, -0.09751541912555695, -0.06134824827313423, -0.024563835933804512, -0.07624753564596176, -0.011121048592031002, -0.004335962701588869, 0.012907222844660282, -0.07160588353872299, 0.013849341310560703, -0.03596106544137001, 0.0054427762515842915, 0.012762842699885368], "fc2.weight": [[-0.377512663602829, 0.41631853580474854, -0.3232395648956299, -0.3618091344833374, -0.2925865352153778, -0.30697426199913025, -0.14779482781887054, -0.35770341753959656, -0.26402273774147034, -0.18373136222362518, 0.2606367766857147, 0.3200152516365051, 0.5048574209213257, 0.4646371006965637, 0.3200109004974365, -0.28748759627342224]], "fc2.bias": [0.13490760326385498], "norm_mean": [0.044680990278720856, 0.3927738666534424, 0.21653330326080322, 0.43134596943855286, 0.02958771586418152, 0.12136790156364441, 0.34399881958961487, 3.069890260696411, 0.3619852364063263, 0.484487920999527, 0.05533311888575554, 0.050781723111867905, 0.029975194483995438, 3.319403648376465, 0.10956587642431259], "norm_std": [0.07855235785245895, 0.29407361149787903, 0.25748705863952637, 0.21153540909290314, 0.08059747517108917, 0.17071516811847687, 0.2800247073173523, 1.1176931858062744, 0.4805748164653778, 0.2660176753997803, 0.2286294400691986, 0.21955180168151855, 0.17051894962787628, 2.822237968444824, 0.18693719804286957], "feature_mask": [1.0, 0.0, 0.0, 1.0, 0.0, 1.0, 1.0, 1.0, 1.0, 1.0, 1.0, 1.0, 1.0, 1.0, 1.0]}