{"tool_embed.weight": [[1.4963397979736328, 0.86752849817276, 0.7005646228790283, -1.746955156326294], [0.5347288250923157, -1.0586411952972412, -0.1414368450641632, -1.2163091897964478], [-0.25256165862083435, 1.0410524606704712, -0.6770418882369995, -1.2609730958938599], [-0.7412300705909729, -0.07161279767751694, -2.158865451812744, 0.026249956339597702], [-1.144036258681136e-24, 2.210350744388929e-39, 6.937104225566113e-39, 1.5768347346635926e-15], [-4.4171127634107224e-39, 2.0262299352658984e-39, 1.6268038209947526e-39, -3.290650966893932e-39], [-1.7365455627441406, 1.0204508304595947, -0.5910401940345764, -0.6460320353507996]], "fc1.weight": [[0.3820609450340271, -0.1841016709804535, 0.3559776842594147, -0.007012501824647188, -0.024204513058066368, 0.25230756402015686, -0.3526131808757782, -0.774381160736084, 0.00039350840961560607, 0.3884992003440857, 0.07050999999046326, 0.3134332001209259, -0.05424066632986069, 0.06170964613556862, 0.1254735141992569], [-0.03599714860320091, 0.043706025928258896, -0.4895300567150116, 0.011624457314610481, -0.10005250573158264, 0.2509710490703583, -0.2868095934391022, 0.3624129295349121, -0.5481503009796143, -0.0704379752278328, -0.2827351689338684, 0.2959294021129608, 1.0747015476226807, 0.1836048662662506, 0.09932911396026611], [-0.41461071372032166, -0.08555933088064194, -0.11136110126972198, 0.02925087697803974, -0.21430116891860962, 0.3863261044025421, 0.07045406848192215, 0.07915434241294861, -0.26534780859947205, -0.2514929175376892, -0.019026560708880424, -0.09615497291088104, 0.11747311800718307, -0.2963763475418091, 0.059632524847984314], [0.06343556195497513, 0.1464615911245346, 0.12699410319328308, 0.24919232726097107, 0.10514040291309357, -0.384876012802124, -0.5390739440917969, 0.27831634879112244, 0.02182440459728241, 0.1942056566476822, -0.269029825925827, -0.06632879376411438, 0.17929497361183167, 0.07585839927196503, -0.40272125601768494], [-0.16709984838962555, -0.15400530397891998, -0.14705567061901093, -0.07509513944387436, -0.7041863799095154, -0.28906476497650146, 0.3239588141441345, 0.3110482394695282, -0.21190783381462097, -0.3137107491493225, -0.11138979345560074, -0.15709495544433594, 0.07375488430261612, -0.31399181485176086, -0.11445701867341995], [0.06367846578359604, -0.13506777584552765, 0.06864280998706818, -0.09368119388818741, -0.02788897044956684, -0.1941789835691452, -0.22074459493160248, -0.14228112995624542, -0.4246492385864258, 0.30040305852890015, -0.01439199224114418, 0.1618681102991104, 0.21840344369411469, -0.2224748134613037, 0.0368858277797699], [0.05548982322216034, -0.029116960242390633, -0.155619814991951, -0.22430720925331116, 0.30936211347579956, -0.10577543824911118, 0.027925491333007812, -0.4757564961910248, 0.07042228430509567, -0.38580915331840515, -0.16708455979824066, -0.10537857562303543, 0.41702374815940857, 0.3113616704940796, 0.07797437161207199], [-0.38720065355300903, 0.20538321137428284, -0.05837064981460571, -0.07922402769327164, -0.8023074269294739, 0.2740882635116577, -0.24410173296928406, 0.02465084008872509, 0.14397388696670532, 0.004529014229774475, -0.48303309082984924, 0.08351568132638931, -0.11884375661611557, -0.17093752324581146, -0.20368941128253937], [0.06913597136735916, -0.05148294195532799, -0.23494933545589447, 0.11609601229429245, 0.516177237033844, -0.121907077729702, -0.14902523159980774, -0.02686617150902748, -0.08782237023115158, 0.032684776932001114, -0.3801429271697998, -0.10966935753822327, -0.7846121191978455, 0.41464975476264954, 0.18433573842048645], [-0.40705224871635437, 0.11409866809844971, 0.11391767859458923, 0.3038841784000397, -0.5493517518043518, 0.0561341792345047, 0.22367790341377258, 0.1293051540851593, -0.07831545919179916, -0.01558650378137827, -0.1186709925532341, -0.17548039555549622, 0.04431449621915817, -0.042969271540641785, 0.2151739001274109], [-0.0999070554971695, -0.011240033432841301, -0.1602068841457367, -0.116153784096241, 0.3144890367984772, -0.19695475697517395, -0.15607181191444397, -0.01746164634823799, 0.13781675696372986, 0.10338263213634491, 0.019417908042669296, -0.440704345703125, -0.16749605536460876, -0.27877548336982727, -0.35782092809677124], [-0.062201306223869324, 0.3023700714111328, 0.10222284495830536, -0.12056524306535721, -0.8008700013160706, 0.06834246963262558, 0.1752394735813141, -0.009997560642659664, -0.08750554919242859, 0.038990627974271774, -0.2309187799692154, -0.14924347400665283, 0.024586936458945274, -0.10240136831998825, 0.02546865865588188], [-0.5237298607826233, 0.18895494937896729, 0.1792411357164383, 0.21459609270095825, -0.6333271861076355, -0.09587579220533371, 0.04173075035214424, 0.25456568598747253, -0.005346118472516537, 0.0342521145939827, 0.2608676254749298, -0.28860801458358765, -0.1200709342956543, -0.490666925907135, -0.23459294438362122], [-0.31914377212524414, 0.27431151270866394, -0.010531492531299591, 0.05435449630022049, -0.767512321472168, -0.10427116602659225, -0.10066476464271545, 0.04942959174513817, 0.1339966058731079, -0.15997299551963806, 0.07610899209976196, -0.21024277806282043, -0.1367805153131485, -0.025342464447021484, 0.16642723977565765], [-0.08868987113237381, 0.027326634153723717, -0.11238747090101242, -0.3878480792045593, 0.3992934226989746, 0.2954758405685425, 0.4601633846759796, -0.6047505140304565, -0.3059728145599365, -0.2369181364774704, 0.12852241098880768, 0.030193746089935303, -0.03670597821474075, -0.15008118748664856, 0.03066621534526348], [-0.13201893866062164, -0.13387702405452728, -0.385027676820755, 0.18026693165302277, 0.5331608653068542, 0.14457546174526215, 0.12952139973640442, -0.2831074595451355, 0.23230797052383423, 0.14946739375591278, -0.08793462812900543, 0.17339083552360535, -0.43759873509407043, 0.047514986246824265, 0.0020754151046276093], [-0.10825236141681671, -0.16190417110919952, -0.3840263783931732, 0.31976038217544556, 0.49587956070899963, -0.008972099982202053, -0.053260985761880875, 0.005126412957906723, -0.29371827840805054, -0.2670486569404602, 0.22007888555526733, 0.004857111256569624, -0.6595329642295837, 0.2333899736404419, 0.027077404782176018], [0.08716408163309097, 0.022750215604901314, -0.12476922571659088, -0.32212033867836, 0.26919445395469666, -0.29750770330429077, 0.16436132788658142, -0.055034708231687546, 0.06955289095640182, -0.035165488719940186, 0.2132478505373001, 0.23906171321868896, 0.38823696970939636, -0.10896354913711548, 0.09652971476316452], [0.554154634475708, 0.30799204111099243, 0.17953982949256897, -0.2505536377429962, 0.08330632746219635, 0.08908350765705109, -0.13026729226112366, 0.03889087960124016, -0.26106125116348267, 0.09551651030778885, -0.16968275606632233, -0.12883161008358002, -0.7306103110313416, -0.31377556920051575, 0.010969780385494232], [-0.09462852030992508, 0.10695911198854446, 0.21723584830760956, -0.05026330426335335, -0.8845304250717163, 0.21830251812934875, -0.33600956201553345, 0.07698561251163483, -0.055986665189266205, 0.08511656522750854, -0.12885819375514984, -0.07362997531890869, -0.14209195971488953, -0.19128935039043427, -0.2178320735692978], [-0.4160231351852417, -0.1038299947977066, 0.397499144077301, 0.07261016219854355, -0.6635424494743347, 0.19774600863456726, 0.33544331789016724, 0.10311243683099747, 0.09627381712198257, -0.03282741457223892, -0.1307971179485321, 0.039541490375995636, -0.1775471717119217, -0.07207435369491577, 0.06502929329872131], [0.32473501563072205, -0.2141626477241516, -0.1720811277627945, -0.41423746943473816, -0.08460737019777298, -0.1526632308959961, 0.08441419154405594, 0.3460142910480499, -0.6775312423706055, -0.08579309284687042, 0.07349779456853867, 0.12711511552333832, 0.4311857521533966, -0.489125519990921, 0.15493127703666687], [-0.1555398851633072, -0.2521641254425049, -0.20420609414577484, 0.08369746804237366, 0.7174106240272522, -0.2549532651901245, 0.3412882089614868, -0.5481017231941223, 0.3347102105617523, 0.15127506852149963, -0.3098275065422058, 0.258490651845932, -0.32338324189186096, -0.16897115111351013, 0.17067553102970123], [-0.09722527116537094, 0.04262685775756836, -0.25318798422813416, 0.09844060987234116, 0.1840706318616867, 0.06874115020036697, -0.09090697765350342, -0.4495280385017395, 0.01783565618097782, 0.218299001455307, -0.48985815048217773, -0.1429593563079834, 0.36757251620292664, 0.10350789874792099, -0.10913624614477158], [-0.05131175369024277, -0.13149237632751465, -0.37083351612091064, -0.26223498582839966, 0.4342851936817169, -0.13341213762760162, -0.09459543973207474, 0.03738467022776604, 0.2161860316991806, 0.05479850620031357, 0.09932877123355865, -0.2632432281970978, -0.1434023380279541, 0.02136671543121338, -0.2688288688659668], [-0.20996703207492828, 0.28435641527175903, 0.0969313383102417, -0.4753161072731018, -0.09269372373819351, 0.2841455340385437, -0.25667181611061096, -0.07601325213909149, -0.4675431251525879, 0.3129287362098694, -0.06550091505050659, 0.07772032171487808, -0.45854052901268005, -0.0876886323094368, 0.21638227999210358], [-0.45212528109550476, 0.30800092220306396, -0.09339598566293716, 0.025214331224560738, -0.26391956210136414, 0.11177180707454681, 0.06701904535293579, 0.1948368102312088, 0.012211255729198456, 0.5273030996322632, 0.05689471960067749, -0.012739859521389008, -0.31998851895332336, 0.08773660659790039, 0.0016487252432852983], [-0.08815421909093857, -0.03296421840786934, -0.41566190123558044, -0.2906353771686554, 0.3062446117401123, -0.05917111039161682, 0.00021542527247220278, -0.04116227477788925, 0.1337841898202896, 0.09951259195804596, -0.24319392442703247, -0.14578843116760254, 0.2749861776828766, 0.21006305515766144, -0.35995110869407654], [-0.13458731770515442, -0.29498040676116943, -0.15326441824436188, -0.09556390345096588, 0.03372587263584137, 0.369318425655365, 0.40675994753837585, 0.1712571382522583, 0.34768348932266235, 0.2793025076389313, -0.23285126686096191, 0.038221683353185654, 0.07835536450147629, -0.3387259840965271, -0.1580962985754013], [0.1443578451871872, 0.31374478340148926, -0.27258217334747314, -0.4098927974700928, 0.9038668274879456, -0.026748808100819588, 0.12158725410699844, 0.3578985631465912, -0.37880760431289673, 0.23542249202728271, 0.3975558280944824, -0.06533988565206528, 0.007389894220978022, 0.11852851510047913, -0.012914599850773811], [-0.3011631369590759, -0.03739062324166298, -0.15464188158512115, 0.21724429726600647, 0.20850834250450134, -0.3468582332134247, -0.29800617694854736, -0.24456144869327545, -0.013758167624473572, 0.1129966676235199, 0.018756993114948273, -0.06842692196369171, -0.08331898599863052, -0.1259709894657135, -0.20544545352458954], [-0.17183254659175873, 0.08043807744979858, -0.07487162202596664, 0.17211247980594635, -0.8691900968551636, -0.06469964981079102, -0.18819770216941833, 0.14552557468414307, -0.33916419744491577, 0.3568597435951233, -0.046483200043439865, 0.06512507051229477, 0.11488421261310577, -0.26980501413345337, 0.16240008175373077]], "fc1.bias": [0.088691845536232, 0.03502896800637245, 0.2099859118461609, -0.1265784054994583, 0.07530427724123001, -0.03612680360674858, 0.013528567738831043, -0.04877292737364769, 0.11251349747180939, 0.10634873807430267, 0.2842531204223633, 0.057360436767339706, -0.16209621727466583, -0.03887192904949188, 0.05321286991238594, 0.1875559687614441, -0.09469260275363922, 0.12032593786716461, 0.16141408681869507, -0.013062833808362484, 0.19275712966918945, 0.21309086680412292, 0.27982059121131897, 0.2554067075252533, 0.3212873935699463, 0.11866806447505951, 0.023019343614578247, 0.24666115641593933, -0.012571286410093307, 0.3066224753856659, 0.13216620683670044, -0.2218931019306183], "fc2.weight": [[-0.10176067799329758, 0.25848284363746643, -0.14945568144321442, 0.38359031081199646, 0.1750095933675766, 0.18838466703891754, 0.1812051683664322, -0.19530369341373444, -0.018447354435920715, -0.014703328721225262, -0.0034375381655991077, -0.08750303089618683, -0.2877604365348816, -0.027310816571116447, -0.049609892070293427, -0.1829359233379364, -0.0327538326382637, 0.25629502534866333, 0.25474774837493896, 0.027104943990707397, -0.48511260747909546, 0.3724353611469269, -0.11552968621253967, 0.15359699726104736, 0.21009249985218048, 0.06228368729352951, -0.09476715326309204, 0.21256417036056519, 0.25054970383644104, 0.14285416901111603, 0.015201564878225327, -0.22015728056430817], [0.3129572868347168, -0.7049018740653992, 0.2169758826494217, 0.0927196815609932, 0.12026601284742355, 0.08092429488897324, -0.2278280109167099, 0.15173722803592682, -0.5960584282875061, 0.02586321532726288, -0.1565914899110794, 0.23491458594799042, 0.23209084570407867, 0.26923930644989014, -0.4288528859615326, -0.3120684027671814, -0.43439286947250366, -0.2199297398328781, -0.11422555148601532, 0.22612382471561432, 0.31237801909446716, -0.31082695722579956, -0.4921249449253082, -0.19072921574115753, -0.3937879502773285, 0.24328064918518066, 0.15246954560279846, -0.22667449712753296, 0.14276930689811707, -0.754737138748169, -0.2527428865432739, 0.3949081301689148], [-1.43883402969891e-08, -0.25681746006011963, -0.013472523540258408, 0.06690824031829834, 0.14115794003009796, -0.04770640656352043, -0.23754912614822388, 0.25157883763313293, -0.5554828643798828, 0.17003145813941956, -0.3125414550304413, 0.10225179046392441, 0.31265580654144287, 0.25599950551986694, -0.42013299465179443, -0.18163764476776123, -0.4735378921031952, -0.11890767514705658, -0.4727902412414551, 0.11282499879598618, 0.21215319633483887, -0.010224605910480022, -0.26466086506843567, -0.05357590317726135, -0.3291151523590088, -0.002031524432823062, 0.1355956494808197, -0.18393465876579285, 0.21064157783985138, -0.3891516923904419, 0.021257760003209114, 0.1688205897808075], [0.4079434275627136, -0.6963596343994141, 0.11887769401073456, 0.09738054871559143, 0.17771224677562714, 0.0061195045709609985, -0.2207883596420288, 0.38712382316589355, -0.6502899527549744, 0.17698027193546295, -0.3414720296859741, 0.2618522644042969, 0.3546396791934967, 0.18136724829673767, -0.29787957668304443, -0.3062499165534973, -0.3538518249988556, -0.2666754722595215, -0.03394150733947754, 0.3237970173358917, 0.350004643201828, -0.3716930150985718, -0.6395072340965271, -0.03780722990632057, -0.32082563638687134, 0.058100152760744095, -0.03862844035029411, -0.2786632180213928, 0.17855705320835114, -0.62309330701828, -0.2308029681444168, 0.32051312923431396], [-0.1932884305715561, 0.38199037313461304, -0.20924949645996094, 0.15707896649837494, -0.12868596613407135, 0.1866924911737442, 0.2661096453666687, 0.02811908908188343, 0.1507367044687271, 0.12745237350463867, 0.17360150814056396, -0.0021665950771421194, -0.15322256088256836, 0.10016177594661713, 0.03431600704789162, 0.12661099433898926, 0.10272421687841415, 0.1604074090719223, 0.1425672024488449, -0.1561422199010849, -0.18280892074108124, 0.2031373828649521, 0.13234946131706238, 0.2585868239402771, -0.051097847521305084, 0.14489592611789703, -0.2782928943634033, 0.1762574315071106, 0.21686513721942902, -0.12308752536773682, 0.208196222782135, -0.02403862029314041], [-0.0481376051902771, 0.07965010404586792, -0.09404953569173813, 0.16352228820323944, 0.0728573203086853, 0.17681792378425598, 0.2484363317489624, 0.0775713175535202, 0.08130060881376266, 0.05076880007982254, 0.2165445238351822, -0.13518781960010529, -0.28864672780036926, 0.039519842714071274, 0.24019768834114075, -0.1330806165933609, -0.02766931615769863, 0.30609583854675293, 0.2874375283718109, 0.19728204607963562, -0.3193330466747284, 0.1732993870973587, 0.1486504226922989, 0.3620941936969757, 0.2601383328437805, 0.18763810396194458, -0.08331809192895889, 0.26352348923683167, 0.15089799463748932, 0.0313267782330513, 0.22670352458953857, -0.33205726742744446], [-0.37867653369903564, 0.31789183616638184, -0.22744746506214142, 0.3439871072769165, -0.7428295016288757, 0.038473863154649734, 0.06910963356494904, 0.3849937915802002, -0.019167637452483177, -0.14536674320697784, -0.3595542013645172, 0.4650938808917999, -0.017328334972262383, -0.05312887579202652, 0.026096269488334656, -0.22758550941944122, -0.6843960285186768, 0.18137863278388977, 0.25833141803741455, -0.20403115451335907, 0.04046062380075455, 0.5792973637580872, -0.08958439528942108, 0.13094405829906464, -0.06002361699938774, -0.428188294172287, -0.3116838335990906, 0.05601952597498894, 0.05930670350790024, 0.3580249845981598, -0.2831789553165436, 0.0172654390335083], [-2.7847047476825537e-06, -0.276460200548172, 0.06494700908660889, 0.041529521346092224, 0.03912410885095596, -0.03914284706115723, -0.20987066626548767, 0.21142692863941193, -0.43680745363235474, 0.17573389410972595, -0.22774504125118256, 0.20003339648246765, 0.3120942711830139, 0.010424571111798286, -0.3786109387874603, -0.3010185658931732, -0.40267664194107056, -0.11671438813209534, -0.32951924204826355, 0.29379162192344666, 0.08899912983179092, -0.04117773845791817, -0.488264799118042, -0.061842259019613266, -0.19383518397808075, -0.10390660166740417, 0.05716266110539436, -0.09141992032527924, 0.18953479826450348, -0.5615652203559875, 0.09549831598997116, 0.2431940734386444], [-0.360339492559433, 0.11856035888195038, -0.00850269477814436, 0.2415708601474762, 0.13539806008338928, 0.34578678011894226, 0.031291499733924866, -0.0007097007473930717, 0.2029603123664856, 0.19517475366592407, 0.0005441261455416679, -0.1006602942943573, -0.14282816648483276, 0.13261829316616058, 0.15194953978061676, -0.12736251950263977, 0.07529351115226746, -0.04224006459116936, 0.10854536294937134, 0.05455400422215462, -0.3602946698665619, 0.15079566836357117, -0.16979844868183136, 0.3228926956653595, 0.00845731794834137, 0.1293790191411972, 0.004515509121119976, -0.03570951521396637, 0.385445773601532, -0.08432608842849731, 0.2002892792224884, -0.10874313116073608], [0.3410471975803375, -0.8161741495132446, 0.09871025383472443, -0.25969231128692627, 0.31971827149391174, 0.09289975464344025, -0.17082148790359497, 0.27686426043510437, -0.49415871500968933, 0.22105225920677185, -0.33731240034103394, 0.31867891550064087, 0.4291417598724365, 0.25133970379829407, -0.15951457619667053, -0.08702230453491211, -0.2146053910255432, -0.2859962582588196, -0.04824431240558624, 0.20425017178058624, 0.21509981155395508, -0.28471407294273376, -0.29013392329216003, -0.12026459723711014, -0.19810843467712402, 0.0513320155441761, 0.18636788427829742, -0.12406761199235916, 0.009757776744663715, -0.32213926315307617, -0.24109506607055664, 0.29409798979759216], [0.30038923025131226, -0.574569821357727, 0.15297332406044006, -0.19504739344120026, 0.25038349628448486, 0.06084921583533287, -0.1676909625530243, 0.3456575870513916, -0.3176242709159851, 0.23610879480838776, -0.05048011988401413, 0.11966799944639206, 0.16753257811069489, 0.1802089661359787, -0.31872791051864624, -0.2951768934726715, -0.29251211881637573, -0.17079830169677734, 0.06235390529036522, 0.28901106119155884, 0.10499058663845062, -0.37186452746391296, -0.47415703535079956, -0.1704992651939392, -0.05507137253880501, 0.16496990621089935, 0.22103442251682281, -0.16812710464000702, 0.006108859553933144, -0.4613500237464905, -0.3211100101470947, 0.24332872033119202], [-0.21893812716007233, 0.17020820081233978, -0.18903475999832153, 0.35224008560180664, 0.16921821236610413, 0.1867501437664032, 0.30286872386932373, -0.16884782910346985, 0.06313953548669815, 0.14340774714946747, 0.05487125739455223, 0.02539217285811901, -0.3105548322200775, 0.06212078779935837, -0.013687978498637676, -0.004589922726154327, 0.22777380049228668, 0.1538352370262146, 0.1512003391981125, 0.04651682451367378, -0.21283823251724243, 0.27792954444885254, 0.11771790683269501, 0.13637951016426086, -0.039851266890764236, 0.13176648318767548, -0.19322483241558075, -0.019686464220285416, 0.29825514554977417, 0.0721149742603302, 0.08711118996143341, -0.1555069535970688], [-0.39338260889053345, 0.08245698362588882, -0.24851088225841522, 0.4700549244880676, -0.08499006927013397, 0.17156380414962769, -0.03851696476340294, -0.3569505214691162, 0.022044692188501358, 0.15262162685394287, -0.07502409815788269, 0.049108121544122696, -0.1599339246749878, 0.21083810925483704, 0.2346828728914261, -0.13216008245944977, 0.20689386129379272, -0.07162891328334808, 0.4287620782852173, 0.21886029839515686, -0.4163567125797272, 0.3387913405895233, -0.29344743490219116, 0.10903614014387131, 0.02097303979098797, 0.5291202068328857, 0.09645571559667587, 0.006574682891368866, 0.22358980774879456, 0.07491894066333771, 0.18412846326828003, -0.22625555098056793], [0.3528934717178345, -0.7659270167350769, 0.2666129171848297, 0.009111461229622364, 0.14898498356342316, 0.1555909663438797, -0.10042650252580643, 0.4128819704055786, -0.5260533094406128, 0.09401101619005203, -0.15483325719833374, 0.31515535712242126, 0.19226951897144318, 0.15159963071346283, -0.4245587885379791, -0.28708416223526, -0.36112773418426514, -0.20613297820091248, -0.022315451875329018, 0.3137955367565155, 0.17245200276374817, -0.46543413400650024, -0.4237930476665497, -0.20389872789382935, -0.31445038318634033, 0.1287434697151184, 0.09922365099191666, -0.35581424832344055, 0.13853295147418976, -0.6738899350166321, -0.3057219088077545, 0.3384212851524353], [0.04182933643460274, 0.0877845361828804, 0.20493163168430328, 0.04580877721309662, -0.05638490617275238, 0.12410619109869003, 0.05751746892929077, 0.04207569360733032, 0.1728450059890747, -0.21732568740844727, 0.06350456178188324, -0.30319198966026306, -0.022674191743135452, -0.10383978486061096, 0.12366637587547302, 0.29981592297554016, 0.19433759152889252, 0.07361161708831787, -0.3277915418148041, -0.21798507869243622, 0.00939659122377634, 0.09933753311634064, 0.2932227849960327, -0.02330804616212845, 0.15880315005779266, -0.3218097686767578, 0.0600040927529335, 0.14726513624191284, -0.12599368393421173, 0.14394310116767883, 0.059255972504615784, 0.03925292193889618], [0.42383819818496704, -0.45358628034591675, 0.30743300914764404, -0.5204106569290161, -0.6476223468780518, 0.15248586237430573, 0.047504909336566925, -0.021513409912586212, -0.09007077664136887, -0.2442379742860794, 0.12191437184810638, 0.03012022376060486, 0.11579224467277527, -0.373260498046875, 0.34895578026771545, 0.14395081996917725, -0.1521480679512024, -0.16040781140327454, 0.42291882634162903, -0.09766771644353867, -0.2906566262245178, -0.32550644874572754, -0.006721762008965015, -0.0990716964006424, -0.002902673790231347, -0.04384623467922211, 0.3752197325229645, 0.2926460802555084, -0.611975371837616, 0.1721166968345642, 0.08554542809724808, 0.22377505898475647]], "fc2.bias": [0.1521301567554474, 0.15187318623065948, 0.13215768337249756, 0.0738448053598404, 0.009796354919672012, 0.16280080378055573, -0.13576029241085052, 0.004116967786103487, -0.13164541125297546, 0.013170967809855938, -0.13550668954849243, 0.00014578254194930196, 0.026184791699051857, -0.018110351637005806, 0.059815071523189545, -0.037896476686000824], "fc3.weight": [[-0.313876748085022, 1.0575600862503052, 0.7981364727020264, 1.0524725914001465, -0.3137768805027008, -0.45943185687065125, 0.91059410572052, 0.7604032158851624, -0.593589186668396, 0.8683103919029236, 0.7752453088760376, -0.31499385833740234, -0.8387818932533264, 1.0781720876693726, 0.3587026298046112, 0.7788569927215576]], "fc3.bias": [-0.20832693576812744], "norm_mean": [0.05218102037906647, 0.4063117504119873, 0.4148569405078888, 0.4235896170139313, 0.0362352579832077, 0.024950016289949417, 0.029295342043042183, 0.16947254538536072, 1.9715555906295776, 0.15770889818668365, 0.49999818205833435], "norm_std": [0.10526469349861145, 0.3143688142299652, 0.30793556571006775, 0.2672480344772339, 0.10086879134178162, 0.08152846992015839, 0.15289919078350067, 0.37516942620277405, 1.6953377723693848, 0.3644684851169586, 0.29353758692741394]}