{"tool_embed.weight": [[1.9807593822479248, 1.5914597511291504, 1.0020111799240112, -1.6867799758911133], [0.5992531180381775, -1.4240139722824097, 0.010973865166306496, -1.761642336845398], [-0.9288267493247986, 1.5334750413894653, -0.12111400067806244, -1.5712918043136597], [-0.9600599408149719, 0.02310892567038536, -2.4014604091644287, 0.02198350615799427], [3.802350515425246e-39, 2.210350744388929e-39, 6.937104225566113e-39, -1.9929771227074705e-39], [-4.4171127634107224e-39, 2.0262299352658984e-39, 1.6268038209947526e-39, -3.290650966893932e-39], [-1.6815589666366577, 0.9503389596939087, -0.9589052200317383, -0.4178023040294647]], "conv3.weight": [[[0.098107248544693, -0.18942707777023315, 0.05427975952625275], [-0.14643310010433197, 0.06556448340415955, 0.14547616243362427], [-0.1673745959997177, -0.2534255385398865, -0.07732213288545609], [0.26152917742729187, 0.2558623254299164, 0.058671027421951294], [-0.02331693470478058, 0.07181334495544434, 0.06322348862886429], [-0.21194717288017273, -0.1485421508550644, -0.11559169739484787], [0.17779971659183502, -0.02441968210041523, -0.006629160605370998], [-0.06460972875356674, 0.2793103754520416, -0.2616572976112366], [-0.06502193212509155, 0.014069794677197933, 0.11768145114183426], [0.13118593394756317, 0.02093946561217308, 0.05534535273909569], [-0.2782273590564728, -0.3080517053604126, -0.4119511544704437], [0.06740419566631317, 0.05174080654978752, 0.3014279305934906], [-0.2464439421892166, -0.10119438916444778, 0.16745592653751373], [0.10280042886734009, 0.34232479333877563, -0.07502063363790512], [0.06995758414268494, -0.1968919336795807, -0.16312213242053986], [-0.08520188182592392, 0.009753239341080189, 0.18346354365348816]], [[0.27583739161491394, 0.11679381132125854, -0.3631219267845154], [-0.26234936714172363, 0.03855114430189133, 0.12674656510353088], [0.06446964293718338, -0.008756001479923725, -0.1072542667388916], [0.15836308896541595, -0.1247590109705925, -0.18881632387638092], [0.1954113095998764, -0.06832119822502136, -0.11569281667470932], [0.03260255232453346, -0.19760741293430328, 0.10761618614196777], [0.2652903199195862, -0.027476998046040535, 0.2516731023788452], [-0.09608198702335358, -0.20357419550418854, 0.08838491886854172], [0.11791323870420456, -0.24600833654403687, 0.015323716215789318], [-0.18095850944519043, 0.0807902067899704, -0.18130972981452942], [-0.05779838189482689, -0.061455242335796356, -0.17304113507270813], [-0.173694908618927, -0.15785333514213562, -0.05884807929396629], [0.12390843778848648, -0.1385495364665985, 0.1653134524822235], [-0.03515494987368584, -0.27840656042099, 0.12698811292648315], [-0.09468796104192734, -0.07870230823755264, -0.033087171614170074], [0.007466875948011875, 0.3151121735572815, 0.12774516642093658]], [[-0.02390662394464016, -0.090678870677948, 0.05803150683641434], [-0.2412814497947693, 0.007237063720822334, -0.0018576392903923988], [0.14815163612365723, 0.2357071191072464, 0.11414550244808197], [-0.19483286142349243, 0.044451307505369186, -0.04050750657916069], [0.03382278233766556, -0.3166864514350891, 0.18020379543304443], [-0.14180801808834076, 0.3409913182258606, 0.24731263518333435], [0.10318800806999207, 0.006628700997680426, 0.42023521661758423], [0.11682154983282089, 0.175780788064003, -0.1325109750032425], [0.1395494043827057, -0.18873782455921173, -0.057844698429107666], [0.07507215440273285, 0.15502633154392242, -0.15821273624897003], [-0.13858674466609955, 0.09461989998817444, 0.27239176630973816], [-0.1865934282541275, -0.013285408727824688, 0.07206045091152191], [-0.30258506536483765, 0.11502015590667725, 0.09863439202308655], [-0.209011048078537, -0.017140917479991913, 0.057583730667829514], [0.03594784438610077, 0.022709572687745094, 0.3887881338596344], [0.020504305139183998, 0.09904273599386215, 0.019737483933568]], [[0.021715747192502022, 0.058718111366033554, -0.07723545283079147], [-0.0034332568757236004, -0.0705518051981926, 0.1299261450767517], [0.1005590483546257, 0.04559089243412018, 0.07170294225215912], [-0.024309426546096802, 0.027672579512000084, 0.08162356913089752], [-0.28302645683288574, 0.01600419357419014, -0.031065236777067184], [-0.023051448166370392, -0.1634121984243393, -0.11216820031404495], [-0.03352333977818489, -0.11328946053981781, -0.2358207255601883], [0.06961730867624283, 0.03758891299366951, 0.3448503315448761], [-0.1342127025127411, -0.0437009297311306, 0.03895362466573715], [0.4041348993778229, -0.03494403138756752, 0.01563146337866783], [-0.007236247882246971, -0.141464963555336, -0.3966600000858307], [0.025743694975972176, -0.19561006128787994, 0.13481727242469788], [-0.3111247718334198, 0.2702368497848511, 0.2558254301548004], [-0.11880727857351303, -0.4491357207298279, -0.12387892603874207], [-0.18846458196640015, -0.05753675848245621, -0.13591133058071136], [0.3458331823348999, 0.1152249425649643, -0.01206811424344778]], [[-0.07882153987884521, 0.0030670007690787315, -0.1853262484073639], [-0.1177944540977478, 0.12947076559066772, -0.07473155856132507], [0.08307474851608276, -0.03543004021048546, -0.10993337631225586], [-0.09091038256883621, -0.1360294073820114, -0.06558457762002945], [-0.04363882169127464, -0.14443553984165192, 0.07594696432352066], [-0.12336555123329163, -0.006294852588325739, -0.1742873191833496], [-0.014309564605355263, -0.30033549666404724, -0.04346884787082672], [-0.05729767680168152, 0.21122339367866516, -0.04884179309010506], [0.08984370529651642, -0.023748964071273804, 0.22042493522167206], [-0.3744548559188843, 0.1823190152645111, 0.0019672017078846693], [0.06472335010766983, -0.2260272353887558, -0.21360062062740326], [-0.1352737545967102, 0.03588039055466652, 0.004080727230757475], [0.1693311333656311, 0.3672143816947937, 0.23372545838356018], [-0.16667065024375916, -0.16963866353034973, -0.1717706322669983], [-0.02561272867023945, -0.17531931400299072, 0.09079055488109589], [-0.039116021245718, -0.0008249142556451261, -0.26572829484939575]], [[-0.01401522010564804, 0.03431648015975952, -0.2267109751701355], [-0.07102593034505844, 0.26352208852767944, 0.05077747255563736], [-0.07881276309490204, -0.0974661111831665, -0.17894473671913147], [-0.08722415566444397, 0.1644854098558426, 0.02550320513546467], [-0.010592369362711906, 0.10883942246437073, 0.001285869861021638], [-0.17020796239376068, 0.15912194550037384, -0.05727355182170868], [-0.2630307972431183, -0.058708276599645615, -0.22183255851268768], [0.04011968523263931, -0.02547188103199005, 0.08091036230325699], [0.04840087890625, -0.1172720193862915, 0.28368431329727173], [0.17630118131637573, -0.2097736895084381, 0.04124456271529198], [0.23460684716701508, 0.0040953210555016994, 0.07757499814033508], [0.1796487420797348, 0.11871123313903809, -0.00770791620016098], [-0.20754115283489227, -0.11318507790565491, -0.13211829960346222], [-0.01791682094335556, -0.09081482142210007, -0.04202169552445412], [-0.10957691818475723, -0.09445138275623322, -0.04259629547595978], [0.05094321817159653, 0.1350703090429306, 0.12090440839529037]], [[-0.11577360332012177, -0.23799355328083038, 0.2737070918083191], [-0.15319441258907318, -0.050342120230197906, 0.2975214421749115], [-0.07290684431791306, -0.0018922757590189576, 0.26606810092926025], [-0.12194118648767471, -0.0583009235560894, -0.20137038826942444], [-0.14180681109428406, 0.0849895030260086, 0.1449693888425827], [-0.054575707763433456, -0.1437678188085556, 0.34165462851524353], [0.16577361524105072, 0.021525295451283455, 0.3098052740097046], [0.4037753939628601, -0.236447274684906, 0.08485950529575348], [0.009818105958402157, 0.13439500331878662, -0.17436105012893677], [-0.14079387485980988, -0.25310418009757996, -0.22047023475170135], [0.0617593377828598, 0.026587923988699913, 0.22079473733901978], [0.15622977912425995, 0.028795400634407997, -0.1115400418639183], [-0.06188049912452698, -0.024450359866023064, 0.07053504884243011], [0.1511475145816803, 0.051916901022195816, -0.4082319140434265], [0.12233001738786697, -0.09396133571863174, 0.06444914638996124], [0.24006733298301697, 0.15398934483528137, -0.10377084463834763]], [[-0.04621325805783272, -0.03429584205150604, -0.08845698088407516], [0.30792635679244995, -0.061383187770843506, 0.05237864702939987], [-0.14896775782108307, 0.006445166189223528, -0.05190823972225189], [-0.02540777437388897, -0.09650617837905884, 0.009266671724617481], [0.31647124886512756, 0.08715025335550308, -0.08926234394311905], [-0.1504209041595459, -0.030200716108083725, 0.10253285616636276], [0.020456980913877487, -0.16406655311584473, -0.03802880272269249], [0.21546244621276855, -0.21235217154026031, 0.04626202955842018], [-0.011332107707858086, -0.11853264272212982, 0.05094832554459572], [-0.27506259083747864, -0.19986623525619507, 0.11759550869464874], [0.09391651302576065, -0.06740105152130127, 0.12756410241127014], [0.21529839932918549, 0.20479005575180054, -0.22994869947433472], [0.06202762946486473, 0.14837311208248138, -0.2975279688835144], [-0.09148538112640381, -0.07058282941579819, -0.0880700945854187], [-0.15404289960861206, 0.27135777473449707, 0.24381707608699799], [0.17750872671604156, 0.10764431208372116, 0.18227465450763702]], [[-0.04316045343875885, 0.10169337689876556, 0.14531457424163818], [0.061161965131759644, 0.06576962769031525, 0.03555102273821831], [0.03770390525460243, 0.30327075719833374, -0.13921500742435455], [0.06546182930469513, -0.04151648283004761, 0.03986481577157974], [0.020032629370689392, 0.017494460567831993, 0.019397955387830734], [0.25320637226104736, 0.33552607893943787, -0.07135777920484543], [0.05849359184503555, 0.09258835762739182, 0.26677802205085754], [-0.13994190096855164, -0.03232942521572113, -0.3554344177246094], [-0.2322385311126709, -0.0024269039276987314, -0.08021636307239532], [0.07306172698736191, 0.051060523837804794, 0.19637137651443481], [0.131487637758255, -0.11971259117126465, 0.16800859570503235], [0.12446211278438568, 0.11292574554681778, -0.14101073145866394], [0.425968199968338, -0.2319752275943756, -0.17241086065769196], [-0.11939994245767593, 0.22616344690322876, 0.3573606610298157], [0.349952757358551, 0.1174655333161354, 0.06257155537605286], [-0.13208389282226562, 0.011614901013672352, 0.23680149018764496]], [[-0.02950592152774334, -0.1284453123807907, -0.0792771577835083], [0.11360827088356018, 0.21156932413578033, -0.19363395869731903], [0.008331621997058392, -0.022128578275442123, -0.18454785645008087], [-0.0032802470959722996, 0.03582495078444481, -0.029317889362573624], [0.066647469997406, 0.13190816342830658, 0.13718409836292267], [0.1532975286245346, 0.05371522903442383, -0.06608018279075623], [0.22484494745731354, 0.0044348882511258125, -0.056388501077890396], [0.29280704259872437, 0.07274142652750015, -0.19361619651317596], [-0.1248321682214737, -0.19316703081130981, 0.06561237573623657], [-0.006199208553880453, 0.1329023838043213, -0.11048556864261627], [-0.1664939820766449, -0.04906608909368515, -0.05301009491086006], [-0.029513923451304436, -0.12102343887090683, -0.22487130761146545], [0.007446017116308212, -0.17732270061969757, -0.0584978424012661], [-0.14384867250919342, -0.013813510537147522, -0.19696232676506042], [0.20642822980880737, 0.006165483500808477, -0.020091457292437553], [0.1942945271730423, 0.04110556095838547, 0.12255572527647018]], [[0.012086569331586361, -0.17135490477085114, 0.08089174330234528], [0.030344806611537933, 0.06320097297430038, -0.17351742088794708], [0.12610027194023132, -0.0105521185323596, -0.05552635341882706], [0.06324124336242676, 0.0969906598329544, 0.05783253535628319], [-0.18845519423484802, -0.071726493537426, 0.0527632050216198], [0.03824866563081741, 0.1570909023284912, -0.10436239093542099], [-0.12995046377182007, 0.2517640292644501, 0.047744493931531906], [0.0070419227704405785, -0.18589185178279877, 0.08134955912828445], [0.05293850600719452, -0.20622560381889343, 0.023726211860775948], [0.004540783353149891, -0.03947300463914871, 0.04315594211220741], [-0.0982045829296112, -0.15886835753917694, 0.08452359586954117], [0.1323745995759964, -0.08020945638418198, 0.12654472887516022], [0.20606723427772522, 0.1835784614086151, -0.1834654062986374], [-0.1437050700187683, 0.10249257832765579, -0.1693020761013031], [-0.07021290063858032, 0.08981077373027802, 0.06255187094211578], [-0.13142140209674835, -0.07632339745759964, -0.12972238659858704]], [[-0.23283208906650543, 0.11390164494514465, 0.2221473604440689], [0.027492258697748184, -0.21933740377426147, 0.009357315488159657], [-0.09415920078754425, -0.034963078796863556, 0.0006984990322962403], [-0.09775149822235107, 0.01603163406252861, 0.18514612317085266], [0.09236859530210495, 0.018858931958675385, -0.09713146835565567], [-0.032408930361270905, 0.020804882049560547, 0.019062956795096397], [0.07540056854486465, 0.21278566122055054, -0.09427137672901154], [0.2688887417316437, -0.024863071739673615, -0.09919923543930054], [0.01872285269200802, -0.26262757182121277, -0.03047291375696659], [-0.20455977320671082, -0.25345245003700256, 0.1748010367155075], [-0.050977591425180435, -0.009281989187002182, -0.016901178285479546], [-0.12924200296401978, -0.152353897690773, -0.09355485439300537], [0.17494195699691772, 0.0643567219376564, 0.09725818037986755], [-0.4607907831668854, -0.2585305869579315, 0.11562097817659378], [0.12280932813882828, -0.05496082827448845, -0.08669348806142807], [-0.14097774028778076, -0.09470193833112717, 0.39591333270072937]], [[0.03741990029811859, 0.09537611156702042, -0.17849501967430115], [-0.21212990581989288, 0.08175288885831833, -0.1107432097196579], [0.00897188950330019, 0.034813784062862396, -0.21735507249832153], [-0.051498692482709885, -0.08472771942615509, 0.002437862101942301], [-0.11619897186756134, 0.07176239043474197, -0.007295199204236269], [-0.23822468519210815, -0.1407221555709839, -0.041019145399332047], [-0.28665125370025635, -0.16820697486400604, -0.14892084896564484], [-0.054537780582904816, -0.01895100809633732, 0.2523423135280609], [-0.005976742599159479, -0.029719384387135506, 0.1797558069229126], [0.22579969465732574, -0.019882168620824814, 0.08947673439979553], [0.29147815704345703, 0.032760925590991974, 0.20442962646484375], [-0.02036447450518608, 0.07156803458929062, -0.04099707677960396], [-0.29940128326416016, -0.04280812665820122, -0.35539406538009644], [0.1164199486374855, -0.05713394656777382, 0.18394701182842255], [-0.18205654621124268, 0.08063048124313354, 0.09769724309444427], [-0.04188128933310509, 0.05118483304977417, -0.052642397582530975]], [[0.04631045460700989, -0.11611096560955048, -0.2597064673900604], [0.11854977905750275, 0.11846652626991272, 0.144535094499588], [-0.08878842741250992, 0.09427382051944733, -0.04627399146556854], [0.002667926251888275, -0.11407503485679626, 0.04846318066120148], [0.20921571552753448, -0.22191742062568665, 0.019228866323828697], [0.13538740575313568, -0.04413054883480072, 0.13790422677993774], [-0.19684645533561707, -0.22428083419799805, -0.10921657085418701], [-0.24023863673210144, -0.18509377539157867, 0.009776920080184937], [-0.09042341262102127, 0.16545440256595612, 0.03452405333518982], [0.16780608892440796, 0.1517762839794159, 0.0902147963643074], [0.12929695844650269, 0.076118104159832, 0.18991130590438843], [0.014710015617311, 0.016490628942847252, -0.1857672482728958], [0.052913274616003036, 0.1033470630645752, -0.005893976893275976], [0.14467346668243408, -0.09541425853967667, 0.08213164657354355], [0.042695559561252594, 0.1307317316532135, 0.11460941284894943], [-0.07382255047559738, 0.10204435139894485, 0.09130602329969406]], [[0.2020077407360077, 0.0501473993062973, -0.20390553772449493], [-0.2768685519695282, 0.1775234043598175, 0.16658830642700195], [0.16960079967975616, 0.2905821204185486, -0.11774682998657227], [0.0543380081653595, 0.005861781071871519, 0.02897082082927227], [-0.3614889681339264, 0.055664751678705215, 0.11645401269197464], [-0.15292887389659882, -0.14643308520317078, -0.11189798265695572], [-0.17422758042812347, 0.020860925316810608, -0.12799125909805298], [0.07537342607975006, -0.11847177147865295, 0.06503292918205261], [0.03513063117861748, -0.4218970835208893, 0.16292579472064972], [0.27279600501060486, -0.23316533863544464, 0.06785620003938675], [0.2330651879310608, -0.1554812341928482, -0.24694260954856873], [0.08485721796751022, -0.05752105638384819, -0.09129110723733902], [-0.12299390137195587, -0.019422153010964394, -0.02279793843626976], [-0.04574676975607872, -0.1965397596359253, 0.22777007520198822], [-0.041681788861751556, 0.03179609030485153, -0.2594033181667328], [0.15896904468536377, -0.010872543789446354, -0.01391400583088398]], [[-0.08410640805959702, 0.13248661160469055, 0.11226220428943634], [-0.3605591356754303, 0.0810694620013237, 0.22662504017353058], [0.08586719632148743, 0.008683746680617332, -0.1277308166027069], [-0.23419585824012756, -0.030900854617357254, -0.028657449409365654], [-0.24087445437908173, -0.10373181849718094, 0.11081686615943909], [-0.002339035738259554, 0.3125983476638794, -0.1907200664281845], [-0.29308342933654785, 0.09020453691482544, 0.03787264972925186], [-0.02517518401145935, -0.05334948003292084, -0.034093089401721954], [-0.20640134811401367, 0.05261785164475441, 0.15431058406829834], [0.16566821932792664, 0.019659779965877533, -0.15259240567684174], [0.174002543091774, -0.18102911114692688, -0.24925191700458527], [-0.13331568241119385, -0.26011401414871216, 0.2107613980770111], [-0.014706266112625599, -0.11113741993904114, -0.17300255596637726], [0.1979595422744751, 0.005717927124351263, -0.17781096696853638], [0.012454896233975887, 0.1267016977071762, 0.2592901885509491], [0.13317614793777466, -0.17819765210151672, -0.07235579937696457]]], "conv3.bias": [0.08089464157819748, 0.04088210314512253, 0.020369764417409897, -0.09528815001249313, 0.06895212829113007, 0.05260452255606651, -0.064988873898983, 0.13889546692371368, 0.030505727976560593, 0.1514185220003128, -0.10513477027416229, -0.07054611295461655, -0.03260127454996109, -0.01562918908894062, 0.08526182919740677, -0.021825583651661873], "conv5.weight": [[[-0.004344036802649498, -0.08334526419639587, -0.12226803600788116, -0.20291705429553986, -0.394480437040329], [-0.03889577090740204, -0.1500438153743744, 0.13513371348381042, -0.1398802548646927, -0.037241462618112564], [-0.05286874249577522, -0.14417234063148499, -0.021455643698573112, -0.21667350828647614, -0.2487221211194992], [-0.17503906786441803, 0.08745633810758591, -0.09912461787462234, 0.07506474107503891, -0.05494934320449829], [0.04349420592188835, 0.015198314562439919, 0.07171252369880676, -0.22960641980171204, -0.17846007645130157], [-0.10417257994413376, -0.06747322529554367, -0.019697416573762894, 0.11423838883638382, -0.0630795881152153], [0.1008099690079689, 0.07572371512651443, 0.15771286189556122, 0.027684742584824562, 0.18024437129497528], [-0.12273924052715302, 0.1345045268535614, 0.2750241160392761, 0.15461726486682892, -0.06082687899470329], [0.11709333956241608, 0.06019682064652443, -0.20795482397079468, 0.15006917715072632, 0.0514400452375412], [0.009450169280171394, -0.03131931647658348, -0.20649486780166626, -0.16386620700359344, -0.42489510774612427], [0.32299453020095825, -0.026995250955224037, -0.20164714753627777, -0.04192372411489487, 0.15217775106430054], [0.013591553084552288, 0.12542155385017395, 0.07162820547819138, -0.05969349667429924, -0.2958579957485199], [-0.17655329406261444, 0.09717651456594467, 0.005033496767282486, 0.059815943241119385, -0.34225326776504517], [-0.03554025664925575, 0.043169908225536346, 0.1657644361257553, 0.011524842120707035, -0.08073897659778595], [-0.16084443032741547, -0.08564180880784988, 0.08715689927339554, -0.019952120259404182, -0.015144932083785534], [0.14268814027309418, 0.3660602867603302, 0.23970510065555573, -0.13730265200138092, 0.11585192382335663]], [[-0.0031287253368645906, 0.003661127993836999, 0.07791478931903839, -0.004922390915453434, 0.05520450696349144], [-0.10257592797279358, 0.16757507622241974, -0.06408174335956573, -0.21476124227046967, -0.22625136375427246], [-0.068679578602314, -0.038487453013658524, 0.023434223607182503, 0.03223472088575363, -0.17028842866420746], [-0.09971543401479721, 0.11615503579378128, -0.09818965196609497, -0.05421748757362366, 0.2068484127521515], [0.021722404286265373, -0.13816989958286285, 0.12878765165805817, -0.00603332556784153, -0.2563853859901428], [-0.17540767788887024, -0.07712943851947784, -0.16598093509674072, -0.11359292268753052, -0.04737650603055954], [-0.06641969829797745, -0.11456327140331268, -0.36498546600341797, 0.07478971779346466, 0.00942683219909668], [-0.20249174535274506, -0.08194006979465485, 0.09442879259586334, -0.2069430947303772, -0.16449439525604248], [-0.29700767993927, -0.11918922513723373, 0.07032842934131622, 0.10451395809650421, 0.2397438883781433], [-0.17015810310840607, 0.04152008146047592, -0.09515251219272614, 0.3202129602432251, -0.16736307740211487], [0.12227734923362732, 0.07183470577001572, -0.18306563794612885, 0.13608060777187347, 0.1715763658285141], [0.002549312310293317, -0.07328490912914276, 0.2693003714084625, -0.15271353721618652, 0.015700632706284523], [-0.013838057406246662, 0.12150902301073074, 0.15282347798347473, -0.13114719092845917, -0.13510069251060486], [-0.09128256887197495, 0.17350655794143677, 0.3410206437110901, -0.4638919532299042, -0.04793620854616165], [-0.047458529472351074, 0.06879030168056488, -0.12389377504587173, -0.04376799613237381, 0.04329795762896538], [-0.050856273621320724, -0.2614509165287018, -0.16181962192058563, -0.2272789031267166, 0.06251395493745804]], [[0.10669148713350296, 0.02952221967279911, 0.06573586165904999, -0.012471700087189674, 0.11671742051839828], [-0.060606300830841064, -0.11106786131858826, -0.048495445400476456, -0.16580280661582947, -0.02412114106118679], [0.3314909040927887, -0.19641119241714478, 0.16078056395053864, -0.1255878061056137, 0.0036362207029014826], [-0.032176144421100616, 0.03281796723604202, -0.12732037901878357, -0.04108850285410881, -0.045608002692461014], [-0.22319406270980835, 0.020902829244732857, -0.013675263151526451, -0.0035214994568377733, 0.08257251977920532], [0.12993797659873962, 0.11781670898199081, 0.03255778178572655, -0.07719754427671432, 0.10848396271467209], [0.0226484015583992, 0.17177212238311768, -0.07663431763648987, -0.21190579235553741, -0.19867855310440063], [-0.15594471991062164, 0.1819179803133011, -0.19158466160297394, 0.25139468908309937, -0.21445797383785248], [-0.07682066410779953, -0.0758756771683693, 0.10158918797969818, 0.0225831251591444, -0.13657182455062866], [-0.2718096375465393, 0.10698989778757095, 0.11537469923496246, 0.12896962463855743, -0.35687631368637085], [-0.13625352084636688, 0.05722953379154205, 0.09509602934122086, 0.23561741411685944, 0.06202841177582741], [0.04857918992638588, -0.13620346784591675, -0.13355353474617004, -0.1669488549232483, -0.09899108856916428], [-0.1066550761461258, -0.027791958302259445, 0.2748607099056244, -0.239688441157341, -0.09669375419616699], [-0.048891372978687286, 0.12698963284492493, 0.039041709154844284, 0.11769577115774155, 0.04611030966043472], [-0.12774091958999634, -0.11896871775388718, -0.05431493744254112, 0.073274165391922, 0.12767939269542694], [0.1546882688999176, -0.05756893754005432, -0.07666630297899246, -0.13880020380020142, -0.012727132067084312]], [[-0.03220399096608162, 0.08064154535531998, 0.14378458261489868, 0.0545036680996418, 0.07486193627119064], [-0.021785860881209373, -0.08077457547187805, 0.006474903319031, -0.0029625939205288887, -0.1810697317123413], [0.0034359460696578026, 0.08610092103481293, 0.01941167749464512, -0.0115785738453269, 0.09430469572544098], [-0.1034788116812706, 0.046928200870752335, 0.187409445643425, 0.22285190224647522, 0.18199099600315094], [0.20220115780830383, -0.1574511080980301, 0.1097300723195076, 0.1940584033727646, 0.05252620577812195], [-0.04366094619035721, 0.05761473998427391, -0.16498279571533203, 0.20201139152050018, -0.051391348242759705], [-0.1569410264492035, 0.003363099880516529, 0.027510881423950195, 0.039385199546813965, -0.14604556560516357], [0.26932135224342346, 0.2540943920612335, 0.3127785623073578, 0.20190273225307465, 0.2523083984851837], [-0.0014271598774939775, -0.11496905237436295, 0.16172096133232117, -0.023149557411670685, 0.12468357384204865], [0.12405677139759064, 0.1403769850730896, 0.02195878140628338, -0.2988481819629669, 0.23380312323570251], [0.24654293060302734, 0.03245670720934868, 0.0426986925303936, 0.0818859413266182, 0.09358927607536316], [0.041036978363990784, 0.06405666470527649, -0.2729529142379761, 0.174953430891037, -0.05594533309340477], [0.20180906355381012, 0.24457037448883057, -0.05080718547105789, 0.23939988017082214, -0.2764125466346741], [0.12822337448596954, 0.15160702168941498, 0.2165975719690323, -0.029514750465750694, 0.2867160439491272], [-0.27479252219200134, -0.2045314908027649, -0.10385395586490631, -0.13238425552845, -0.05914254114031792], [-0.014532573521137238, 0.22509688138961792, -0.08700580149888992, -0.05776989087462425, 0.37481170892715454]], [[0.02825399674475193, 0.14945009350776672, -0.3253994286060333, 0.1462353616952896, 0.19834794104099274], [-0.036044541746377945, 0.13813377916812897, -0.05649007484316826, 0.24274519085884094, -0.07983648031949997], [-0.1295601725578308, 0.12992119789123535, -0.16991771757602692, 0.09746257215738297, 0.03375997394323349], [0.22289696335792542, -0.10067444294691086, 0.17019787430763245, -0.13039548695087433, -0.026848867535591125], [0.1129852682352066, -0.05523115023970604, -0.09146644920110703, -0.04717334732413292, -0.17078188061714172], [0.17015662789344788, 0.3620877265930176, -0.14406771957874298, 0.07224929332733154, -0.06154859438538551], [0.34969910979270935, 0.024198081344366074, -0.03543134778738022, -0.10819156467914581, -0.2089979499578476], [-0.04890059679746628, 0.036341436207294464, -0.11546248197555542, -0.05564424395561218, -0.011743398383259773], [0.05790337547659874, 0.06449048966169357, 0.037600383162498474, 0.10718178749084473, 0.08686766773462296], [-0.2274414747953415, -0.2696210741996765, -0.09531565010547638, 0.0955301970243454, -0.016179801896214485], [0.18944497406482697, -0.21231278777122498, 0.055975038558244705, -0.14761567115783691, 0.06987859308719635], [0.2723712921142578, -0.05006550997495651, -0.033080093562603, 0.0013157858047634363, -0.0694117471575737], [0.15922662615776062, 0.2058132439851761, 0.20487000048160553, -0.10354253649711609, -0.09966471791267395], [0.08406621962785721, -0.4255389869213104, 0.04229345917701721, -0.10770697891712189, 0.0024279055651277304], [0.3192136585712433, 0.08169133216142654, -0.08667901903390884, 0.00817494560033083, -0.1833452582359314], [0.05221490189433098, 0.29002323746681213, -0.15489739179611206, 0.23516972362995148, 0.05093139037489891]], [[0.02181341126561165, -0.26686370372772217, 0.02106563188135624, 0.0420101173222065, 0.09703119099140167], [0.007912765257060528, 0.1907637119293213, -0.01091759093105793, -0.2780395448207855, 0.03397536650300026], [0.02080860733985901, -0.05618419498205185, -0.022387033328413963, -0.04963744804263115, 0.005103183910250664], [-0.08464738726615906, 0.11116327345371246, -0.03420141711831093, -0.16048148274421692, 0.05049554631114006], [-0.08324459940195084, -0.2187606692314148, -0.031916871666908264, -0.40996187925338745, -0.022504830732941628], [-0.127772256731987, 0.001945028081536293, 0.16371217370033264, -0.008158487267792225, 0.3758397102355957], [0.06387937813997269, -0.03864520788192749, 0.09165148437023163, 0.09517285972833633, 0.02163681760430336], [0.20646794140338898, 0.17458267509937286, 0.08598435670137405, 0.11275086551904678, 0.07014138996601105], [0.15051262080669403, 0.04234534874558449, -0.13088011741638184, 0.058122456073760986, -0.2539409399032593], [0.05674608051776886, -0.08535901457071304, 0.013814794830977917, 0.13566459715366364, -0.08648268133401871], [-0.02224159426987171, 0.07456796616315842, -0.14572282135486603, -0.11580922454595566, 0.005212968681007624], [-0.09292883425951004, -0.04515083506703377, 0.07407897710800171, 0.07312596589326859, -0.03461754322052002], [0.04385491460561752, -0.023555034771561623, 0.3355853259563446, 0.2120887190103531, -0.014493861235678196], [-0.21967868506908417, 0.1694471389055252, 0.3687545955181122, -0.22154347598552704, -0.16056159138679504], [0.05178053304553032, 0.09785693138837814, -0.03803282231092453, 0.20182763040065765, 0.19382333755493164], [-0.0033446799498051405, -0.031587179750204086, -0.04998653382062912, 0.26228949427604675, -0.2559087872505188]], [[-0.19090096652507782, -0.07977929711341858, -0.04794839769601822, 0.06516339629888535, -0.14207723736763], [-0.0021154130809009075, 0.20699962973594666, -0.15582197904586792, 0.19359873235225677, 0.07220612466335297], [-0.24789944291114807, 0.07267412543296814, -0.14215442538261414, 0.06958005577325821, 3.830586138064973e-05], [0.2161456197500229, -0.1232391744852066, -0.040984321385622025, 0.10004782676696777, 0.04500304535031319], [-0.3354347348213196, -0.053778260946273804, -0.062200792133808136, -0.19739452004432678, 0.13314247131347656], [0.18189002573490143, -0.067546546459198, -0.20031140744686127, -0.1513507068157196, 0.07030681520700455], [0.39025992155075073, 0.032522667199373245, 0.002105850726366043, -0.06901992112398148, 0.01983533427119255], [0.06441962718963623, 0.3144698143005371, -0.03029971942305565, 0.016113795340061188, 0.15298554301261902], [-0.20707423985004425, -0.03487303853034973, 0.08787067234516144, 0.0242164246737957, 0.06278111785650253], [0.08933075517416, 0.2645023465156555, 0.027318110689520836, 0.11357680708169937, 0.11751911044120789], [0.0312233604490757, -0.043783821165561676, -0.21837005019187927, 0.18221330642700195, -0.30330246686935425], [-0.06400199979543686, 0.1580604463815689, -0.21621714532375336, -0.041571374982595444, -0.21157389879226685], [0.15332849323749542, 0.11442907899618149, -0.3710043430328369, 0.1850578933954239, 0.13018740713596344], [-0.22173768281936646, -0.023669572547078133, -0.3306589424610138, 0.07670063525438309, -0.0826590433716774], [0.12734383344650269, 0.20928575098514557, 0.010510139167308807, -0.22816990315914154, -0.0917225033044815], [-0.19543378055095673, 0.26900410652160645, -0.16136401891708374, -0.10478468984365463, 0.2497410625219345]], [[0.0826396569609642, -0.013094209134578705, -0.09846870601177216, 0.00529962033033371, 0.07340215146541595], [-0.3080071806907654, -0.11808229982852936, -0.12131878733634949, 0.0836973488330841, 0.0514494813978672], [-0.14886337518692017, 0.05343497544527054, -0.16913701593875885, -0.14510272443294525, -0.0697072297334671], [0.016472099348902702, -0.1675601452589035, 0.08086398243904114, -0.026949765160679817, -0.019227106124162674], [-0.1705489456653595, 0.185956209897995, -0.23524321615695953, 0.0011813141172751784, -0.0005083350697532296], [-0.1150902584195137, -0.07274471968412399, 0.07767494767904282, -0.008932177908718586, 0.04038212075829506], [-0.08801457285881042, -0.26372137665748596, 0.05667326971888542, -0.03949949890375137, -0.0894547551870346], [-0.08005715161561966, -0.15210488438606262, -0.17026303708553314, -0.16944004595279694, 0.04303311929106712], [-0.04071669280529022, -0.10989730805158615, 0.1404275894165039, 0.047940291464328766, 0.022890333086252213], [0.1268479973077774, -0.05716704949736595, 0.1283951997756958, 0.034865573048591614, 0.2078547179698944], [-0.16655674576759338, 0.2021072655916214, -0.025193223729729652, 0.08712983131408691, -0.003566860454156995], [-0.12973135709762573, -0.09629335254430771, -0.2232280671596527, 0.13277406990528107, -0.09379961341619492], [-0.33398309350013733, -0.19067801535129547, 0.12395641207695007, 0.013786551542580128, -0.009623588994145393], [0.28720393776893616, -0.06660954654216766, -0.07496198266744614, 0.09672237932682037, 0.061511822044849396], [0.05149092152714729, -0.06569603085517883, -0.0320642851293087, 0.13421794772148132, 0.06342004984617233], [0.030762486159801483, -0.045670539140701294, -0.11739282310009003, 0.13111677765846252, -0.01594947837293148]], [[0.08950668573379517, -0.046822186559438705, -0.13837076723575592, 0.006181772798299789, 0.12714609503746033], [0.1921597570180893, 0.09499510377645493, 0.17463438212871552, 0.1148565262556076, 0.1290837973356247], [0.014118339866399765, -0.24185295403003693, -0.0956253930926323, 0.0070433346554636955, 0.2083958238363266], [-0.05633080005645752, 0.21603423357009888, 0.037599820643663406, 0.009915540926158428, -0.011418933980166912], [-0.3203832507133484, 0.00799335353076458, -0.15791238844394684, -0.1220320463180542, -0.48360681533813477], [-0.07246504724025726, -0.0186685211956501, -0.06116332858800888, -0.23055945336818695, 0.06941886991262436], [-0.06355348229408264, 0.33402958512306213, 0.061847276985645294, -0.09386366605758667, 0.06692201644182205], [0.23446595668792725, 0.03654444217681885, -0.24070776998996735, 0.11387915164232254, 0.07762645930051804], [-0.07628469169139862, -0.33333244919776917, 0.012004750780761242, -0.015460963360965252, 0.05638521909713745], [-0.009171524085104465, -0.03564845770597458, 0.043408915400505066, -0.007801539730280638, 0.07706759124994278], [0.23632991313934326, 0.10063949972391129, 0.17136557400226593, 0.04025721177458763, -0.11391466110944748], [0.08625242859125137, -0.03652484342455864, -0.248686745762825, 0.10702534019947052, 0.01302933320403099], [0.12536554038524628, -0.051986873149871826, 0.18565446138381958, 0.25689026713371277, -0.02069728635251522], [-0.17919588088989258, -0.5480421781539917, -0.08677612245082855, 0.02508227340877056, 0.252162903547287], [-0.07376431673765182, -0.0611644871532917, -0.14900928735733032, 0.006737981922924519, 0.10200752317905426], [0.1908593624830246, -0.03513837233185768, 0.23887532949447632, 0.2862775921821594, 0.02251097746193409]], [[-0.08493155986070633, 0.03250911459326744, -0.004766723606735468, -0.04284338280558586, 0.12600557506084442], [0.13215789198875427, -0.05549848452210426, -0.08506649732589722, -0.26539888978004456, 0.008818421512842178], [-0.015067105181515217, -0.10692569613456726, 0.13520586490631104, -0.030718008056282997, 0.20787368714809418], [-0.025793982669711113, 0.035810403525829315, -0.09394297748804092, -0.09726614505052567, 0.01416388526558876], [-0.44497013092041016, -0.007551293354481459, -0.044726427644491196, 0.2143893837928772, -0.15534396469593048], [0.16834577918052673, -0.029389293864369392, -0.15484605729579926, -0.025508882477879524, 0.16922341287136078], [0.08007363975048065, -0.1322949230670929, -0.19671772420406342, -0.16572777926921844, -0.13416296243667603], [-0.10857713967561722, 0.015248961746692657, 0.12337949126958847, -0.153264582157135, -0.06652135401964188], [-0.07872302085161209, -0.01704017072916031, -0.24136386811733246, 0.05545720458030701, 0.021410051733255386], [-0.09228997677564621, 0.1123548224568367, 0.03872372582554817, -0.23628510534763336, 0.11375761777162552], [0.10288455337285995, 0.1669747531414032, 0.061578553169965744, 0.2946817874908447, -0.01388940867036581], [-0.046476930379867554, 0.022607386112213135, 0.04123062640428543, -0.2467687875032425, -0.006090736482292414], [0.234656423330307, -0.05515206605195999, 0.17644846439361572, -0.05393260717391968, -0.42231637239456177], [-0.12226896733045578, 0.05909688025712967, -0.04865448921918869, 0.061353255063295364, 0.15661053359508514], [0.2712368667125702, 0.04223771393299103, 0.016983212903141975, 0.023051265627145767, 0.013453055173158646], [-0.07263443619012833, 0.17485752701759338, 0.017635086551308632, 0.2858301103115082, 0.08835441619157791]], [[0.23975956439971924, 0.07419204711914062, 0.11015366017818451, -0.04300408810377121, -0.1832781732082367], [0.14268645644187927, -0.07314997166395187, -0.03274059668183327, -0.2024904191493988, 0.13863517343997955], [0.375470906496048, -0.037086136639118195, 0.1578509658575058, 0.1054384782910347, -0.12551036477088928], [-0.08298474550247192, 0.026804333552718163, -0.10387417674064636, 0.14913789927959442, 0.018746230751276016], [0.15740752220153809, -0.16989023983478546, 0.09246081113815308, 0.008851809427142143, 0.3043486475944519], [-0.12812861800193787, 0.015041626989841461, -0.10844288021326065, 0.21819256246089935, -0.1321212202310562], [-0.13219787180423737, -0.243007630109787, 0.16210800409317017, 0.0858740508556366, 0.13374954462051392], [0.023672139272093773, -0.20586514472961426, 0.0726378932595253, 0.3151107430458069, 0.2660265564918518], [-0.29912471771240234, -0.014805720187723637, -0.17365987598896027, 0.09422940760850906, 0.008747458457946777], [0.04703707993030548, -0.015811927616596222, 0.15792259573936462, -0.18338964879512787, -0.01610983908176422], [-0.10798961669206619, -0.044066064059734344, -0.08599701523780823, -0.03084629774093628, 0.17149049043655396], [0.04646595939993858, 0.09354519098997116, -0.0770719051361084, -0.10178737342357635, 0.17146925628185272], [-0.25287869572639465, 0.10846007615327835, -0.08828243613243103, 0.009389404207468033, 0.005502123385667801], [0.019875988364219666, -0.07065177708864212, -0.3789624273777008, 0.06891193240880966, -0.0915645956993103], [-0.13955573737621307, -0.21415594220161438, -0.21338751912117004, -0.1231631264090538, -0.15074479579925537], [-0.19878065586090088, 0.1318545937538147, 0.03282126411795616, 0.515366792678833, -0.18049082159996033]], [[-0.0519719123840332, 0.07703840732574463, 0.03305453062057495, 0.053015489131212234, -0.1485482156276703], [0.10314512252807617, 0.01389145478606224, -0.1133236289024353, -0.09384576231241226, -0.07994993031024933], [0.0860709547996521, 0.04494878649711609, -0.028842752799391747, 0.021047508344054222, -0.13622821867465973], [-0.07858355343341827, -0.07989565283060074, 0.15928149223327637, 0.20937871932983398, 0.24987661838531494], [-0.21049858629703522, -0.005923621356487274, -0.032064177095890045, 0.30126357078552246, -0.07698643207550049], [-0.09454858303070068, 0.18192636966705322, 0.04812660440802574, 0.027791818603873253, -0.03320696949958801], [-0.13783231377601624, -0.05594533309340477, -0.001831547822803259, 0.14019154012203217, 0.04409191757440567], [-0.008744140155613422, 0.10467904061079025, 0.14878298342227936, 0.00936424545943737, 0.4271751940250397], [0.026451069861650467, -0.03990360349416733, 0.021619996055960655, 0.12248625606298447, -0.10654228925704956], [0.010625365190207958, -0.09404206275939941, 0.11450307816267014, 0.05148753151297569, -0.0682351365685463], [0.23255276679992676, 0.19404183328151703, -0.02629493735730648, -0.11178933829069138, 0.005315033718943596], [-0.05754467099905014, -0.06769786775112152, -0.03761306405067444, 0.04097975790500641, 0.06249437853693962], [0.1176532730460167, 0.09709251672029495, -0.007099505048245192, -0.10450185835361481, 0.07657662779092789], [0.010236832313239574, 0.10616635531187057, 0.058627620339393616, 0.12337706983089447, -0.30818092823028564], [-0.13067495822906494, -0.1402559131383896, 0.03362284600734711, 0.0639340952038765, 0.023553336039185524], [-0.03352371230721474, 0.03356720879673958, -0.18253502249717712, -0.01431893277913332, 0.16006435453891754]], [[0.056728214025497437, 0.09470194578170776, 0.06790010631084442, -0.062039341777563095, 0.0995183140039444], [0.07447932660579681, -0.18815694749355316, -0.21059218049049377, -0.21791715919971466, -0.022947875782847404], [0.22456444799900055, -0.10630758106708527, -0.001417079591192305, -0.15288737416267395, 0.2531331181526184], [-0.07077629864215851, 0.08300799876451492, 0.0458742119371891, 0.0005252640112303197, 0.006449113599956036], [-0.060055144131183624, 0.06972511857748032, -0.025516977533698082, -0.2195521593093872, -0.05483872815966606], [0.1335308700799942, -0.0009517288999632001, 0.17518509924411774, -0.060583531856536865, 0.15893419086933136], [-0.24037443101406097, 0.17920108139514923, 0.10668952018022537, -0.13701486587524414, 0.17101682722568512], [0.02517440915107727, 0.1519208550453186, -0.10753897577524185, 0.13894081115722656, 0.0346243791282177], [-0.07562420517206192, 0.05762924626469612, 0.1243729293346405, 0.16845718026161194, -0.1385066956281662], [-0.16680732369422913, 0.09011194854974747, 0.0359225794672966, 0.09610193222761154, -0.09041537344455719], [0.26772448420524597, -0.15995487570762634, 0.00942244566977024, 0.08743466436862946, 0.15433797240257263], [-0.011079109273850918, 0.03296038508415222, -0.13418102264404297, -0.04803573340177536, -0.13363312184810638], [0.12070119380950928, -0.1444876492023468, 0.14803273975849152, -0.24093057215213776, -0.07037175446748734], [0.06774280965328217, -0.11879490315914154, 0.22069138288497925, 0.030176909640431404, 0.1658248007297516], [-0.1951349973678589, 0.09009505063295364, 0.042809247970581055, -0.04885176569223404, 0.10943402349948883], [0.026781244203448296, -0.009523171000182629, -0.029002107679843903, -0.08568180352449417, -0.08295903354883194]], [[0.09587487578392029, 0.07623117417097092, -0.027940742671489716, 0.2225654423236847, 0.013687264174222946], [0.027662208303809166, -0.010504170320928097, 0.15090712904930115, -0.08522959053516388, -0.005493346601724625], [0.14237505197525024, -0.05767185240983963, -0.14080147445201874, -0.15040864050388336, 0.16374215483665466], [-0.10484296828508377, 0.13158747553825378, -0.009362214244902134, -0.09646020084619522, -0.1508544534444809], [0.09377904236316681, -0.1896834671497345, 0.06345125287771225, 0.05512017756700516, -0.2075147181749344], [0.1363387107849121, 0.06768177449703217, -0.21641957759857178, -0.1481352597475052, -0.21149033308029175], [0.5037033557891846, -0.05509146675467491, 0.08449970930814743, -0.2015669047832489, -0.14201843738555908], [0.17675276100635529, 0.10085669904947281, 0.0458499938249588, -0.10173705220222473, -0.08464150875806808], [0.07389558851718903, 0.039742279797792435, -0.33011892437934875, 0.09940199553966522, 0.03434925898909569], [-0.24385303258895874, -0.33629080653190613, 0.22371217608451843, 0.05472235381603241, -0.050552286207675934], [0.1993231177330017, -0.08124566823244095, -0.04243258386850357, -0.20061984658241272, -0.13610325753688812], [-0.14613117277622223, 0.05536836385726929, 0.09845476597547531, -0.020567988976836205, -0.3337658941745758], [0.0654318779706955, 0.277845174074173, -0.15340448915958405, 0.04067279025912285, 0.13793885707855225], [0.10695414245128632, -0.4095255136489868, -0.31503668427467346, 0.14517633616924286, 0.04449453577399254], [0.1953577846288681, 0.05717640742659569, 0.06646321713924408, -0.15720011293888092, -0.12119614332914352], [0.044403817504644394, 0.06569433212280273, 0.06054075062274933, -0.2126743495464325, 0.024586258456110954]], [[0.2970183789730072, -0.0008233500411733985, -0.01748804561793804, 0.02147945761680603, -0.03443541005253792], [-0.1854129433631897, -0.04059527814388275, 0.15983366966247559, -0.13247795403003693, -0.21672207117080688], [0.06282421946525574, 0.24173927307128906, 0.20495125651359558, 0.03145487606525421, -0.09189622104167938], [0.03814937546849251, 0.04549429193139076, -0.18896591663360596, -0.08291992545127869, 0.39244019985198975], [-0.05658702552318573, 0.06974101066589355, -0.10835369676351547, -0.3907027244567871, 0.1441233605146408], [0.017489256337285042, -0.072425477206707, 0.12852083146572113, -0.12155716121196747, 0.07698726654052734], [-0.18833889067173004, 0.14381270110607147, 0.07063481211662292, -0.10874100029468536, 0.15482978522777557], [0.00196972512640059, -0.06692590564489365, 0.008935060352087021, -0.20300766825675964, -0.030866319313645363], [-0.32845625281333923, -0.008049353957176208, -0.13660520315170288, -0.11322233825922012, -0.02536182478070259], [0.01855211704969406, -0.4390445053577423, -0.15270602703094482, -0.09861794114112854, -0.2125764936208725], [-0.2718620300292969, 0.011922001838684082, 0.013212471269071102, -0.09139411151409149, 0.12563547492027283], [-0.02538554184138775, -0.009536306373775005, -0.02212488278746605, -0.280851274728775, 0.057860393077135086], [-0.2637174427509308, -0.2029527872800827, 0.2204931080341339, 0.06358178704977036, -0.2517412602901459], [0.09604335576295853, 0.1791025698184967, -0.2947194576263428, 0.14748042821884155, -0.1562289446592331], [-0.05897130072116852, 0.08445519953966141, 0.10212351381778717, 0.016005920246243477, 0.2019004076719284], [0.19874954223632812, -0.09903267025947571, -0.07905911654233932, -0.19994734227657318, -0.009276321157813072]], [[-0.052040450274944305, 0.10678310692310333, 0.07184422761201859, 0.16519396007061005, -0.16335029900074005], [-0.014114032499492168, 0.032049261033535004, -0.0756121575832367, -0.24259549379348755, 0.007341715972870588], [-0.06593669950962067, 0.27560919523239136, -0.016808200627565384, -0.13592202961444855, 0.006815324537456036], [-0.0063224430195987225, 0.009790091775357723, 0.04623083770275116, 0.18632514774799347, 0.24850952625274658], [0.18116021156311035, 0.0746534988284111, 0.06670264154672623, -0.05304384604096413, 0.07268133759498596], [-0.1839776337146759, 0.013380753807723522, 0.060688894242048264, 0.2660227119922638, 0.09229730814695358], [0.06134967878460884, 0.07626263797283173, 0.16161148250102997, 0.38082316517829895, 0.3686617314815521], [-0.021045586094260216, 0.027408070862293243, -0.1459318995475769, 0.0793837383389473, -0.17306584119796753], [0.08247040957212448, 0.05848285183310509, -0.004607718903571367, 0.2685532569885254, -0.09843868017196655], [0.15894444286823273, 0.022327939048409462, -0.05632530152797699, 0.13013891875743866, -0.196157306432724], [0.09742432832717896, -0.1515779346227646, -0.10803374648094177, -0.0032127255108207464, -0.0839947834610939], [-0.02470472641289234, -0.06687871366739273, 0.12514401972293854, -0.13034570217132568, -0.28308069705963135], [0.12360914796590805, 0.012978809885680676, 0.2700980305671692, -0.04563779756426811, -0.11500683426856995], [-0.004543383605778217, -0.08375179767608643, -0.1633780300617218, -0.17533905804157257, -0.18449769914150238], [-0.06766597926616669, -0.1120881661772728, 0.09948261082172394, 0.06727871298789978, 0.1622561812400818], [0.09919533133506775, -0.02226307988166809, 0.3540458381175995, -0.043757788836956024, 0.4581403136253357]]], "conv5.bias": [0.012367147952318192, -0.04000193998217583, 0.07260935008525848, -0.1249079778790474, 0.008418447338044643, 0.02404738776385784, 0.07165149599313736, 0.007485286798328161, 0.09909649193286896, 0.07866498082876205, -0.016496913507580757, -0.005378613248467445, -0.045726045966148376, 0.038912031799554825, 0.10190316289663315, 0.03574930503964424], "fc1.weight": [[-0.09252037107944489, 0.15994203090667725, 0.3193805515766144, 0.32284417748451233, 0.2802807092666626, -0.07955628633499146, 0.3746716380119324, -0.1536012887954712, 0.15219303965568542, 0.22805093228816986, -0.19586963951587677, 0.32408881187438965, -0.16880527138710022, -0.2719951272010803, -0.186394602060318, -0.24808232486248016, 0.3577035963535309, 0.15777698159217834, -0.18237808346748352, -0.17635668814182281, 0.39522016048431396, 0.4610767364501953, 0.3767884373664856, -0.32497695088386536, -0.07756989449262619, -0.17939914762973785, 0.4337599575519562, -0.35385358333587646, -0.30654773116111755, 0.3088890016078949, -0.15039768815040588, 0.3266490399837494, 0.1984265297651291, 0.1582796424627304, -0.04444335401058197, -0.3942241966724396, -0.2597288489341736, 0.11652644723653793], [0.33465102314949036, -0.053407032042741776, -0.057516325265169144, -0.13745392858982086, -0.2440066784620285, 0.012908851727843285, -0.09964969009160995, 0.20553582906723022, -0.0667816773056984, -0.030939502641558647, -0.14363639056682587, -0.2273516207933426, 0.18296171724796295, 0.005266509484499693, 0.23649892210960388, 0.19208413362503052, -0.20934319496154785, -0.1048210859298706, 0.057026688009500504, 0.2999734878540039, -0.2311781644821167, -0.3468688726425171, -0.1750434786081314, 0.10156966000795364, 0.13215374946594238, 0.23689420521259308, -0.3325275778770447, -0.06204137206077576, -0.038281284272670746, -0.18576645851135254, 0.12546904385089874, -0.13941943645477295, -0.07094132155179977, -0.10478481650352478, 0.05166351795196533, 0.1484195590019226, 0.21246275305747986, -0.0016163784312084317], [0.24030187726020813, -0.19918948411941528, -0.31461164355278015, -0.1391654759645462, -0.18722297251224518, 0.12415185570716858, -0.25896355509757996, 0.2426457703113556, -0.1896095722913742, -0.07835135608911514, -0.00014815747272223234, -0.09899267554283142, 0.11268407851457596, 0.1260090470314026, 0.06682052463293076, 0.24585212767124176, -0.21813949942588806, -0.3165081739425659, 0.09681757539510727, 0.23276573419570923, -0.12083154916763306, -0.2522907257080078, -0.2375505268573761, 0.10538244992494583, 0.157633975148201, 0.16345122456550598, -0.2663433253765106, 0.09841914474964142, 0.1568339616060257, -0.2791718542575836, 0.26382631063461304, -0.3801211416721344, -0.1181073933839798, -0.07054853439331055, 0.09311012178659439, 0.13570445775985718, 0.3941783308982849, -0.0486593060195446], [-4.29957605211855e-40, 1.0611681708728022e-25, -2.570273688813296e-27, 5.271974891572077e-39, 1.3440971096497233e-26, -1.7093524675142885e-13, 5.7578709301813144e-39, -1.4513409922803344e-21, 2.1987774203720705e-41, -1.3562415305293399e-34, -2.020305245358733e-39, -6.892597585040693e-39, -2.899568944864962e-14, -1.1474403433707367e-22, -3.3209928991175106e-19, 5.836320268283042e-35, -1.627930620778169e-15, 1.0277686259340867e-38, -8.775181717420593e-20, -2.3024160534950696e-39, -4.79955598107333e-38, 1.4516821506096159e-39, 1.1666667785484708e-34, -4.869453778294309e-17, -2.8995128091055037e-29, -2.661693055951319e-23, 4.044055722512992e-21, -2.1948047392257096e-39, -2.2094861432364407e-39, 4.9680640832262394e-39, -3.031568962419027e-27, 1.6510112519659638e-39, 1.3147836984358672e-39, -8.132295507862643e-41, -2.2310353110208278e-40, -3.5276595826575096e-39, -2.1184143547415065e-39, 3.5055835266505365e-39], [0.22283685207366943, -0.16157342493534088, -0.1423981487751007, -0.19507060945034027, -0.11908372491598129, 0.0465911403298378, -0.27664172649383545, 0.15062621235847473, -0.21587122976779938, -0.035443373024463654, 0.062465306371450424, -0.12511524558067322, 0.11503162980079651, 0.10967133194208145, 0.22089485824108124, 0.15421493351459503, -0.2523368000984192, -0.2556211054325104, 0.12798495590686798, 0.2800500690937042, -0.13709184527397156, -0.23144425451755524, -0.2725525498390198, 0.09031486511230469, 0.19943779706954956, 0.16908849775791168, -0.3332814872264862, 0.0254104845225811, 0.1277737021446228, -0.278591513633728, 0.2089756280183792, -0.24803602695465088, -0.13433891534805298, 0.12454694509506226, 0.05900031328201294, 0.29252949357032776, 0.24320554733276367, -0.13344275951385498], [-0.032305192202329636, 0.3365476727485657, 0.28589266538619995, 0.2108115255832672, 0.1679845154285431, -0.09680315107107162, 0.26972317695617676, -0.05995265394449234, 0.1787128448486328, 0.14074036478996277, -0.06573299318552017, 0.2598194479942322, -0.1505407840013504, -0.09074897319078445, -0.1075298935174942, -0.050167594105005264, 0.1961776167154312, 0.11353014409542084, -0.12137644737958908, -0.24213340878486633, 0.22320789098739624, 0.3300314247608185, 0.23108871281147003, -0.08295147866010666, -0.07713841646909714, -0.15545552968978882, 0.3400287926197052, -0.11109301447868347, -0.1947811245918274, 0.25018855929374695, -0.07679711282253265, 0.4463438391685486, 0.06618136912584305, 0.03631287440657616, 0.03626105189323425, -0.12420288473367691, -0.09913019090890884, 0.10727936029434204], [0.2127605527639389, -0.02411031909286976, -0.23924106359481812, -0.19408084452152252, -0.12409941107034683, 0.09430905431509018, -0.23188993334770203, 0.1644124686717987, -0.1238999143242836, -0.15642718970775604, 0.05578220263123512, -0.10740958899259567, 0.17976424098014832, 0.12398090958595276, 0.19054648280143738, 0.2810171842575073, -0.21045120060443878, -0.1714073270559311, 0.24675370752811432, 0.27046307921409607, -0.2993701994419098, -0.2653920650482178, -0.3282189667224884, 0.03643576428294182, 0.19817249476909637, 0.18436577916145325, -0.31612348556518555, 0.060311414301395416, 0.045629143714904785, -0.2691812813282013, 0.1260654479265213, -0.3249478042125702, -0.12643195688724518, 0.10934685170650482, 0.14819565415382385, 0.15916036069393158, 0.30040112137794495, -0.25871726870536804], [-0.27315017580986023, 0.2011747658252716, 0.22430701553821564, 0.3337257206439972, 0.1016787514090538, -0.2649660110473633, 0.49854418635368347, -0.05727891996502876, 0.2179044485092163, 0.07550692558288574, -0.1953618824481964, 0.1609850376844406, -0.25839507579803467, -0.05668726935982704, -0.11887945979833603, -0.1578792929649353, 0.36723941564559937, 0.20329755544662476, -0.26386338472366333, -0.2908726632595062, 0.20604047179222107, 0.3203042149543762, 0.4682379961013794, -0.16285930573940277, -0.28281423449516296, -0.1229444220662117, 0.35580605268478394, -0.1347300261259079, -0.23631957173347473, 0.45928820967674255, -0.2733023166656494, 0.23265115916728973, 0.14448286592960358, 0.14254923164844513, 0.20836368203163147, -0.23952296376228333, -0.07940655201673508, 0.17529426515102386], [0.1790807843208313, -0.1506221890449524, -0.19669389724731445, -0.216195747256279, -0.23785506188869476, 0.1430175006389618, -0.31475579738616943, 0.233848437666893, -0.13264751434326172, -0.08844546973705292, 0.1133839339017868, -0.2470647543668747, 0.08122444897890091, 0.0778965950012207, 0.16902200877666473, 0.06281376630067825, -0.20552799105644226, -0.2868259847164154, 0.1398640275001526, 0.3138127028942108, -0.1521133929491043, -0.1766764372587204, -0.2386842668056488, 0.21668581664562225, 0.22448791563510895, 0.19340670108795166, -0.3256022036075592, 0.007125174626708031, 0.16693849861621857, -0.19474487006664276, 0.2849317193031311, -0.31225210428237915, -0.02482563629746437, 0.01042092964053154, 0.13976022601127625, 0.3780364692211151, 0.17611604928970337, -0.22601158916950226], [0.28229373693466187, -0.16767606139183044, -0.08367176353931427, -0.28109267354011536, -0.19133026897907257, -0.017169689759612083, -0.31697553396224976, 0.2264987826347351, -0.18102283775806427, -0.16393309831619263, 0.12683208286762238, -0.18148182332515717, 0.15343037247657776, 0.021164312958717346, 0.1932939738035202, 0.15799972414970398, -0.1831156611442566, -0.2712513506412506, 0.09474725276231766, 0.29439079761505127, -0.24109897017478943, -0.2272932231426239, -0.12840254604816437, 0.13877201080322266, 0.15604402124881744, 0.2909584939479828, -0.22503162920475006, 0.0067056939005851746, 0.02724418416619301, -0.2448117434978485, 0.22219638526439667, -0.1997125893831253, -0.04215259104967117, 0.0842023640871048, 0.19427429139614105, 0.20854489505290985, 0.16474489867687225, -0.21032093465328217], [0.08853371441364288, -0.2610250413417816, -0.3565230369567871, -0.21041297912597656, -0.1155754029750824, 0.02370825782418251, -0.3638193607330322, 0.23446734249591827, -0.20213595032691956, -0.021424636244773865, 0.11751061677932739, -0.23905587196350098, 0.1121944710612297, 0.13750913739204407, 0.24391129612922668, 0.1650354564189911, -0.20879711210727692, -0.2664736807346344, 0.04977220296859741, 0.3147926926612854, -0.1969989687204361, -0.1204582154750824, -0.21449394524097443, 0.07842961698770523, 0.2534800171852112, 0.29168644547462463, -0.3087468147277832, 0.011469217948615551, 0.1382463425397873, -0.3137723505496979, 0.30543968081474304, -0.3989008367061615, -0.10334715992212296, 0.12412391602993011, 0.08175933361053467, 0.24870285391807556, 0.3230707049369812, -0.09852134436368942], [-0.20749641954898834, 0.3086026608943939, 0.2598234713077545, 0.36888641119003296, 0.12149687856435776, -0.15328079462051392, 0.24094748497009277, -0.07420212775468826, 0.2788710296154022, 0.13427433371543884, 0.011990892700850964, 0.20677053928375244, -0.21714602410793304, -0.2620803117752075, -0.2008395791053772, -0.15554118156433105, 0.39135730266571045, 0.21423108875751495, -0.32257676124572754, -0.23606345057487488, 0.4218740463256836, 0.31321099400520325, 0.34456151723861694, -0.14391891658306122, -0.15999425947666168, -0.12361282110214233, 0.46362584829330444, -0.2081548571586609, -0.18084673583507538, 0.45679911971092224, -0.28198182582855225, 0.38718894124031067, 0.19184139370918274, -0.0685129165649414, 0.049289025366306305, -0.5310125946998596, -0.29559868574142456, 0.2094707489013672], [0.22829067707061768, -0.12783122062683105, -0.15521326661109924, -0.17447252571582794, -0.17040035128593445, 0.025247588753700256, -0.286982923746109, 0.09888539463281631, -0.1408701241016388, -0.12478189170360565, 0.009505035355687141, -0.1397722363471985, 0.1520044505596161, 0.09354452788829803, 0.20526249706745148, 0.11232084780931473, -0.153016597032547, -0.21388699114322662, 0.1659727394580841, 0.29023510217666626, -0.28369244933128357, -0.2875499129295349, -0.2098943591117859, 0.1378856897354126, 0.22047199308872223, 0.2269834280014038, -0.26863881945610046, 0.0904008001089096, 0.0885842964053154, -0.2684495151042938, 0.2402658611536026, -0.2649630010128021, -0.07839316129684448, -0.11422743648290634, -0.06378129124641418, 0.284531831741333, 0.2964719533920288, -0.10292044281959534], [0.25905078649520874, -0.22537527978420258, -0.17230536043643951, -0.18251538276672363, -0.19980964064598083, 0.06705892086029053, -0.2958127558231354, 0.22154366970062256, -0.2691606283187866, 0.009286406449973583, 0.020802894607186317, -0.2215142697095871, 0.16064110398292542, 0.015534385107457638, 0.20494037866592407, 0.28830116987228394, -0.278834730386734, -0.23807770013809204, 0.23288600146770477, 0.24826717376708984, -0.18699170649051666, -0.16844412684440613, -0.31418249011039734, 0.1309417337179184, 0.27294203639030457, 0.1818210780620575, -0.29456013441085815, 0.08590967208147049, 0.049216512590646744, -0.24267567694187164, 0.28184741735458374, -0.24677152931690216, -0.17529767751693726, 0.06309240311384201, 0.09004758298397064, 0.19531244039535522, 0.13705185055732727, -0.31065765023231506], [-0.16477802395820618, 0.13143756985664368, 0.2696714997291565, 0.30839791893959045, 0.12392457574605942, -0.1428818702697754, 0.2634124457836151, -0.14401625096797943, 0.23901662230491638, 0.08583308756351471, -0.1543389856815338, 0.32766079902648926, -0.18951758742332458, -0.14783483743667603, -0.1939467191696167, -0.007815835997462273, 0.27136850357055664, 0.20651693642139435, -0.25138044357299805, -0.3156050741672516, 0.2827204763889313, 0.2507149875164032, 0.4071943759918213, -0.2045135200023651, -0.04454423487186432, -0.20504505932331085, 0.4017045199871063, -0.20043614506721497, -0.20310664176940918, 0.4472430348396301, -0.22921989858150482, 0.31913185119628906, 0.0409868061542511, 0.10918600857257843, 0.1981590986251831, -0.23462608456611633, -0.09154649823904037, 0.12150553613901138], [0.26146313548088074, -0.11430376768112183, -0.16312314569950104, -0.23591898381710052, -0.20360839366912842, -0.048893049359321594, -0.17439867556095123, 0.17103856801986694, -0.3060561418533325, -0.051620129495859146, -0.04849276691675186, -0.14694340527057648, 0.13956572115421295, -0.010151518508791924, 0.1808825582265854, 0.12435466796159744, -0.2009766846895218, -0.31695157289505005, 0.15588946640491486, 0.28518787026405334, -0.046068303287029266, -0.20424583554267883, -0.19736966490745544, 0.24741230905056, 0.2516927421092987, 0.22376859188079834, -0.2820315957069397, 0.10983709245920181, 0.18368321657180786, -0.31831851601600647, 0.25919970870018005, -0.3295459449291229, -0.05607965216040611, -0.1191704273223877, 0.08539306372404099, 0.20578451454639435, 0.26509493589401245, -0.12945832312107086]], "fc1.bias": [-0.0254474189132452, 0.10838340222835541, 0.11866413801908493, -5.387782400559273e-40, 0.14021237194538116, 0.036406610161066055, 0.10427477955818176, 0.07095085829496384, 0.08032786101102829, 0.012971541844308376, -0.021534431725740433, 0.12287073582410812, 0.08356863260269165, 0.11360431462526321, -0.06270276010036469, 0.15881666541099548], "fc2.weight": [[-0.9039708971977234, 0.6502934098243713, 0.8507502675056458, 0.0009139857720583677, 0.914526641368866, -0.29948389530181885, 0.6832799911499023, -1.072131872177124, 0.8645880222320557, 0.6740400195121765, 0.8088782429695129, -0.9876014590263367, 0.6849954128265381, 0.8876018524169922, -1.0960075855255127, 0.8579180836677551]], "fc2.bias": [-0.8390960097312927], "norm_mean": [0.03936135023832321, 0.3496658504009247, 0.3417380750179291, 0.40857136249542236, 0.03283436596393585, 0.024894636124372482, 0.045251134783029556, 0.2817206084728241, 2.3770551681518555, 0.1667724847793579, 0.4946959316730499, 0.9194456934928894], "norm_std": [0.08759069442749023, 0.3077685236930847, 0.3023170530796051, 0.2710989713668823, 0.09097559750080109, 0.0695953443646431, 0.18275602161884308, 0.4498380422592163, 1.766278862953186, 0.372772753238678, 0.2737202048301697, 2.2761900424957275]}