{"tool_embed.weight": [[2.0273327827453613, 1.57182776927948, 0.6274490356445312, -1.9208720922470093], [0.6742005348205566, -1.4522141218185425, 0.0036988023202866316, -1.689572811126709], [-0.8471238613128662, 1.6653163433074951, 0.027751848101615906, -1.2963789701461792], [-1.0756603479385376, 0.10471232980489731, -2.471944570541382, -0.15311865508556366], [3.802350515425246e-39, 2.210350744388929e-39, 6.937104225566113e-39, -1.9929771227074705e-39], [-4.4171127634107224e-39, 2.0262299352658984e-39, 1.6268038209947526e-39, -3.290650966893932e-39], [-1.718695878982544, 0.8865064382553101, -1.0297428369522095, -0.5031158924102783]], "conv3.weight": [[[0.22953666746616364, -0.09578258544206619, 0.09083540737628937], [0.1721675992012024, 0.2613474726676941, -0.27699750661849976], [-0.23975779116153717, -0.009813387878239155, -0.08326776325702667], [0.09559663385152817, 0.02579454705119133, -0.07779184728860855], [-0.01639152690768242, 0.007251837756484747, 0.051328253000974655], [-0.04164241999387741, -0.01747894659638405, -0.302480012178421], [0.06292520463466644, -0.16389763355255127, -0.1630413830280304], [-0.009925690479576588, 0.08719830214977264, -0.1125369668006897], [-0.0573432557284832, -0.05094414949417114, 0.1312650442123413], [-0.15731336176395416, 0.4969400465488434, -0.18427328765392303], [-0.2917350232601166, -0.07367680221796036, -0.28420040011405945], [0.07748491317033768, 0.15367135405540466, -0.03269386291503906], [-0.1523357480764389, -0.4840584099292755, 0.08860602229833603], [0.00487469881772995, 0.11169446259737015, -0.11647390574216843], [0.15061108767986298, -0.026483768597245216, -0.15932965278625488]], [[0.01699230633676052, 0.21421730518341064, -0.05824113264679909], [0.2127627432346344, 0.15405689179897308, -0.19808845221996307], [-0.068105049431324, 0.2698500156402588, -0.11781162768602371], [-0.013683268800377846, -0.23551982641220093, -0.04103342071175575], [0.1344781070947647, 0.029383260756731033, -0.28053826093673706], [0.1719067245721817, 0.0948747843503952, -0.2537614405155182], [-0.07828281819820404, 0.019820932298898697, -0.06499666720628738], [0.2650681138038635, 0.19113478064537048, 0.13967148959636688], [-0.22534292936325073, -0.3506549298763275, 0.09470362216234207], [-0.006921304389834404, 0.022856049239635468, -0.19168615341186523], [-0.10709907114505768, -0.08225391060113907, -0.1270589679479599], [0.14646309614181519, -0.1388855278491974, -0.15717193484306335], [-0.025112338364124298, -0.11970595270395279, 0.07015794515609741], [0.04681345820426941, -0.2493993639945984, 0.16510090231895447], [0.12314756214618683, -0.0959046483039856, 0.028407486155629158]], [[-0.03902508318424225, -0.11684686690568924, -0.1011865958571434], [-0.36782026290893555, 0.14105968177318573, -0.1229904517531395], [-0.08398238569498062, -0.0533636249601841, 0.07565287500619888], [-0.14657603204250336, -0.0770944207906723, 0.2525651752948761], [0.1173897385597229, 0.14557839930057526, 0.07246795296669006], [-0.04193807393312454, -0.02169126272201538, -0.10439004004001617], [-0.13730095326900482, -0.14870058000087738, 0.1394415646791458], [0.08617974817752838, 0.05256711319088936, 0.07200620323419571], [-0.0667656883597374, -0.32520321011543274, 0.21489951014518738], [0.1750045269727707, -0.1941702961921692, 0.039226189255714417], [0.2390872985124588, 0.09166567772626877, -0.11237877607345581], [0.16175110638141632, 0.19956250488758087, -0.12364987283945084], [-0.324555367231369, -0.12924621999263763, -0.22468489408493042], [0.1146542876958847, -0.3153890073299408, -0.02359098196029663], [-0.08146321773529053, 0.14939425885677338, 0.07182551175355911]], [[-0.09430384635925293, -0.12768009305000305, 0.2163720577955246], [-0.014170363545417786, -0.14294318854808807, 0.1239880919456482], [0.089656300842762, 0.04978126659989357, 0.14470329880714417], [-0.06403286010026932, 0.10675644129514694, -0.07398949563503265], [-0.18489128351211548, 0.06932474672794342, 0.05525590851902962], [-0.07742947340011597, -0.07820160686969757, 0.0887952670454979], [0.14699313044548035, -0.030838891863822937, 0.10257834196090698], [-0.08806769549846649, -0.4091546833515167, -0.10035660862922668], [0.26729652285575867, 0.2215900719165802, -0.09991397708654404], [-0.30552032589912415, -0.27682095766067505, -0.12295153737068176], [0.2073909491300583, -0.07415834814310074, 0.20387007296085358], [-0.14852787554264069, -0.26230165362358093, -0.08269866555929184], [0.1819056123495102, 0.08055974543094635, -0.0178346186876297], [-0.04990306869149208, -0.10789265483617783, -0.24052263796329498], [0.2852124869823456, -0.07989075779914856, 0.034787390381097794]], [[-0.13974948227405548, 0.09209226071834564, 0.1300710290670395], [-0.02196958102285862, -0.14915594458580017, -0.2349345088005066], [-0.1060885637998581, 0.12152736634016037, 0.28671061992645264], [0.019792184233665466, 0.021245382726192474, 0.04193650931119919], [-0.060641657561063766, -0.05173608660697937, 0.06455757468938828], [-0.1811346411705017, 0.13911963999271393, -0.029516680166125298], [0.14750000834465027, 0.09009537100791931, -0.05652974918484688], [0.18243099749088287, -0.2676236927509308, 0.023515770211815834], [-0.12336259335279465, 0.254652738571167, -0.24508419632911682], [-0.1752411276102066, -0.1845105141401291, -0.17098847031593323], [-0.23692350089550018, -0.41773709654808044, -0.1886267066001892], [-0.33321666717529297, 0.2100210338830948, 0.08043620735406876], [0.12315943837165833, -0.26977595686912537, 0.04829419404268265], [-0.08170458674430847, 0.08988689631223679, 0.313716322183609], [-0.02933630906045437, 0.17872905731201172, 0.15681488811969757]], [[-0.12052995711565018, 0.005746820010244846, -0.2917115092277527], [0.024553941562771797, -0.02270224317908287, 0.1317485123872757], [0.02906115911900997, -0.17648424208164215, -0.05231722816824913], [0.1559576839208603, -0.08463642746210098, -0.0056139505468308926], [0.054815955460071564, -0.05376557260751724, 0.055796682834625244], [0.05787399783730507, -0.016041720286011696, -0.1503051072359085], [0.13062424957752228, 0.09920300543308258, -0.15157030522823334], [0.01239357516169548, -0.19481846690177917, -0.01966581679880619], [-0.20282432436943054, -0.12355247884988785, 0.03969758376479149], [-0.1027349978685379, -0.259106308221817, 0.0691203624010086], [-0.278331995010376, 0.0832582488656044, -0.05540982633829117], [-0.19015845656394958, -0.28793320059776306, -0.14669857919216156], [0.5101157426834106, -0.04790022224187851, -0.25745975971221924], [-0.16172830760478973, -0.17761574685573578, 0.21790170669555664], [0.04637683928012848, -0.17093029618263245, 0.11231958121061325]], [[0.2454080581665039, 0.028354011476039886, 0.20248810946941376], [0.23575817048549652, 0.04242714121937752, 0.04739055782556534], [-0.0013326974585652351, 0.10644369572401047, 0.2530306577682495], [0.1145094558596611, -0.20213787257671356, -0.00012183687067590654], [-0.09317222237586975, -0.10985540598630905, -0.050880447030067444], [0.21168465912342072, -0.0037920568138360977, -0.08851861208677292], [0.16093726456165314, 0.10594840347766876, 0.06138109415769577], [-0.11857026815414429, -0.24623225629329681, 0.45959365367889404], [-0.2723415791988373, 0.1490604430437088, -0.03800947964191437], [-0.1504577249288559, -0.1037212610244751, -0.1356051117181778], [-0.32447752356529236, -0.4118863046169281, 0.18645471334457397], [-0.23427551984786987, -0.31318533420562744, 0.10204257071018219], [-0.22074854373931885, 0.18401704728603363, 0.20717740058898926], [-0.22745037078857422, -0.1495370864868164, 0.22235557436943054], [0.18510586023330688, 0.08797212690114975, -0.18189463019371033]], [[0.10393307358026505, -0.06715787947177887, -0.16899795830249786], [-0.2944452166557312, 0.038916051387786865, 0.23837833106517792], [0.12632079422473907, 0.08662291616201401, -0.005622480995953083], [0.10164280980825424, 0.0072358883917331696, 0.16116081178188324], [0.1223810538649559, -0.17115697264671326, -0.14004850387573242], [-0.20369592308998108, -0.3272956907749176, 0.12135082483291626], [0.2718077600002289, 0.2855154871940613, -0.23778708279132843], [0.2845045030117035, -0.22423429787158966, 0.2572503089904785], [0.1733972728252411, -0.045731816440820694, 0.0378163643181324], [-0.1841793656349182, -0.36214038729667664, 0.06129799410700798], [0.1102561354637146, 0.0595998652279377, -0.19218018651008606], [0.07525958865880966, -0.09718070179224014, 0.1691301167011261], [0.020096592605113983, 0.015972422435879707, 0.4132130742073059], [-0.06657662987709045, -0.430980920791626, -0.10942357033491135], [0.26563864946365356, 0.02415265329182148, 0.025633228942751884]], [[-0.1646881103515625, -0.13833096623420715, -0.2724185585975647], [0.05291733145713806, -0.11115630716085434, 0.13904885947704315], [-0.09465256333351135, -0.1520770937204361, 0.15698720514774323], [0.1572180986404419, 0.22964172065258026, -0.009792404249310493], [0.21809841692447662, -0.024476030841469765, -0.23512716591358185], [-0.2410755455493927, 0.3023993670940399, 0.08535828441381454], [-0.17533378303050995, 0.17529894411563873, 0.2546831965446472], [0.18629926443099976, -0.026629410684108734, -0.11167246103286743], [0.013398879207670689, -0.09446421265602112, -0.03880378603935242], [-0.21848604083061218, -0.19474411010742188, 0.13493290543556213], [-0.18415480852127075, 0.1466495245695114, -0.09053641557693481], [0.22341027855873108, -0.11588744819164276, -0.02167150005698204], [0.13079768419265747, 0.21190132200717926, -0.11831632256507874], [0.3295274078845978, 0.20587927103042603, -0.3232121467590332], [-0.07954459637403488, 0.09636428952217102, 0.09220591187477112]], [[0.039443522691726685, 0.08072439581155777, 0.06269587576389313], [-0.1897704303264618, 0.07039826363325119, -0.02371612936258316], [0.32709118723869324, 0.14489667117595673, 0.23686282336711884], [0.012612812221050262, -0.160189688205719, 0.002969738794490695], [-0.10131971538066864, -0.029913831502199173, 0.16401763260364532], [0.033198282122612, -0.1318126618862152, -0.0045646182261407375], [-0.1632387787103653, -0.053907133638858795, 0.2617988586425781], [-0.012554465793073177, 0.14196328818798065, 0.19646409153938293], [0.05828104168176651, -0.15916018187999725, 0.17574360966682434], [0.14152780175209045, 0.019728442654013634, -0.11356062442064285], [0.15068000555038452, 0.14993087947368622, -0.052321553230285645], [-0.033034227788448334, 0.17205768823623657, -0.4000701904296875], [-0.023757686838507652, 0.22896119952201843, 0.1380898356437683], [0.22516679763793945, 0.13017135858535767, 0.3470193147659302], [0.2314232736825943, 0.028637606650590897, -0.16108906269073486]], [[-0.059979408979415894, 0.05189527943730354, -0.010770954191684723], [0.10477636009454727, -0.3079852759838104, -0.0066780634224414825], [-0.06643789261579514, -0.08590834587812424, -0.010204239748418331], [0.14854896068572998, 0.2282777726650238, 0.12327391654253006], [-0.17166921496391296, 0.24075302481651306, -0.09675021469593048], [-0.24143996834754944, -0.05186372250318527, -0.0582205168902874], [-0.05172424763441086, 0.16951718926429749, -0.01607728749513626], [-0.14819642901420593, 0.1649201661348343, -0.1312943696975708], [0.07445301860570908, -0.04233806952834129, 0.18579474091529846], [0.09667200595140457, -0.1954091340303421, 0.22179396450519562], [0.0587853342294693, -0.0964663028717041, -0.033360447734594345], [0.12663714587688446, -0.11176157742738724, 0.09415213763713837], [0.2325402945280075, -0.10404853522777557, 0.057690173387527466], [0.1315063089132309, 0.31862226128578186, 0.2526898682117462], [-0.23104219138622284, -0.04870622977614403, -0.2076842486858368]], [[0.23720566928386688, -0.17648956179618835, 0.0028574501629918814], [-0.1501534879207611, 0.07678981870412827, 0.08815539628267288], [0.11843560636043549, 0.04885833337903023, 0.14093106985092163], [0.06085337698459625, -0.06539413332939148, -0.007773796562105417], [0.11777594685554504, 0.03051706962287426, 0.12800221145153046], [-0.22988319396972656, 0.05474625527858734, 0.15356646478176117], [0.1157602071762085, 0.059150975197553635, 0.30890798568725586], [0.20161616802215576, 0.04599473252892494, 0.1376110017299652], [0.18146641552448273, -0.23080754280090332, -0.27468037605285645], [0.11565332859754562, 0.07723366469144821, -0.5144414305686951], [-0.3283747136592865, -0.09693233668804169, -0.06006043031811714], [-0.31698256731033325, 0.22429822385311127, -0.0379965640604496], [-0.05174170061945915, -0.058208171278238297, 0.2374783307313919], [-0.14930902421474457, -0.21510076522827148, 0.2350877970457077], [-0.09465768188238144, 0.0235449206084013, 0.19809609651565552]], [[-0.0673145204782486, 0.08409551531076431, -0.40278202295303345], [0.09679877012968063, -0.02915138565003872, 0.15586230158805847], [0.07288675010204315, 0.30236032605171204, -0.1900094896554947], [-0.011569906026124954, -0.17762131989002228, 0.04053236171603203], [-0.3014758825302124, -0.05715333670377731, 0.3445361256599426], [0.1347285509109497, 0.019292518496513367, 0.10362226516008377], [-0.27198106050491333, -0.19810859858989716, -0.10196477174758911], [-0.16709929704666138, -0.24158789217472076, -0.0028608047869056463], [0.17185504734516144, -0.08099263161420822, 0.15446066856384277], [0.16074305772781372, -0.1015959233045578, 0.11265743523836136], [0.33360525965690613, 0.06365760415792465, 0.11583282798528671], [-0.11583395302295685, -0.13344010710716248, 0.18978643417358398], [-0.008351718075573444, 0.22109228372573853, -0.22881828248500824], [0.04777739942073822, 0.15656009316444397, 0.1128452718257904], [0.034032270312309265, 0.10021086037158966, -0.11244212836027145]], [[0.13370469212532043, 0.014816456474363804, -0.20546351373195648], [-0.08975386619567871, 0.3592815697193146, 0.04532886669039726], [0.11092359572649002, -0.06966991722583771, -0.15578721463680267], [-0.22741085290908813, 0.01295748446136713, 0.09756038337945938], [-0.16200073063373566, 0.13474099338054657, -0.14826568961143494], [-0.3480834662914276, -0.07055067270994186, -0.07561221718788147], [-0.2678215503692627, 0.0936204195022583, -0.1905660629272461], [0.2499239593744278, -0.13466283679008484, 0.12749244272708893], [0.048624712973833084, -0.10595811903476715, 0.21734711527824402], [0.17399506270885468, -0.14458304643630981, -0.0067926677875220776], [0.2576152980327606, -0.03180248290300369, 0.04549700766801834], [-0.06956232339143753, 0.14501908421516418, -0.012290168553590775], [-0.22530405223369598, -0.16548365354537964, -0.1550878882408142], [-0.02253919281065464, -0.24709150195121765, 0.11865619570016861], [0.04507553204894066, 0.1789713352918625, 0.18169134855270386]], [[-0.4967423677444458, 0.22714833915233612, -0.06849747896194458], [0.02159096486866474, -0.27034249901771545, 0.0558871291577816], [0.01187926810234785, -0.04161453992128372, -0.05909602344036102], [0.06666010618209839, -0.08856759965419769, 0.07373718172311783], [-0.038996171206235886, -0.1333989053964615, -0.2543732523918152], [-0.23709020018577576, -0.04633014276623726, 0.021121056750416756], [0.046532806009054184, 0.13929352164268494, 0.15841709077358246], [0.18705572187900543, 0.43214911222457886, 0.30751392245292664], [-0.04823048412799835, 0.20573967695236206, 0.1409972757101059], [-0.15111562609672546, -0.12732668220996857, -0.05076363682746887], [0.15108303725719452, -0.40204375982284546, 0.25381016731262207], [0.026911446824669838, -0.17025907337665558, 0.029585454612970352], [-0.1301196813583374, 0.006140073761343956, 0.255147784948349], [-0.11466123163700104, -0.014296776615083218, 0.06831981986761093], [0.04695989564061165, -0.11839038878679276, 0.04224294796586037]], [[-0.02132786437869072, 0.015449109487235546, 0.01954510621726513], [-0.05076300725340843, 0.009041421115398407, -0.08001568168401718], [0.1042070984840393, 0.09712961316108704, -0.20472033321857452], [-0.15165752172470093, -0.08411948382854462, 0.13500374555587769], [-0.1657474935054779, -0.14221982657909393, 0.09443207085132599], [0.14013533294200897, 0.25176775455474854, -0.2988177239894867], [-0.14000536501407623, 0.2276369333267212, 0.01821734383702278], [0.02986334264278412, 0.2754468619823456, 0.18656323850154877], [0.12228979915380478, -0.14503909647464752, -0.09621258825063705], [0.11991915851831436, 0.05791681259870529, -0.04266364499926567], [0.010770438238978386, 0.07096122950315475, 0.02256292849779129], [0.038032837212085724, -0.25130921602249146, 0.1623922735452652], [-0.1622558832168579, -0.015700865536928177, 0.26148101687431335], [-0.20480258762836456, 0.14333249628543854, -0.04578733444213867], [-0.017086397856473923, -0.013274667784571648, -0.24078664183616638]]], "conv3.bias": [-0.13351744413375854, 0.11565015465021133, 0.03936807066202164, -0.2129541039466858, -0.03837329149246216, 0.10328447073698044, 0.09942629933357239, 0.011666149832308292, -0.1363106071949005, -0.07584215700626373, -0.09199170023202896, 0.006135659292340279, -0.07108375430107117, -0.0285690575838089, 0.055271923542022705, -0.02950243093073368], "conv5.weight": [[[-0.05713937431573868, -0.16559112071990967, 0.08681056648492813, -0.025583354756236076, -0.12455959618091583], [-0.16168299317359924, 0.10268984735012054, 0.17250272631645203, -0.13458015024662018, 0.0924496278166771], [-0.12419693171977997, 0.00678164791315794, 0.14284823834896088, -0.26173996925354004, 0.0730087161064148], [-0.10430819541215897, 0.030197104439139366, -0.08379636704921722, -0.0011157088447362185, 0.06824697554111481], [-0.08577175438404083, 0.024109624326229095, -0.24294640123844147, 0.08230531960725784, -0.14723682403564453], [-0.12579190731048584, 0.018283681944012642, 0.1469222903251648, 0.17263610661029816, -0.21200521290302277], [-0.06295105814933777, 0.05129297077655792, 0.0017032399773597717, 0.11227445304393768, 0.10355610400438309], [0.08884567767381668, -0.0024101734161376953, 0.2052079737186432, 0.17899306118488312, 0.38615432381629944], [0.09616521745920181, -0.012698777951300144, -0.11969204246997833, 0.04258234053850174, -0.1413479596376419], [-0.01556398719549179, -0.013570942915976048, -0.10221407562494278, 0.21554574370384216, -0.1951051503419876], [0.026799870654940605, 0.11338911950588226, -0.24678902328014374, -0.14606595039367676, 0.009451382793486118], [-0.04297903925180435, -0.19132943451404572, 0.11443330347537994, -0.1704968512058258, -0.06816257536411285], [0.027351466938853264, -0.15257053077220917, -0.05959777534008026, -0.16684792935848236, -0.12794552743434906], [-0.44769272208213806, -0.19418111443519592, 0.03385303542017937, -0.16724137961864471, 0.018972812220454216], [-0.0952402800321579, -0.056481603533029556, -0.11695235222578049, 0.09801042079925537, 0.10117413848638535]], [[0.15247821807861328, 0.09295958280563354, 0.05472496151924133, 0.0722489207983017, 0.1345473825931549], [0.0451720766723156, 0.02575097605586052, 0.19365084171295166, -0.25309476256370544, 0.05713832378387451], [0.010339705273509026, 0.18660107254981995, 0.4575234055519104, 0.05397624522447586, 0.05083364248275757], [0.05027144029736519, 0.08923358470201492, 0.0750841349363327, 0.15990377962589264, 0.2204560935497284], [-0.4080263674259186, -0.0190816018730402, 0.038338616490364075, 0.2802842855453491, 0.027833810076117516], [0.13357418775558472, 0.012563098222017288, -0.2316046804189682, -0.17232297360897064, 0.3142991065979004], [0.38269278407096863, 0.05401397496461868, -0.10371150076389313, 0.011253636330366135, 0.17778916656970978], [-0.0335223488509655, 0.008234011009335518, 0.00030100412550382316, 0.23306183516979218, -0.08727806061506271], [0.14095620810985565, 0.06935318559408188, -0.12292521446943283, -0.09228000044822693, -0.05769682675600052], [0.12960664927959442, 0.18967686593532562, -0.055955804884433746, -0.06633421778678894, 0.206537127494812], [-0.07816024869680405, -0.04352235049009323, -0.14896172285079956, -0.12921640276908875, -0.5045208930969238], [-0.07325586676597595, 0.26893699169158936, 0.08804791420698166, -0.26744452118873596, 0.09422686696052551], [-0.2522217333316803, -0.12247711420059204, 0.13569945096969604, -0.10510566085577011, -0.1725625842809677], [0.1077144667506218, 0.19602596759796143, -0.15383291244506836, 0.3126988112926483, 0.07305780053138733], [-0.12582287192344666, -0.22888480126857758, -0.014660459943115711, -0.17628076672554016, -0.11566013842821121]], [[0.13544131815433502, 0.048985645174980164, -0.17712241411209106, -0.004143481608480215, 0.05401093512773514], [-0.3227428197860718, -0.15026770532131195, -0.07650424540042877, 0.08920552581548691, 0.014978836290538311], [-0.02732514776289463, 0.20816120505332947, -0.06941784173250198, -0.09072853624820709, -0.0815695971250534], [-0.07220970094203949, -0.20303130149841309, -0.10155274718999863, -0.08332287520170212, 0.12690600752830505], [0.07616905122995377, 0.07308804988861084, 0.0049405572935938835, 0.09395211935043335, -0.25183090567588806], [-0.31776341795921326, -0.11411481350660324, -0.10824187099933624, 0.13176032900810242, -0.021320050582289696], [-0.1849597990512848, -0.2499757707118988, -0.22923757135868073, -0.11287661641836166, -0.0853230208158493], [0.3717716634273529, -0.3044905662536621, -0.007757039275020361, -0.13267546892166138, 0.2001262903213501], [-0.050666067749261856, -0.07474059611558914, 0.1670396476984024, -0.21221840381622314, 0.20088264346122742], [-0.059559598565101624, -0.14140580594539642, 0.05184856057167053, 0.028755730018019676, 0.2383132427930832], [0.24313440918922424, 0.14189717173576355, 0.23402805626392365, 0.029943233355879784, -0.033379245549440384], [-0.12949985265731812, -0.07997496426105499, -0.06091192737221718, 0.3065151572227478, 0.0006581702618859708], [-0.1425999104976654, 0.012606321834027767, -0.15847711265087128, -0.005983102601021528, -0.1317208856344223], [0.01602541096508503, 0.018262477591633797, 0.04934820905327797, -0.06000136211514473, 0.047826021909713745], [0.08297743648290634, 0.052398715168237686, -0.013377697207033634, 0.0723087340593338, -0.10092023760080338]], [[-0.13660705089569092, 0.054723773151636124, -0.04363882914185524, -0.16029489040374756, -0.11563494801521301], [0.27830612659454346, -0.22070851922035217, -0.012216636911034584, -0.05674931779503822, -0.08715696632862091], [0.0377962552011013, -0.050687823444604874, 0.0537913516163826, 0.040503114461898804, -0.003872896544635296], [-0.16677044332027435, 0.04766658693552017, -0.09750932455062866, -0.10201530903577805, 0.016533421352505684], [0.020098265260457993, 0.02473410591483116, -0.4451846480369568, -0.198509082198143, -0.08741515129804611], [0.2734133005142212, 0.03544910252094269, -0.09634926915168762, -0.2736682593822479, -0.0730782300233841], [0.3240271806716919, 0.19554364681243896, 0.028991950675845146, -0.153730109333992, -0.12918710708618164], [-0.14266231656074524, 0.34737107157707214, 0.08513946086168289, 0.1857043206691742, -0.053611017763614655], [-0.1339581310749054, -0.15651662647724152, -0.08906155824661255, 0.04678454250097275, -0.04723666235804558], [0.25485312938690186, -0.03389940783381462, 0.002733084373176098, -0.033069852739572525, 0.28057095408439636], [0.07225864380598068, -0.014357992447912693, -0.22165881097316742, -0.4332887530326843, -0.07246460765600204], [-0.05440389737486839, -0.03282134607434273, -0.015105094760656357, 0.18233750760555267, -0.15889178216457367], [0.0635189339518547, 0.08195412904024124, 0.1536518931388855, 0.12657323479652405, 0.04908905550837517], [0.18978402018547058, 0.13575974106788635, 0.05758798122406006, 0.025985846295952797, -0.4282676577568054], [0.08271170407533646, 0.1430124193429947, -0.03028438426554203, -0.18967901170253754, -0.19470080733299255]], [[-0.13183188438415527, -0.0867043286561966, -0.2350107729434967, -0.16020852327346802, 0.009735005907714367], [0.055825427174568176, 0.16408737003803253, 0.10209242254495621, -0.04924431070685387, -0.16286028921604156], [-0.05197581648826599, 0.05657537281513214, -0.18895487487316132, 0.0507095530629158, 0.016204599291086197], [0.1828049123287201, 0.05354893580079079, 0.1141701489686966, -0.062495969235897064, -0.02943168208003044], [-0.06296775490045547, 0.06424533575773239, -0.19986987113952637, 0.32307347655296326, -0.07748259603977203], [0.2694762647151947, 0.15601645410060883, -0.07242809236049652, -0.004126835148781538, -0.13424336910247803], [0.1323414295911789, 0.13427841663360596, -0.04259069263935089, -0.0052480329759418964, -0.03896242380142212], [0.08494782447814941, 0.14439819753170013, 0.15116845071315765, 0.1839878410100937, -0.06881434470415115], [-0.12985126674175262, -0.35132333636283875, 0.12847034633159637, 0.06863316893577576, 0.14697737991809845], [-0.21806466579437256, -0.20169581472873688, 0.12820948660373688, 0.2818089723587036, -0.07463831454515457], [-0.25206923484802246, 0.0806041732430458, -0.07613532990217209, -0.19736531376838684, 0.02615347132086754], [-0.005375572480261326, -0.184005469083786, -0.0007685028249397874, -0.11366301774978638, -0.373690128326416], [-0.13089320063591003, -0.029566964134573936, 0.052697841078042984, -0.008087927475571632, -0.03054332360625267], [-0.22632886469364166, -0.3057954013347626, -0.26334908604621887, -0.01775771751999855, -0.17108504474163055], [-0.18928538262844086, 0.03839292377233505, 0.03120846301317215, 0.01393561065196991, -0.0902983695268631]], [[0.09477877616882324, -0.08768995851278305, -0.07444410771131516, -0.21575984358787537, 0.1738312542438507], [-0.058123718947172165, 0.018086276948451996, 0.004791900981217623, -0.06283332407474518, -0.13722175359725952], [0.30886274576187134, -0.006067375652492046, 0.15294504165649414, -0.10207471251487732, 0.1596585512161255], [0.20650732517242432, 0.16424515843391418, 0.10735516250133514, 0.239411398768425, 0.14526690542697906], [0.15631413459777832, 0.009998925030231476, 0.029328426346182823, 0.23115964233875275, 0.12682966887950897], [0.11213700473308563, 0.06917160004377365, -0.0684080570936203, -0.04502090439200401, 0.09578554332256317], [-0.011904298327863216, -0.001162694999948144, 0.05989678576588631, -0.1637660264968872, 0.19001589715480804], [0.20351487398147583, 0.09791252762079239, -0.03601417317986488, 0.390556663274765, 0.16706611216068268], [-0.1860264092683792, -0.3636986315250397, -0.04572737216949463, -0.026819933205842972, 0.10128533840179443], [-0.1163855493068695, 0.07674974948167801, -0.10306058824062347, 0.09312736243009567, -0.18029437959194183], [0.243126779794693, 0.08039368689060211, 0.16794675588607788, 0.17241515219211578, -0.13701820373535156], [-0.014438983052968979, -0.23773260414600372, -0.25822576880455017, 0.12214827537536621, -0.15419696271419525], [0.4166014790534973, 0.3141111731529236, 0.305250883102417, 0.274715393781662, 0.09395954012870789], [-0.12807445228099823, 0.15314076840877533, 0.01875397190451622, -0.07722873240709305, 0.16563716530799866], [0.025047041475772858, -0.02421291545033455, 0.002422206336632371, -0.1916692703962326, -0.2016649842262268]], [[0.023549003526568413, -0.14700810611248016, 0.10714510828256607, 0.24015873670578003, 0.2619938552379608], [-0.029513299465179443, 0.09877736866474152, -0.027733227238059044, -0.02804061770439148, 0.13801762461662292], [0.18988879024982452, -0.0374273844063282, -0.028150996193289757, 0.0970366820693016, 0.2180607169866562], [-0.11033111065626144, -0.02123655378818512, -0.029023341834545135, -0.13011790812015533, -0.11184969544410706], [0.08145063370466232, -0.39733240008354187, 0.01728942058980465, -0.23887015879154205, 0.046542175114154816], [0.2006106823682785, 0.002202587900683284, -0.030905772000551224, -0.27369460463523865, -0.30043113231658936], [0.15062038600444794, 0.17898568511009216, -0.0023817026522010565, -0.26642265915870667, -0.10655982047319412], [0.2537861764431, -0.14667268097400665, -0.008532688021659851, -0.09876623749732971, -0.29411935806274414], [0.0565139539539814, 0.12445877492427826, -0.07031983882188797, 0.038856156170368195, -0.02641197107732296], [0.18889765441417694, 0.127402201294899, 0.13477565348148346, -0.0632767379283905, 0.1800147145986557], [-0.2358098179101944, 0.0033060128334909678, 0.03830404579639435, -0.10626829415559769, -0.20645354688167572], [-0.03313888609409332, 0.002624343615025282, -0.08732811361551285, -0.06926605105400085, 0.1436816155910492], [0.3680376410484314, 0.26951467990875244, 0.07329653948545456, 0.07936139404773712, 0.10080508142709732], [-0.010908694937825203, -0.28793907165527344, -0.46475550532341003, 0.07544876635074615, 0.265910804271698], [0.1783711463212967, 0.009224459528923035, -0.034605395048856735, -0.1186656802892685, -0.30984824895858765]], [[0.037762951105833054, 0.013014573603868484, -0.24608756601810455, 0.017496297135949135, 0.08945704996585846], [0.24998320639133453, 0.11723251640796661, 0.1859729290008545, 0.16655388474464417, 0.28260329365730286], [0.03949762508273125, -0.0946212038397789, -0.1695302426815033, -0.23981083929538727, 0.09709446877241135], [-0.022620914503932, 0.00839516893029213, 0.11667054146528244, -0.03896750137209892, -0.24028901755809784], [-0.2767598628997803, -0.042562272399663925, 0.034362781792879105, -0.31503990292549133, 0.03848062455654144], [0.0646025612950325, -0.091240294277668, 0.15342605113983154, -0.10067527741193771, -0.3061278760433197], [0.1916401982307434, -0.004984359722584486, 0.09804204851388931, 0.177809476852417, -0.22949300706386566], [0.1034138947725296, 0.06730067729949951, -0.0818292573094368, 0.07989124953746796, 0.07461139559745789], [-0.2686331868171692, -0.05226491391658783, 0.024983061477541924, -0.3301292359828949, -0.06296881288290024], [0.13055750727653503, -0.24158278107643127, 0.19750182330608368, 0.03274083882570267, 0.03812812641263008], [-0.24916531145572662, -0.022386865690350533, 0.14826272428035736, -0.07970418781042099, 0.03555971756577492], [0.20007385313510895, -0.07699775695800781, -0.22474388778209686, -0.12612636387348175, 0.15552091598510742], [-0.10752689838409424, -0.08940396457910538, 0.14847467839717865, 0.013641606085002422, 0.1308257281780243], [-0.16603562235832214, 0.07025656849145889, -0.1932229995727539, -0.36908480525016785, -0.0835588276386261], [0.058073319494724274, -0.028027493506669998, -0.09998232126235962, -0.013386921025812626, 0.009288009256124496]], [[0.036037370562553406, -0.06872662156820297, 0.09307465702295303, -0.15912891924381256, 0.25608018040657043], [0.20369720458984375, -0.3040182590484619, -0.20558443665504456, -0.0007860879995860159, -0.09838070720434189], [-0.005717333871871233, -0.08496697247028351, 0.11984484642744064, -0.07134147733449936, 0.145461767911911], [-0.00886837113648653, 0.13974259793758392, -0.017254095524549484, -0.0684671625494957, 0.06817515939474106], [-0.32612144947052, -0.24142514169216156, -0.07582426816225052, -0.062479570508003235, -0.011168870143592358], [0.07222189009189606, -0.0581602081656456, -0.0914752408862114, -0.1034087985754013, 0.2231995165348053], [0.1585668921470642, 0.10147534310817719, -0.02252965234220028, -0.23689207434654236, 0.0967523455619812], [0.05754418671131134, 0.344927579164505, -0.18656191229820251, 0.01847751811146736, -0.19290104508399963], [0.1527196168899536, -0.001600098330527544, 0.17932447791099548, 0.04274032637476921, -0.0425131618976593], [0.006369753275066614, 0.18168820440769196, 0.04539377987384796, -0.06136913225054741, -0.03359483182430267], [0.2845759689807892, 0.09085126966238022, 0.24258242547512054, 0.3052641749382019, -0.14528174698352814], [0.05857574939727783, 0.18144017457962036, -0.16277951002120972, -0.15284942090511322, 0.01855498179793358], [0.02510126307606697, -0.18771980702877045, -0.041523490101099014, -0.2352173775434494, -0.4496772587299347], [-0.10576435178518295, 0.08481674641370773, -0.014021172188222408, -0.2828822433948517, 0.1715308278799057], [0.09923308342695236, 0.020945118740200996, 0.008369368501007557, 0.07065947353839874, 0.09620169550180435]], [[0.002935545751824975, 0.2953570783138275, 0.2641144096851349, 0.2171260267496109, -0.002259691944345832], [-0.31696921586990356, 0.14670565724372864, -0.06906462460756302, -0.0010191703913733363, -0.04540034383535385], [-0.030811268836259842, 0.29219087958335876, 0.05732976272702217, 0.3457380533218384, 0.06283675134181976], [0.049512580037117004, -0.08496449887752533, -0.012719346210360527, 0.051918063312768936, -0.13032260537147522], [-0.1430547535419464, 0.08034566789865494, 0.18391235172748566, 0.06337250024080276, -0.08004987984895706], [-0.17570140957832336, 0.2379637509584427, 0.11274395138025284, -0.17010793089866638, -0.08369027078151703], [-0.13225246965885162, -0.0740148276090622, -0.0005888372543267906, 0.013015744276344776, 0.04341289773583412], [-0.08553210645914078, -0.13108080625534058, -0.07051154226064682, 0.045934129506349564, -0.3355253040790558], [-0.02167937532067299, -0.3684771656990051, -0.021959776058793068, 0.09697425365447998, 0.19088242948055267], [0.09400807321071625, 0.21114137768745422, 0.02785024419426918, -0.06360326707363129, 0.060554999858140945], [-0.32676631212234497, 0.11322885006666183, 0.18290717899799347, 0.0055223857052624226, -0.019610030576586723], [-0.17326638102531433, 0.23514868319034576, -0.058238908648490906, 0.2219475656747818, 0.1322818249464035], [-0.07896413654088974, 0.14585517346858978, -0.10877230763435364, 0.10041093826293945, 0.21527819335460663], [0.05179073289036751, -0.2500981092453003, 0.0024284697137773037, -0.07792161405086517, -0.1830144077539444], [-0.1419512927532196, -0.17638826370239258, -0.11440504342317581, -0.11377442628145218, -0.1263430416584015]], [[0.09830743819475174, 0.11612363159656525, 0.06899994611740112, -0.025602834299206734, 0.041174016892910004], [-0.15811142325401306, 0.05231726914644241, -0.30300527811050415, -0.07504928112030029, -0.05362845957279205], [-0.09344764053821564, 0.5021007657051086, 0.032434556633234024, 0.07839781790971756, -0.05857290327548981], [0.07324178516864777, 0.06647751480340958, 0.19320829212665558, 0.04815293848514557, -0.04952484741806984], [-0.1442931443452835, 0.11720622330904007, -0.15542589128017426, -0.045895349234342575, -0.24283619225025177], [0.006993049755692482, 0.07016883045434952, 0.002726845210418105, 0.027616791427135468, -0.027611764147877693], [0.13448147475719452, -0.10421323776245117, 0.009789115749299526, 0.020234977826476097, -0.24445511400699615], [0.1460452377796173, -0.3419033885002136, 0.12627045810222626, -0.1432582139968872, 0.37018510699272156], [-0.14147262275218964, -0.2401852011680603, -0.07293309271335602, -0.0571526437997818, 0.008662665262818336], [0.015208745375275612, -0.1642581969499588, 0.03817110136151314, 0.1508377343416214, 0.01114390417933464], [0.18793629109859467, 0.07869815081357956, -0.12118745595216751, 0.19013220071792603, 0.09099214524030685], [0.033745456486940384, 0.04855038970708847, -0.13098512589931488, 0.056358691304922104, 0.1648535430431366], [-0.32793864607810974, 0.07111333310604095, -0.16147011518478394, -0.09076813608407974, -0.0709645077586174], [-0.10609620809555054, -0.22055578231811523, -0.15847349166870117, 0.19161076843738556, 0.17021307349205017], [-0.08908873796463013, 0.21561108529567719, -0.08229060471057892, 0.022478703409433365, 0.06386198848485947]], [[0.11676532030105591, -0.08887499570846558, -0.01999647170305252, -0.07594729959964752, -0.09831546992063522], [-0.211765855550766, -0.08630965650081635, 0.003680312540382147, -0.09774356335401535, 0.1153586208820343], [-0.06616627424955368, -0.07795866578817368, -0.037844303995370865, 0.05521931126713753, 0.05373853072524071], [-0.02861553058028221, 0.1263599693775177, 0.2918910086154938, 0.12806223332881927, 0.03017706237733364], [-0.03395305946469307, 0.2658199071884155, 0.05322066694498062, 0.2030094712972641, 0.2444780319929123], [0.08329999446868896, -0.08851074427366257, 0.05394741892814636, 0.08118318021297455, -0.056654151529073715], [-0.15838363766670227, -0.14566725492477417, 0.1466110646724701, 0.15658922493457794, 0.05363645404577255], [-0.08713965862989426, 0.17992942035198212, 0.13410978019237518, 0.057506415992975235, -0.15197855234146118], [-0.19803431630134583, 0.15733055770397186, 0.002639507409185171, -0.1764930784702301, -0.346517413854599], [-0.0901898667216301, -0.0822586789727211, 0.2138521373271942, -0.09122055023908615, 0.21100376546382904], [-0.21708020567893982, -0.07589917629957199, -0.3652094602584839, 0.04368983954191208, -0.09930957108736038], [-0.11469756066799164, 0.03747169300913811, 0.08801628649234772, -0.15309745073318481, 0.0709688812494278], [0.10093394666910172, -0.12125717103481293, 0.20401018857955933, 0.06846148520708084, 0.013094136491417885], [0.19717685878276825, 0.1177964061498642, -0.10964373499155045, 0.13623493909835815, 0.2509223520755768], [-0.06896452605724335, -0.13229155540466309, -0.1883130967617035, 0.08946734666824341, 0.022341521456837654]], [[-0.07809855788946152, -0.06817785650491714, 0.029308542609214783, 0.033666495233774185, 0.09827621281147003], [-0.18582332134246826, -0.2301129698753357, -0.03511882200837135, -0.20581495761871338, -0.04161202907562256], [-0.1720305234193802, -0.06696219742298126, 0.020438140258193016, 0.13886381685733795, -0.07686390727758408], [0.15777826309204102, 0.23287414014339447, 0.19299201667308807, 0.0810156986117363, 0.07903517037630081], [-0.0334923155605793, 0.021771257743239403, 0.3339756727218628, 0.08134579658508301, -0.006098885554820299], [0.20341409742832184, 0.16050419211387634, 0.06320001184940338, 0.14202380180358887, 0.29454371333122253], [0.28410351276397705, 0.4514080584049225, 0.18771182000637054, 0.18138231337070465, 0.26447615027427673], [0.1320877969264984, 0.12239385396242142, -0.08893101662397385, -0.046678971499204636, -0.07470782101154327], [-0.13496701419353485, 0.05685294792056084, 0.10275387018918991, -0.3302702307701111, -0.17486324906349182], [-0.027007661759853363, -0.03787917643785477, -0.015194592997431755, -0.17134444415569305, 0.043352868407964706], [-0.029853060841560364, 0.1915912628173828, -0.031693100929260254, -0.1316111534833908, 0.12615785002708435], [-0.01254482101649046, 0.0952647477388382, -0.08474356681108475, -0.09575586020946503, 0.06874509155750275], [0.07609908282756805, 0.10257548838853836, -0.08381666243076324, 0.0029826131649315357, 0.05194520577788353], [-0.05181293934583664, -0.18720176815986633, 0.3038444519042969, 0.038666315376758575, -0.014809448271989822], [0.1306772083044052, 0.1843215972185135, 0.013606634922325611, 0.13564416766166687, 0.19759005308151245]], [[0.12435091286897659, 0.3345089256763458, -0.07009415328502655, 0.04874028265476227, 0.014457663521170616], [0.10338553041219711, -0.1007733941078186, -0.1369440108537674, 0.0994189903140068, -0.06619475036859512], [-0.01984415575861931, 0.3277638852596283, 0.07568391412496567, 0.056566085666418076, 0.16222535073757172], [-0.003771246876567602, -0.1629171520471573, 0.04225312918424606, 0.092321015894413, 0.11811935156583786], [-0.25725263357162476, 0.07844242453575134, -0.05841248482465744, -0.050775196403265, 0.13204850256443024], [0.35455241799354553, -0.03699806332588196, -0.051999781280756, 0.31842583417892456, 0.04889955371618271], [-0.1312560886144638, 0.06983456015586853, 0.19950716197490692, 0.09289222955703735, -0.07142312824726105], [-0.21744172275066376, -0.20710772275924683, -0.19708535075187683, 0.1077042669057846, -0.19387084245681763], [-0.1373680680990219, 0.13035458326339722, -0.16387884318828583, -0.0004671542264986783, 0.07776008546352386], [-0.1694568544626236, -0.29108744859695435, 0.20652742683887482, 0.1847904622554779, 0.033839546144008636], [0.13016349077224731, -0.1136406660079956, 0.19167560338974, 0.39158180356025696, -0.25739383697509766], [0.18649287521839142, -0.13945965468883514, 0.17095331847667694, 0.30121076107025146, 0.10334165394306183], [0.06541083008050919, 0.020166967064142227, 0.23406672477722168, -0.07498590648174286, 0.28870391845703125], [-0.19166414439678192, 0.11770828068256378, -0.06651845574378967, 0.005961734335869551, 0.06860817223787308], [-0.02970792166888714, 0.03178909048438072, -0.03760623186826706, 0.1609506756067276, 0.23138898611068726]], [[0.1171896681189537, -0.07032515108585358, 0.004781391005963087, -0.002194961067289114, -0.034613970667123795], [0.032049279659986496, 0.04372640326619148, 0.23638100922107697, -0.038079630583524704, -0.2775185704231262], [-0.15333183109760284, 0.0106213903054595, 0.23201671242713928, -0.05876275151968002, -0.24187099933624268], [-0.01232086680829525, -0.010064336471259594, -0.08311153203248978, -0.00048173207323998213, -0.012357745319604874], [-0.03799690678715706, -0.33695411682128906, 0.1582126021385193, 0.13216187059879303, 0.09762779623270035], [0.09659592807292938, -0.12065908312797546, -0.009733484126627445, -0.2001480609178543, -0.002545227063819766], [0.230690136551857, -0.15317906439304352, 0.1422964334487915, 0.22121481597423553, -0.20316319167613983], [0.12372440099716187, 0.21070191264152527, -0.07129392772912979, 0.15883053839206696, 0.31775566935539246], [0.014674372971057892, 0.1715916395187378, 0.13192999362945557, 0.17985303699970245, -0.2712130546569824], [-0.010359748266637325, -0.15799210965633392, -0.009073212742805481, 0.02891131490468979, -0.02095625177025795], [0.033579956740140915, -0.046099547296762466, 0.11600872129201889, 0.1325986385345459, -0.1916486620903015], [-0.12156586349010468, 0.14499767124652863, -0.12114008516073227, 0.010621106252074242, -0.06919791549444199], [0.1518532931804657, 0.2294895350933075, -0.41062062978744507, -0.0948217436671257, -0.22458915412425995], [-0.2125423401594162, 0.021286677569150925, -0.027914222329854965, 0.1390375792980194, -0.2695674002170563], [0.3150290250778198, 0.04193667322397232, -0.09011296927928925, -0.05830058082938194, 0.017464661970734596]], [[-0.008688651025295258, -0.0238786768168211, -0.03304934874176979, -0.10828575491905212, -0.08088697493076324], [-0.020447969436645508, -0.03392775356769562, 0.16388659179210663, -0.0754673033952713, -0.0030581236351281404], [0.05347004160284996, 0.08678432554006577, -0.15532924234867096, 0.20828159153461456, 0.06733058393001556], [-0.06570511311292648, -0.13510221242904663, -0.018596434965729713, -0.054689615964889526, 0.3216460943222046], [-0.049407389014959335, 0.12212782353162766, -0.032595932483673096, 0.28129711747169495, 0.26648736000061035], [-0.25844135880470276, -0.026439040899276733, -0.09090781211853027, 0.16564235091209412, 0.00030631013214588165], [-0.030330194160342216, 0.25014472007751465, -0.04091848433017731, 0.27091267704963684, 0.2390127182006836], [0.38258370757102966, -0.15141211450099945, -0.07624370604753494, -0.13438847661018372, 0.08902882039546967], [0.19328506290912628, -0.22944557666778564, -0.0011333274887874722, 0.21650221943855286, -0.035762377083301544], [-0.33199411630630493, -0.04336485639214516, 0.003919483162462711, -0.1711261123418808, 0.13978999853134155], [-0.05571160465478897, -0.03290295973420143, -0.09241444617509842, -0.06392239779233932, 0.05106564611196518], [0.03594318404793739, -0.1538427472114563, 0.02513202838599682, 0.01967095583677292, -0.09203344583511353], [0.0864088386297226, 0.04178876057267189, 0.27211111783981323, -0.03545184060931206, 0.2647783160209656], [0.22813838720321655, -0.08599860221147537, -0.2513234615325928, -0.17916198074817657, -0.07981760799884796], [-0.051372576504945755, -0.1436590701341629, -0.05514032393693924, 0.14669804275035858, 0.16402381658554077]]], "conv5.bias": [0.035840075463056564, -0.1172262653708458, 0.09565320611000061, 0.03592473268508911, 0.07355327904224396, -0.20386402308940887, -0.05957932770252228, 0.02029896341264248, -0.0008171804947778583, -0.0314372181892395, -0.1786508858203888, -0.09396949410438538, -0.05252959951758385, -0.17755305767059326, -0.06827257573604584, -0.02484353631734848], "fc1.weight": [[0.24281206727027893, 0.25995469093322754, -0.2717968821525574, 0.26297155022621155, -0.16699744760990143, 0.12353803217411041, -0.13818691670894623, 0.3887401819229126, 0.22929243743419647, -0.15212081372737885, -0.11620450764894485, 0.28400957584381104, -0.20949584245681763, -0.22125251591205597, 0.3442607820034027, 0.08598306775093079, 0.11436954885721207, -0.2888704240322113, -0.1857549399137497, 0.21964514255523682, 0.32687053084373474, -0.31154611706733704, 0.24582557380199432, -0.130809023976326, -0.21837323904037476, 0.19079911708831787, -0.21195656061172485, -0.23236466944217682, 0.37283650040626526, 0.3042663633823395, 0.11117204278707504, 0.22457122802734375, 0.08641074597835541, 0.07501482963562012, 0.15943218767642975, -0.12899132072925568, -0.20355947315692902], [-0.2487679123878479, -0.11964601278305054, 0.05782507732510567, -0.22251108288764954, 0.15152154862880707, -0.08131309598684311, 0.25971147418022156, -0.23008158802986145, -0.37399816513061523, 0.100394606590271, 0.1559595912694931, -0.24527931213378906, 0.17218784987926483, 0.18276453018188477, -0.1474672555923462, -0.04527611657977104, -0.15574392676353455, 0.33434081077575684, 0.23890861868858337, -0.18799923360347748, -0.28785786032676697, 0.2387249767780304, -0.21633630990982056, 0.22182351350784302, 0.2528803050518036, -0.28329282999038696, 0.1352815181016922, 0.16674701869487762, -0.30914852023124695, -0.29822999238967896, -0.2983255386352539, -0.23857130110263824, -0.035347193479537964, 0.16378134489059448, -0.06006483733654022, 0.3536628782749176, 0.2763760983943939], [-0.27652832865715027, -0.038742903620004654, 0.08344646543264389, -0.20799703896045685, 0.23962834477424622, -0.11349407583475113, 0.2953217625617981, -0.253337025642395, -0.27414700388908386, 0.20119298994541168, 0.12518367171287537, -0.3318198025226593, 0.15347027778625488, 0.16705843806266785, -0.2464219182729721, -0.04750113934278488, -0.26478272676467896, 0.3275679349899292, 0.2738260328769684, -0.3401213586330414, -0.1593850702047348, 0.36869165301322937, -0.2085069864988327, 0.2726273834705353, 0.22049784660339355, -0.2992171347141266, 0.3390885889530182, 0.21167618036270142, -0.31773221492767334, -0.47647929191589355, -0.180946946144104, -0.34007930755615234, -0.10213891416788101, -0.006726079620420933, 0.02472222037613392, 0.33727574348449707, 0.21640443801879883], [0.3586030602455139, 0.171902135014534, -0.2655833661556244, 0.38696321845054626, -0.2376466989517212, 0.1933533400297165, -0.20449060201644897, 0.46047985553741455, 0.26692989468574524, -0.20648866891860962, -0.16453997790813446, 0.25161126255989075, -0.24607068300247192, -0.21943028271198273, 0.3291909098625183, 0.19707772135734558, 0.33442339301109314, -0.33911630511283875, -0.272344172000885, 0.3899490237236023, 0.20991070568561554, -0.36359652876853943, 0.41703560948371887, -0.04142728075385094, -0.32520872354507446, 0.1694997400045395, -0.2655160129070282, -0.34540003538131714, 0.3368748426437378, 0.437985360622406, 0.14574183523654938, 0.37799808382987976, 0.02108646184206009, 0.12997765839099884, -0.074849933385849, -0.3532033860683441, -0.07592184096574783], [-0.28502440452575684, -0.038141269236803055, 0.13172222673892975, -0.3792353868484497, 0.3128761649131775, -0.14510942995548248, 0.22776514291763306, -0.37451666593551636, -0.34654104709625244, 0.16678473353385925, 0.3022152781486511, -0.19507980346679688, 0.2651023268699646, 0.23721826076507568, -0.3899668753147125, -0.17080041766166687, -0.3352874219417572, 0.2991088628768921, 0.24222427606582642, -0.26798444986343384, -0.20339344441890717, 0.44091108441352844, -0.4228924810886383, 0.2265271693468094, 0.34967613220214844, -0.21173550188541412, 0.2965657413005829, 0.13449397683143616, -0.4201566278934479, -0.4226890206336975, -0.20524746179580688, -0.39816218614578247, -0.06460805982351303, 0.04729270935058594, -0.05190422013401985, 0.35166826844215393, 0.1928141862154007], [0.3121979832649231, 0.15052291750907898, -0.32070717215538025, 0.2669169008731842, -0.1739782840013504, 0.17735224962234497, -0.09689324349164963, 0.28474652767181396, 0.29099684953689575, -0.22063471376895905, -0.24613548815250397, 0.1596735119819641, -0.21903757750988007, -0.1624675989151001, 0.27275148034095764, 0.06594666838645935, 0.26124662160873413, -0.32219305634498596, -0.0642026737332344, 0.35657891631126404, 0.2935852110385895, -0.33149388432502747, 0.21710187196731567, -0.18956808745861053, -0.23185987770557404, 0.23472291231155396, -0.16927719116210938, -0.14918696880340576, 0.2485644370317459, 0.3517796993255615, 0.1641138195991516, 0.38713160157203674, 0.09544878453016281, -0.08863454312086105, 0.09740569442510605, -0.317939817905426, -0.14086104929447174], [-0.24929606914520264, -0.050308410078287125, 0.20864608883857727, -0.16426531970500946, 0.19397638738155365, -0.10820680111646652, 0.1788797825574875, -0.30381208658218384, -0.26278629899024963, 0.3234410285949707, 0.2583002746105194, -0.3000902235507965, 0.15851017832756042, 0.035010695457458496, -0.28198397159576416, -0.17538237571716309, -0.0965723842382431, 0.28440868854522705, 0.25696679949760437, -0.17397964000701904, -0.2013532966375351, 0.2905089259147644, -0.22509446740150452, 0.1853049248456955, 0.2436879575252533, -0.24797222018241882, 0.23595307767391205, 0.12020015716552734, -0.2286122590303421, -0.379962295293808, -0.20663516223430634, -0.2616051435470581, -0.17922115325927734, -0.03868955746293068, -0.021789394319057465, 0.14465868473052979, 0.2588930130004883], [0.27724629640579224, 0.21371394395828247, -0.2825690805912018, 0.3162953853607178, -0.26358774304389954, 0.18824805319309235, -0.1527559906244278, 0.4505997598171234, 0.2520647943019867, -0.15098415315151215, -0.20910710096359253, 0.16420190036296844, -0.3369535803794861, -0.12289442121982574, 0.4036180078983307, 0.10023410618305206, 0.28984534740448, -0.2184046506881714, -0.147706538438797, 0.36043113470077515, 0.13311807811260223, -0.3393237292766571, 0.2727688252925873, -0.043116554617881775, -0.37527817487716675, 0.17328134179115295, -0.3081851899623871, -0.2915068566799164, 0.2740101218223572, 0.39556175470352173, 0.15229901671409607, 0.3918103277683258, 0.03404419124126434, 0.00985321681946516, 0.17005790770053864, -0.19484296441078186, -0.12289712578058243], [-0.23709791898727417, -0.08582716435194016, 0.09825845807790756, -0.20464937388896942, 0.2845933735370636, -0.11823733896017075, 0.22475585341453552, -0.3046358525753021, -0.25701355934143066, 0.2060425877571106, 0.17980718612670898, -0.2557816505432129, 0.08190683275461197, 0.1398591250181198, -0.16144104301929474, -0.13926632702350616, -0.13279443979263306, 0.37731629610061646, 0.1947515308856964, -0.24791459739208221, -0.21398653090000153, 0.3495403528213501, -0.23208008706569672, 0.1887550801038742, 0.1972767859697342, -0.23201000690460205, 0.23699302971363068, 0.17290432751178741, -0.26811307668685913, -0.29126179218292236, -0.16733187437057495, -0.2770818769931793, -0.000463620584923774, 0.05491082742810249, 0.04703623801469803, 0.2273220270872116, 0.2212366908788681], [0.2078871726989746, 0.17815716564655304, -0.20081008970737457, 0.1405491679906845, -0.10231221467256546, 0.23790337145328522, -0.19636951386928558, 0.35073012113571167, 0.14411792159080505, -0.17972058057785034, -0.1445189267396927, 0.291118860244751, -0.18143770098686218, -0.26215866208076477, 0.24040678143501282, 0.12937790155410767, 0.20760175585746765, -0.20742927491664886, -0.17970076203346252, 0.19465553760528564, 0.16933108866214752, -0.3430679440498352, 0.2996051013469696, -0.02280460298061371, -0.12460985779762268, 0.17521259188652039, -0.21199385821819305, -0.17352071404457092, 0.23578329384326935, 0.3385457992553711, 0.21841371059417725, 0.28094592690467834, -0.0939640924334526, 0.03011327050626278, -0.010327169671654701, -0.1968386173248291, 0.03236762434244156], [0.1781471073627472, 0.27709877490997314, -0.246326744556427, 0.37717264890670776, -0.10026577860116959, 0.23665210604667664, -0.20667992532253265, 0.3103260099887848, 0.15736021101474762, -0.14437222480773926, -0.27783307433128357, 0.19440080225467682, -0.18839682638645172, -0.22171540558338165, 0.24618208408355713, 0.08887273818254471, 0.11714480817317963, -0.32469651103019714, -0.11130504310131073, 0.3577871322631836, 0.3233673572540283, -0.22085407376289368, 0.3042699694633484, -0.12690283358097076, -0.30888253450393677, 0.16380132734775543, -0.237062007188797, -0.24362896382808685, 0.16994427144527435, 0.36097314953804016, 0.280876487493515, 0.32953131198883057, 0.017320001497864723, -0.035452116280794144, -0.051157888025045395, -0.349965363740921, -0.0622318834066391], [-0.155694842338562, -0.09879632294178009, 0.19459086656570435, -0.19323816895484924, 0.2592785358428955, -0.196441650390625, 0.24194900691509247, -0.2845180332660675, -0.19812500476837158, 0.25638338923454285, 0.0833633691072464, -0.3384675979614258, 0.2187865525484085, 0.07813825458288193, -0.20137006044387817, -0.23032142221927643, -0.0893559455871582, 0.21592850983142853, 0.09429439157247543, -0.2454637736082077, -0.200618177652359, 0.3684004247188568, -0.21967928111553192, 0.23896875977516174, 0.30199354887008667, -0.2355283945798874, 0.34938448667526245, 0.18610112369060516, -0.2837877869606018, -0.4461212754249573, -0.1350170522928238, -0.38263848423957825, 0.06478899717330933, 0.06855390220880508, 0.08885309845209122, 0.35221990942955017, 0.19958962500095367], [-0.26154062151908875, -0.067674420773983, 0.16975529491901398, -0.3133971691131592, 0.2687074542045593, -0.1897735446691513, 0.19888272881507874, -0.19384895265102386, -0.2606966495513916, 0.1592872142791748, 0.18733976781368256, -0.17632073163986206, 0.22110110521316528, 0.16068805754184723, -0.25144559144973755, -0.1340942233800888, -0.11745385825634003, 0.34376564621925354, 0.20968183875083923, -0.3200033903121948, -0.11943094432353973, 0.3377990424633026, -0.15634392201900482, 0.25921881198883057, 0.1964275985956192, -0.25232210755348206, 0.3611258566379547, 0.140361025929451, -0.23730134963989258, -0.44651103019714355, -0.2230500876903534, -0.3451957404613495, -0.08169165998697281, 0.11464696377515793, -0.06290698796510696, 0.19678571820259094, 0.34670543670654297], [-3.36918604126879e-10, -7.561009596201984e-09, -4.0771426235153285e-09, 1.4264678847852874e-11, 1.2125390969064398e-10, 6.972401322968835e-09, -2.8763269543929937e-09, -1.9211326973689324e-10, -2.3247515024138465e-09, -1.7019312181787427e-08, 2.3021261286171324e-10, -4.112417073542929e-09, -6.670359820049043e-10, -5.887472731558319e-09, -2.6260822405532736e-09, -6.233092708640697e-09, -1.2917206193563402e-09, -1.3595478041972253e-11, -1.1065732330450828e-08, -1.4044690743730825e-08, -7.9670314789837e-09, -2.4717119462280834e-09, 3.5428532330072926e-10, -3.324770148083189e-08, 1.5026716849997346e-12, -1.090139263582035e-12, 2.2187427676373384e-13, -5.448044237965632e-10, 1.2741274181549134e-11, -1.861284563975385e-11, -1.1699025082023695e-09, -2.623859796102579e-09, -4.5046178592800246e-11, -1.2847512387281768e-08, -1.2420979800253917e-08, 1.3453496650051022e-10, -1.8088579523123371e-09], [-0.11848502606153488, -0.21494562923908234, 0.11782465130090714, -0.21601884067058563, 0.29233652353286743, -0.16673605144023895, 0.22737820446491241, -0.3363656997680664, -0.41740819811820984, 0.27363529801368713, 0.19207102060317993, -0.19693021476268768, 0.15547321736812592, 0.11002296209335327, -0.21106989681720734, -0.027464546263217926, -0.1522573083639145, 0.3127603530883789, 0.16684851050376892, -0.2880600392818451, -0.10994706302881241, 0.2883894145488739, -0.21478895843029022, 0.2670381963253021, 0.25946372747421265, -0.29209014773368835, 0.30883049964904785, 0.22175051271915436, -0.4354822635650635, -0.3786914348602295, -0.19834642112255096, -0.3397352397441864, -0.16795705258846283, 0.020163172855973244, -0.10527779906988144, 0.3703373074531555, 0.3540462255477905], [0.16304883360862732, 0.2047969400882721, -0.1786615550518036, 0.24021507799625397, -0.1902555525302887, 0.18321791291236877, -0.10513950884342194, 0.34893661737442017, 0.19828219711780548, -0.23593012988567352, -0.03719157725572586, 0.24818474054336548, -0.14663410186767578, -0.2142871767282486, 0.2692679166793823, 0.06613623350858688, 0.2464115023612976, -0.2793923616409302, -0.12291927635669708, 0.24416083097457886, 0.25079017877578735, -0.28267139196395874, 0.32003602385520935, -0.022466542199254036, -0.27684664726257324, 0.12812791764736176, -0.2949753403663635, -0.28989794850349426, 0.2429259866476059, 0.37365397810935974, 0.19289030134677887, 0.3966482877731323, -0.026628680527210236, -0.046712640672922134, -0.006015583407133818, -0.29270052909851074, -0.08069534599781036]], "fc1.bias": [0.18671409785747528, -0.017075570300221443, -0.02333669178187847, 0.035066552460193634, 0.11945690959692001, 0.06075380742549896, 0.1344318389892578, 0.08280306309461594, 0.07202928513288498, 0.1185142919421196, 0.1822298914194107, 0.03148101270198822, -0.08023512363433838, -1.2777031876964884e-08, 0.09818071871995926, 0.12941505014896393], "fc2.weight": [[-1.120422601699829, 0.9863545894622803, 0.8382073640823364, -0.8460239171981812, 0.6412404775619507, -0.9996408820152283, 0.8934538960456848, -0.9381427764892578, 0.6121167540550232, -1.0704164505004883, -1.0846927165985107, 0.7749429941177368, 0.8505557775497437, 4.016150967345311e-08, 0.7625976800918579, -1.0226860046386719]], "fc2.bias": [0.3396333158016205], "norm_mean": [0.04747914522886276, 0.35524797439575195, 0.35408708453178406, 0.4063573181629181, 0.035312213003635406, 0.024610942229628563, 0.04038567841053009, 0.2502862215042114, 2.3179690837860107, 0.17283153533935547, 0.490611732006073], "norm_std": [0.0972331240773201, 0.3022061288356781, 0.29668453335762024, 0.2681356966495514, 0.09613564610481262, 0.07078865170478821, 0.17363117635250092, 0.43317803740501404, 1.789513111114502, 0.37810176610946655, 0.2711757719516754]}