{"fc1.weight": [[0.26393720507621765, 0.05086341127753258, 0.05006293207406998, 0.11938586831092834, -0.04128972068428993, 0.292453408241272, -0.3676634430885315, -0.06529510021209717, 0.39548230171203613, -0.29900529980659485, -0.01915757544338703, 0.13036015629768372, 0.30959054827690125, -0.09563037753105164, 0.19220250844955444, -0.08823906630277634, 0.07758752256631851, 0.08129382133483887, -0.041486650705337524, 0.1599876582622528, 0.06081903353333473, 0.010665832087397575, 0.1238015666604042, 0.033546991646289825, 0.3540743291378021, 0.07227737456560135, 0.045290786772966385, 0.1787799447774887, 0.44406577944755554, -0.11816904693841934, 0.12611499428749084, -0.057131458073854446, 0.39661914110183716, -0.05521002784371376, -0.02419668436050415, -0.09561839699745178, 0.03071463108062744, 0.10995824635028839, 0.12941569089889526, 0.043322790414094925, -0.21427097916603088, -0.15293201804161072, 0.039093878120183945, 0.08010614663362503, 0.3006787598133087, -0.186522975564003, -0.05610096454620361, 0.13535921275615692], [0.0558510459959507, -0.28446993231773376, -0.12424547970294952, -0.16023771464824677, -0.16459666192531586, 0.13208432495594025, 0.07339175790548325, 0.10960907489061356, 0.14419697225093842, 0.13535384833812714, -0.022527916356921196, -0.07617883384227753, -0.15674123167991638, -0.1687365025281906, -0.09576666355133057, 0.03728995844721794, 0.11548496782779694, 0.05195121839642525, 0.025000156834721565, -0.34292736649513245, -0.27518850564956665, -0.0667090192437172, 0.1125979945063591, 0.11031923443078995, 0.43594890832901, -0.3137490451335907, 0.11048716306686401, -0.070829376578331, -0.0796070471405983, -0.0015258931089192629, -0.11448947340250015, 0.1635117381811142, -0.10950710624456406, 0.033406492322683334, 0.15407824516296387, -0.3615768849849701, -0.052791234105825424, -0.124224953353405, -0.06473223865032196, 0.006669473368674517, -0.09383303672075272, 0.18354731798171997, -0.08244878798723221, 0.15876367688179016, -0.16715796291828156, 0.19985270500183105, 0.033622436225414276, 0.030345147475600243], [0.2842486500740051, -0.15705764293670654, 0.07205135375261307, -0.5325244069099426, 0.013780111446976662, 0.17075756192207336, 0.07279711216688156, -0.19487972557544708, 0.26518020033836365, -0.30051663517951965, 0.006633949466049671, -0.06327516585588455, 0.08691214770078659, -0.09650331735610962, 0.07075531780719757, -0.11548926681280136, 0.38300448656082153, -0.16546253859996796, -0.13567891716957092, -0.2605758309364319, -0.019219785928726196, -0.11169307678937912, 0.07316691428422928, -0.21661792695522308, 0.07141146063804626, -0.046260833740234375, -0.041513748466968536, -0.06016527861356735, 0.04673387482762337, -0.015487411059439182, -0.07150382548570633, -0.25363361835479736, 0.2637041509151459, 0.047480467706918716, -0.06542135775089264, 0.09666464477777481, -0.08428338170051575, -0.04065153747797012, 0.053058918565511703, -0.21843485534191132, 0.04408907890319824, -0.17265906929969788, 0.006993942894041538, -0.05332877114415169, -0.021368900313973427, -0.20068806409835815, 0.2445467859506607, -0.26220041513442993], [-0.12519799172878265, 0.18389210104942322, -0.04671980440616608, 0.10763034969568253, -0.05877093970775604, -0.1941182166337967, 0.3240157663822174, -0.10479862987995148, -0.10199420899152756, -0.22785554826259613, 0.25725942850112915, -0.3008860647678375, -0.026595305651426315, 0.13533255457878113, 0.13649870455265045, -0.07512380182743073, 0.04020034149289131, -0.2183113992214203, 0.19139540195465088, -0.37325790524482727, 0.006965714506804943, 0.21339216828346252, -0.3183209300041199, 0.07346715778112411, 0.02798447571694851, 0.0022481170017272234, 0.11416050046682358, 0.10336373001337051, 0.15211790800094604, -0.03223802521824837, -0.14165571331977844, 0.007458976469933987, 0.03957246243953705, 0.16439829766750336, 0.21776822209358215, -0.06841489672660828, 0.0014932614285498857, 0.12277757376432419, -0.10279203206300735, 0.04363764449954033, 0.051728855818510056, -0.14570368826389313, -0.07805842161178589, -0.1632198840379715, -0.32869192957878113, -0.06492507457733154, 0.09868510812520981, 0.08128160983324051], [0.04720981419086456, 0.244432732462883, 0.19168075919151306, -0.14234445989131927, -0.11637745052576065, -0.06481176614761353, 0.06994029879570007, 0.13948211073875427, -0.43282321095466614, -0.4985116124153137, 0.05001483112573624, -0.028926657512784004, 0.3333906829357147, -0.24334394931793213, -0.1809026300907135, -0.011050469242036343, -0.08428255468606949, 0.058149028569459915, -0.178520068526268, 0.12310661375522614, -0.2289815992116928, -0.3559856414794922, -0.30003821849823, 0.14384977519512177, 0.0017331187846139073, -0.028649229556322098, -0.11598797887563705, 0.043118275701999664, -0.11852077394723892, -0.18915443122386932, -0.23805907368659973, -0.006637954153120518, 0.1094706803560257, 0.15454918146133423, 0.10022155940532684, 0.16227325797080994, -0.2859448194503784, 0.02378271333873272, -0.17338795959949493, 0.06251342594623566, -0.004550914745777845, 0.16012042760849, 0.08662916719913483, 0.05226026102900505, -0.1304682195186615, -0.19905006885528564, -0.31478530168533325, -0.1329573392868042], [0.27358561754226685, 0.04678462818264961, -0.04267309606075287, -0.1502804011106491, -0.12488048523664474, -0.08078158646821976, -0.02765728160738945, 0.17036952078342438, -0.08576769381761551, 0.2880397439002991, 0.07827148586511612, -0.19880026578903198, 0.13673017919063568, -0.22776909172534943, 0.03222368657588959, -0.027063095942139626, 0.14377768337726593, -0.16119301319122314, 0.17676052451133728, -0.04267819598317146, 0.27261197566986084, -0.20897483825683594, 0.17942027747631073, -0.04350534453988075, -0.08769381791353226, -0.027481751516461372, -0.05599610134959221, 0.06532401591539383, -0.1750870645046234, -0.04712709039449692, -0.13411125540733337, -0.16310283541679382, 0.3512662351131439, 0.15156687796115875, 0.4125007688999176, -0.19134239852428436, 0.037594787776470184, 0.03747008368372917, 0.25198206305503845, -0.2252798229455948, -0.01697743684053421, -0.23597228527069092, 0.031903889030218124, -0.033223383128643036, -0.15109342336654663, -0.3387536108493805, -0.20529432594776154, -0.09913069754838943], [-0.05230116471648216, -0.12096840888261795, 0.12203450500965118, -0.3669501841068268, -0.13334952294826508, 0.10595431178808212, 0.18671914935112, 0.03069251775741577, 0.0986126959323883, 0.06373438984155655, -0.13289381563663483, -0.091807059943676, -0.033968597650527954, -0.15579046308994293, -0.04928922280669212, -0.011355132795870304, -0.09611860662698746, 0.22973719239234924, 0.06702419370412827, -0.17396308481693268, -0.2633898854255676, -0.018845614045858383, 0.2086406797170639, 0.018722165375947952, 7.516489131376147e-05, -0.09041567146778107, 0.2555178999900818, -0.008582339622080326, -0.09107312560081482, -0.09976616501808167, -0.2025834321975708, -0.05712628737092018, -0.11494703590869904, -0.1778109073638916, -0.03263844922184944, 0.2399132251739502, -0.134720116853714, -0.037141263484954834, -0.27666500210762024, -0.21427547931671143, -0.14380526542663574, -0.1611112505197525, 0.044198598712682724, 0.13845078647136688, -0.2008332759141922, -0.14489805698394775, -0.035702455788850784, -0.24027764797210693], [0.1836942881345749, 0.09856989234685898, -0.43932825326919556, -0.32743045687675476, 0.13534227013587952, 0.3886033296585083, -0.214640274643898, -0.12281665205955505, -0.07222981005907059, -0.05657415837049484, -0.09743992984294891, -0.22838202118873596, -0.007839815691113472, -0.32999080419540405, -0.14161676168441772, 0.03975016996264458, 0.24131669104099274, -0.08819606155157089, -0.22641874849796295, -0.07548633962869644, 0.05730374529957771, -0.1380521059036255, -0.5839906930923462, 0.0980171263217926, -0.0751713365316391, -0.19774866104125977, -0.23138944804668427, -0.16522537171840668, 0.006860771682113409, -0.33163347840309143, 0.042036570608615875, -0.06895953416824341, -0.006151658017188311, -0.1769867092370987, 0.1409037709236145, -0.026355959475040436, -0.09268628805875778, 0.08870639652013779, -0.14115989208221436, -0.02599208615720272, -0.0888298749923706, 0.07875116914510727, 0.22081802785396576, 0.011309502646327019, 0.14221297204494476, -0.06421245634555817, 0.015753094106912613, 0.1237596720457077], [0.025074876844882965, 0.17481021583080292, -0.23789364099502563, -0.04595138877630234, -0.033910129219293594, 0.0073464298620820045, 0.22454582154750824, -0.07566968351602554, 0.3022626042366028, 0.17124077677726746, 0.01145560760051012, -0.2426028698682785, -0.11677679419517517, 0.26007312536239624, 0.16772088408470154, -0.06636825203895569, -0.04051772132515907, 0.130226269364357, 0.028577571734786034, 0.006225520744919777, -0.3142766058444977, -0.09473618119955063, -0.33481183648109436, -0.055510543286800385, 0.09398467093706131, -0.019655365496873856, 0.061442017555236816, -0.0993318036198616, 0.10343828797340393, 0.1971488744020462, -0.05561554431915283, -0.04154708981513977, -0.17357541620731354, 0.019977543503046036, -0.02029159851372242, -0.2783368229866028, 0.04624798521399498, -0.2063177525997162, -0.04142303019762039, 0.07214301824569702, 0.16531990468502045, 0.3275843858718872, 0.01832367293536663, -0.14699846506118774, -0.17518995702266693, 0.2096780389547348, -0.19892725348472595, 0.024635424837470055], [-0.08592253923416138, 0.1466287225484848, -0.15915490686893463, 0.03864554315805435, 0.07695452123880386, 0.125835582613945, -0.10919535160064697, -0.01541125401854515, 0.10580078512430191, 0.30250561237335205, -0.050649408251047134, 0.14294785261154175, 0.05473180115222931, 0.030661718919873238, -0.1691775918006897, 0.0672461986541748, 0.0977480486035347, -0.2639526128768921, 0.23052050173282623, -0.27470165491104126, -0.4897891581058502, 0.11578240990638733, -0.11319004744291306, 0.02520221285521984, -0.06078839674592018, 0.37552833557128906, -0.05269885063171387, -0.15279319882392883, 0.1530867964029312, -0.09301713109016418, 0.07565528899431229, -0.046870943158864975, -0.08644966036081314, -0.2403894066810608, 0.04142242297530174, -0.18706727027893066, 0.1656545251607895, 0.41303592920303345, -0.07489170879125595, 0.0984044000506401, 0.2187403440475464, 0.09579232335090637, -0.08307301253080368, -0.06266666203737259, 0.022408677265048027, -0.03672889992594719, -0.07180175185203552, 0.07618745416402817], [0.1204119324684143, 0.01607731357216835, -0.1715361326932907, -0.00028168020071461797, -0.09354851394891739, -0.29804879426956177, 0.025791458785533905, -0.06155535951256752, 0.356532484292984, 0.081495501101017, -0.22075632214546204, 0.006234463304281235, 0.04967115819454193, 0.03545438498258591, 0.24022899568080902, -0.032925378531217575, 0.154181569814682, 0.22370007634162903, -0.5096580386161804, 0.27813875675201416, -0.3118532598018646, 0.020113250240683556, -0.0006590347620658576, 0.05311041697859764, 0.31407997012138367, -0.05886893346905708, -0.3616345524787903, -0.33446455001831055, 0.08467305451631546, -0.07270482182502747, 0.18332962691783905, -0.1018204540014267, 0.28730204701423645, 0.0027586049400269985, -0.22965028882026672, -0.13073450326919556, -0.04688151553273201, -0.017617249861359596, -0.04919936880469322, 0.0016638266388326883, 0.0773724764585495, 0.014692103490233421, 0.19881671667099, -0.03476749360561371, -0.020325778052210808, 0.05421394109725952, -0.055438343435525894, 0.04107308387756348], [0.07959999144077301, 0.16433249413967133, -0.07171625643968582, -0.13094398379325867, 0.14486908912658691, 0.19550557434558868, -0.01688147336244583, -0.1022673174738884, 0.03978847712278366, -0.15241239964962006, -0.2151830643415451, 0.1499778926372528, 0.3054412603378296, 0.027666466310620308, 0.0412185862660408, -0.052438538521528244, 0.28679710626602173, 0.2353871911764145, 0.19437673687934875, 0.08580610901117325, 0.061364635825157166, -0.025692306458950043, -0.018916061148047447, 0.005848210770636797, 0.030541906133294106, 0.10765600204467773, 0.0702953189611435, -0.4001213312149048, -0.21356834471225739, 0.16280345618724823, 0.052334703505039215, 0.08882259577512741, -0.056872062385082245, 0.2724558115005493, -0.11577532440423965, -0.12090246379375458, 0.010987558402121067, 0.007109676953405142, -0.6716057658195496, -0.024280671030282974, -0.2219245433807373, -0.4535135328769684, -0.28101587295532227, -0.24112364649772644, -0.1596318930387497, 0.10329929739236832, 0.10043395310640335, 0.03280559182167053], [0.07395859062671661, -0.1986653208732605, -0.1815229058265686, -0.4101293087005615, 0.05121149122714996, -0.40672561526298523, -0.05897601693868637, -0.002221600618213415, -0.02184450253844261, -0.03104722499847412, -0.11421546339988708, 0.025773057714104652, -0.04560583084821701, -0.22763150930404663, -0.12645331025123596, 0.02129233442246914, 0.04706010967493057, -0.1785304695367813, -0.32734090089797974, -0.35669296979904175, -0.22606317698955536, -0.21043053269386292, -0.11930055171251297, -0.026334470137953758, 0.045596446841955185, 0.03104180283844471, -0.29756617546081543, -0.273831307888031, -0.09482302516698837, -0.1328383982181549, -0.22471456229686737, -0.027809612452983856, -0.011031096801161766, 0.1063399389386177, 0.11526808887720108, -0.3885684311389923, -0.11015636473894119, 0.07483752071857452, 0.1509605497121811, 0.01811305247247219, 0.12334562838077545, 0.07739803940057755, -0.2240905463695526, 0.013075729832053185, -0.08390530943870544, -0.12204243987798691, -0.2928130030632019, -0.02665690705180168], [-0.07709935307502747, -0.3064631521701813, -0.15325739979743958, 0.10860737413167953, -0.2304006963968277, 0.24318329989910126, 0.09988439083099365, -0.06572496891021729, 0.2373172491788864, 0.08696196973323822, 0.05918455868959427, -0.15859894454479218, -0.30622154474258423, -0.10843884199857712, 0.005520183593034744, -0.042563553899526596, 0.03189902752637863, -0.37403565645217896, 0.1526537835597992, 0.24412156641483307, -0.03372649475932121, -0.11356794089078903, 0.23598113656044006, -0.04979333281517029, -0.1660173386335373, 0.0320851095020771, -0.07289094477891922, -0.2868911027908325, 0.29272931814193726, 0.03779279813170433, 0.021020876243710518, 0.051292672753334045, 0.026237670332193375, -0.17376196384429932, -0.02805529348552227, 0.19788144528865814, -0.1511785089969635, -0.16822844743728638, -0.16098280251026154, 0.020284313708543777, 0.08240296691656113, -0.05307551473379135, 0.060689374804496765, -0.010568859986960888, -0.01945599354803562, -0.4497874081134796, -0.41349658370018005, 0.01101343147456646], [0.27210888266563416, -0.09964018315076828, -0.39802253246307373, 0.15132848918437958, -0.1613885909318924, 0.20578791201114655, -0.3498366177082062, -0.08315769582986832, 0.23787471652030945, -0.10818757116794586, -0.026903780177235603, 0.10512443631887436, 0.005315775983035564, 0.00844747107475996, -0.32591989636421204, -0.06449522078037262, -0.039479296654462814, -0.15306136012077332, 0.018655307590961456, 0.0457870177924633, 0.18403612077236176, 0.19934819638729095, 0.021820344030857086, 0.061741262674331665, 0.3080849349498749, 0.12313981354236603, -0.1502995640039444, 0.21241484582424164, -0.03475162014365196, -0.008345792070031166, -0.18044134974479675, -0.048508305102586746, -0.0047177961096167564, 0.18513569235801697, -0.055271416902542114, -0.25434377789497375, 0.10247623920440674, -0.09400083869695663, -0.07739297300577164, 0.11600600928068161, 0.23113872110843658, -0.12680038809776306, 0.08626151084899902, 0.09643574059009552, -0.04432057589292526, -0.4197308123111725, 0.02584945783019066, 0.06914158910512924], [0.24730442464351654, 0.1367918998003006, -0.06322695314884186, -0.0032578047830611467, -0.12489397078752518, 0.16652636229991913, -0.05246194824576378, -0.10365214198827744, 0.1469067484140396, 0.028044581413269043, 0.13433663547039032, -0.12986379861831665, -0.420509397983551, -0.1638745814561844, 0.06720183044672012, 0.015490062534809113, -0.11216113716363907, -0.25545385479927063, 0.11206188797950745, -0.061806220561265945, -0.004773028660565615, 0.12791608273983002, 0.2407955527305603, 0.014819415286183357, -0.2240309715270996, -0.012243800796568394, -0.23773066699504852, -0.0959494337439537, -0.09843228757381439, 0.1573496311903, 0.17729279398918152, -0.04467519745230675, 0.022246412932872772, 0.08748047053813934, 0.42691123485565186, -0.15935514867305756, -0.2015727162361145, -0.13447004556655884, -0.01847197860479355, -0.003644817741587758, -0.25023311376571655, -0.0072545637376606464, 0.01611851155757904, -0.14664626121520996, -0.26228728890419006, 0.21704605221748352, 0.11845250427722931, -0.1600099802017212], [0.025228431448340416, 0.10672139376401901, 0.016306277364492416, 0.15983876585960388, 0.06444807350635529, -0.2195226550102234, -0.2155447155237198, 0.3013354241847992, -0.5686892867088318, 0.12064049392938614, 0.05343897268176079, -0.39546850323677063, 0.1676488071680069, -0.2452833503484726, 0.05529123544692993, 0.28360119462013245, 0.18227671086788177, -0.10611535608768463, 0.1944088637828827, 0.11208206415176392, 0.07384318113327026, 0.22376176714897156, 0.15420807898044586, 0.23912321031093597, -0.12436923384666443, -0.056281447410583496, 0.14836496114730835, 0.062350817024707794, -0.02711610496044159, 0.1634322851896286, -0.23367935419082642, 0.190900981426239, 0.021110717207193375, -0.11611440777778625, -0.20757806301116943, 0.10853099077939987, -0.19096216559410095, 0.10595878213644028, 0.22368654608726501, 0.06473606824874878, 0.23527920246124268, -0.34401512145996094, -0.08743458986282349, -0.1395265907049179, 0.003768516005948186, 0.3277272880077362, 0.0508253239095211, -0.08403445035219193], [0.09959305822849274, -0.036192886531353, -0.01234308909624815, 0.17858761548995972, 0.28929105401039124, 0.24663756787776947, 0.04205743595957756, -0.16660162806510925, -0.03749394416809082, -0.057750992476940155, -0.0062947659753263, -0.06518803536891937, 0.021708568558096886, -0.13798408210277557, 0.23564715683460236, -0.1164347305893898, -0.14469633996486664, -0.18123619258403778, -0.05485362559556961, -0.13327795267105103, -0.3381950259208679, 0.012864939868450165, 0.1547144204378128, -0.13589918613433838, 0.053422607481479645, -0.13816581666469574, -0.145083948969841, -0.04176711291074753, -0.08796127885580063, -0.338427871465683, 0.2350654900074005, -0.09039153903722763, -0.0025725034065544605, -0.10162917524576187, 0.03640797734260559, -0.09004253149032593, -0.491173654794693, -0.2547251582145691, -0.061419714242219925, -0.01760907657444477, 0.22523677349090576, -0.07116751372814178, 0.21857024729251862, -0.06900090724229813, -0.024769088253378868, -0.10820610821247101, 0.2433449923992157, -0.07420911639928818], [0.08320806175470352, 0.16791009902954102, 0.11448214203119278, -0.19804604351520538, -0.009437483735382557, 0.04282650724053383, -0.10334462672472, 0.14783339202404022, 0.13833419978618622, 0.028110884130001068, -0.034615859389305115, -0.3723110854625702, 0.0033985089976340532, 0.01531807892024517, 0.16066433489322662, 0.011635535396635532, 0.5255880951881409, 0.08703631907701492, -0.06754350662231445, -0.4225669801235199, -0.01615769788622856, 0.15430548787117004, 0.18839623034000397, -0.03618878498673439, 0.07630853354930878, -0.5165668725967407, -0.39621493220329285, -0.06021387502551079, -0.1436845362186432, -0.026738865301012993, 0.06456314772367477, -0.028320157900452614, -0.11545263975858688, -0.06618127226829529, 0.04623454436659813, -0.10634847730398178, 0.24348321557044983, 0.0960916131734848, 0.02571847103536129, -0.09458418190479279, -0.09407496452331543, -0.15754260122776031, -0.295693039894104, -0.2777549922466278, 0.21489959955215454, -0.29584237933158875, -0.2072395533323288, -0.05618610605597496], [0.26423266530036926, -0.1910393238067627, 0.12512214481830597, -0.10163424909114838, -0.0033723218366503716, 0.22778140008449554, 0.030089644715189934, -0.05949262157082558, -0.25959277153015137, -0.22278675436973572, -0.03220674395561218, 0.1606648862361908, 0.06997748464345932, -0.3147999048233032, 0.17206169664859772, 0.03990859165787697, -0.051965173333883286, -0.08806031942367554, 0.21956166625022888, -0.04357471689581871, -0.18541426956653595, -0.11913333833217621, 0.22967836260795593, -0.03584572672843933, -0.10714364051818848, 0.04045740142464638, 0.19054889678955078, -0.03451697528362274, -0.18221265077590942, -0.0427015945315361, 0.014958697371184826, 0.005433220416307449, -0.38802632689476013, -0.005582761485129595, -0.3769594430923462, 0.08065330237150192, -0.49147942662239075, 0.03600245714187622, -0.22551071643829346, 0.02631477266550064, 0.010661556385457516, -0.12782827019691467, 0.18791277706623077, -0.16114602982997894, -0.21848426759243011, 0.11093493551015854, -0.0416695736348629, 0.10264675319194794], [-0.11963905394077301, 0.05463738739490509, -0.39927923679351807, -0.0008764961967244744, 0.10787412524223328, 0.015370165929198265, 0.00649968720972538, -0.03214274346828461, 0.08531615883111954, -0.18992532789707184, -0.09007644653320312, -0.011818917468190193, 0.142433300614357, -0.18215638399124146, 0.013497957028448582, -0.029726166278123856, -0.09432419389486313, -0.24124522507190704, -0.06045760214328766, -0.1403922438621521, 0.42793595790863037, -0.16900944709777832, -0.1819525510072708, 0.07023302465677261, -0.31378373503685, -0.019538285210728645, -0.34623607993125916, -0.07257913053035736, 0.3700118064880371, -0.3516947329044342, -0.29015910625457764, 0.026563342660665512, -0.1418953239917755, -0.01941082254052162, 0.08606111258268356, 0.07730823010206223, 0.04146181792020798, -0.07948997616767883, -0.25311124324798584, -0.11874161660671234, -0.1361638307571411, -0.16444455087184906, -0.03073682263493538, 0.15790925920009613, 0.03942590951919556, -0.03898907080292702, -0.03284155949950218, -0.05528232082724571], [-0.08996526151895523, -0.1605290025472641, 0.09055712074041367, 0.02414156123995781, -0.24769866466522217, -0.07776585966348648, -0.25593167543411255, 0.12782160937786102, 0.046623293310403824, -0.07439671456813812, 0.11197830736637115, 0.04373173415660858, -0.4053969383239746, -0.1515335738658905, -0.4192720055580139, 0.00685822544619441, -4.546654599835165e-05, -0.23401930928230286, -0.0905255451798439, -0.03985963016748428, 0.116542287170887, -0.21712712943553925, 0.3759230971336365, 0.02689289301633835, 0.003763701766729355, -0.11824982613325119, -0.052131686359643936, 0.04693539813160896, -0.08049145340919495, -0.16762135922908783, -0.1325685977935791, 0.0666499212384224, -0.14191213250160217, -0.04101947322487831, -0.016405532136559486, 0.015641262754797935, -0.14360854029655457, -0.36954301595687866, -0.09701448678970337, 0.13089589774608612, 0.04176805168390274, -0.05371973663568497, 0.36798521876335144, -0.013952171429991722, -0.22817999124526978, -0.005943787284195423, 0.010908490978181362, 0.10729262977838516], [0.03290443494915962, 0.06645087897777557, -0.20766136050224304, -0.27326756715774536, -0.005603437311947346, 0.011733505874872208, 0.06537161767482758, 0.014416567981243134, -0.04851578176021576, 0.08982640504837036, -0.12730610370635986, 0.11916804313659668, 0.07647652924060822, 0.11189830303192139, -0.04516904056072235, 0.039145078510046005, -0.055998314172029495, -0.31929466128349304, -0.20401425659656525, 0.17604321241378784, -0.1524161547422409, 0.12646378576755524, -0.1398072987794876, 0.011706968769431114, 0.23172111809253693, -0.012513258494436741, 0.09633546322584152, -0.2098764032125473, 0.05313631147146225, -0.05767452344298363, 0.18691222369670868, 0.1538436859846115, -0.2429664433002472, -0.2792133390903473, -0.021153524518013, 0.09197131544351578, 0.0843203067779541, 0.16185757517814636, 0.1585541069507599, 0.1650265008211136, -0.11105799674987793, 0.060899727046489716, 0.010263663716614246, -0.3039759695529938, -0.19440782070159912, -0.026917116716504097, 0.24555501341819763, 0.31751954555511475], [0.08905965834856033, 0.027258554473519325, 0.031191304326057434, -0.4319857358932495, -0.10933765023946762, 0.10671596974134445, -0.1693725734949112, -0.23712985217571259, 0.04224356263875961, 0.13101798295974731, -0.008442027494311333, -0.07411172240972519, -0.19992762804031372, 0.11652276664972305, 0.17725327610969543, -0.04676353558897972, -0.19895662367343903, -0.1670278161764145, -0.288708359003067, -0.07196229696273804, -0.04944150894880295, -0.14131425321102142, 0.2462107539176941, 0.06971648335456848, 0.01868525706231594, 0.025268107652664185, -0.009437402710318565, 0.0017711360706016421, 0.13825497031211853, -0.2471466362476349, 0.01858930103480816, -0.0387241505086422, -0.06323765963315964, 0.28465136885643005, -0.08478828519582748, -0.17434042692184448, -0.05657719448208809, 0.10890991240739822, -0.14474903047084808, -0.036124903708696365, -0.2731054127216339, -0.08203653991222382, -0.0584365613758564, 0.004970005247741938, 0.18973788619041443, 0.20531602203845978, -0.48385345935821533, 0.200985386967659], [0.27133873105049133, 0.21822965145111084, -0.24570125341415405, -0.046413619071245193, 0.033847324550151825, -0.04814871400594711, -0.10798329859972, -0.025107095018029213, -0.07433611899614334, -0.09110826998949051, 0.06558066606521606, 0.0037945080548524857, 0.015342945232987404, 0.3350461423397064, -0.1632467657327652, -0.07491306215524673, -0.09826339781284332, -0.07711715251207352, 0.0898304134607315, -0.05884552374482155, 0.2525700628757477, 0.10028725117444992, 0.3463848829269409, 0.01670672371983528, 0.08462035655975342, 0.330846905708313, -0.018368657678365707, -0.2126622200012207, 0.18161268532276154, -0.30931466817855835, -0.022680971771478653, -0.08682215213775635, -0.13608387112617493, -0.07524401694536209, 0.044150009751319885, -0.04901709407567978, 0.031069988384842873, 0.08559233695268631, -0.019019724801182747, 0.12455066293478012, 0.17303216457366943, -0.09042834490537643, -0.14423558115959167, -0.1549876481294632, -0.17742931842803955, 0.16330263018608093, 0.09142673760652542, 0.06581475585699081], [-0.10525766015052795, 0.031026547774672508, -0.07245516031980515, 0.16251340508460999, -0.07163283228874207, -0.391327828168869, 0.12058641761541367, -0.026568058878183365, 0.200022891163826, 0.25746509432792664, 0.33636677265167236, -0.06395638734102249, 0.19956953823566437, 0.20084130764007568, 0.10690400004386902, 0.12087415903806686, 0.35368460416793823, 0.05318744108080864, 0.07373035699129105, -0.05004332214593887, -0.070026695728302, 0.006948425900191069, 0.12156085669994354, 0.01124140527099371, -0.08114738017320633, -0.12560425698757172, 0.00471105333417654, -0.10022802650928497, 0.028355831280350685, 0.16316348314285278, 0.08877959847450256, 0.14558914303779602, 0.060079485177993774, 0.07429398596286774, 0.16249501705169678, -0.07806751132011414, 0.00567672261968255, 0.09127205610275269, 0.06964153796434402, 0.25991541147232056, 0.0028200424276292324, -0.03387940675020218, -0.2207253873348236, 0.014307483099400997, 0.2757349908351898, 0.04013928025960922, -0.002955781761556864, 0.21825793385505676], [-0.0759708508849144, 0.18700219690799713, 0.12303225696086884, -0.12116300314664841, -0.2634710669517517, 0.048449743539094925, -0.0010283830342814326, 0.055195655673742294, -0.09092862904071808, 0.13537245988845825, -0.13443033397197723, -0.3825330138206482, 0.04368067532777786, 0.11810188740491867, -0.15009702742099762, -0.09206829965114594, 0.2613172233104706, 0.11279331892728806, -0.3498494029045105, -0.1716809719800949, -0.17442955076694489, -0.09691469371318817, 0.013592369854450226, 0.029608560726046562, 0.04856723174452782, 0.2941676378250122, -0.46435248851776123, 0.2748590111732483, -0.07464513182640076, 0.34480515122413635, -0.18073491752147675, 0.04966389015316963, 0.05028419569134712, 0.156982421875, -0.08420426398515701, -0.2742544114589691, -0.128170907497406, 0.15617485344409943, 0.13885869085788727, -0.0691145807504654, -0.04650720953941345, -0.16167068481445312, 0.21645620465278625, 0.09069773554801941, 0.3420925438404083, -0.08564721047878265, -0.012611973099410534, 0.1377643644809723], [-0.33996647596359253, -0.08880739659070969, 0.1236402839422226, -0.11146224290132523, -0.13045035302639008, -0.013902855105698109, -0.27590253949165344, -0.1349060982465744, -0.08370330929756165, 0.02763690985739231, 0.027836866676807404, -0.10977692902088165, -0.18355540931224823, -0.2440149188041687, 0.003572135930880904, -0.028610078617930412, -0.17542168498039246, -0.31117576360702515, -0.23794950544834137, -0.026492001488804817, 0.19072790443897247, -0.09376023709774017, 0.04023975133895874, -0.05796567723155022, -0.05555091053247452, -0.14561200141906738, -0.17407383024692535, -0.2729598879814148, 0.05507573485374451, -0.17811456322669983, 0.18163564801216125, 0.05662026256322861, -0.09457441419363022, 0.3203014135360718, 0.017613625153899193, 0.026954341679811478, 0.26699504256248474, -0.20216858386993408, -0.1480567753314972, 0.08798136562108994, -0.08610108494758606, 0.04326358065009117, -0.11606180667877197, 0.142855703830719, -0.24378517270088196, -0.15524660050868988, 0.1390175223350525, 0.11274420469999313], [0.30658844113349915, -0.1305576115846634, -0.2547544240951538, -0.053617510944604874, 0.06069376319646835, 0.1299470067024231, -0.12163570523262024, -0.06860048323869705, 0.07631327956914902, -0.18218937516212463, -0.30681002140045166, -0.33195897936820984, -0.14568457007408142, -0.1272890567779541, -0.051166802644729614, -0.036936383694410324, 0.12811264395713806, 0.020115213468670845, -0.48320820927619934, 0.10222381353378296, -0.2960757911205292, -0.20696507394313812, -0.21440769731998444, -0.06170279160141945, 0.11056710034608841, -0.11440818011760712, -0.27368414402008057, -0.11345885694026947, -0.10319775342941284, -0.13509181141853333, 0.28378498554229736, 0.05215474218130112, 0.09507065266370773, -0.08532047271728516, 0.35564252734184265, 0.11150602251291275, 0.0016762312734499574, -0.18528056144714355, 0.01715586520731449, -0.044566038995981216, 0.12120728194713593, 0.21647833287715912, -0.21229147911071777, -0.028268663212656975, 0.12888304889202118, -0.19014286994934082, -0.3459588289260864, 0.05196801573038101], [-0.017756527289748192, -0.14839047193527222, 0.2418200820684433, -0.04027070477604866, 0.20318765938282013, -0.06288566440343857, -0.1982576549053192, -0.2578299343585968, -0.29159316420555115, -0.08378107100725174, -0.31964796781539917, -0.0418587401509285, -0.22212693095207214, -0.009903470985591412, -0.11780625581741333, -0.13867388665676117, -0.11390907317399979, -0.033688679337501526, -0.051873594522476196, 0.23082947731018066, 0.002017630496993661, -0.04613323137164116, -0.27205324172973633, -0.08629617840051651, -0.18842273950576782, 0.04414275288581848, 0.13129723072052002, -0.09256312251091003, 0.030258597806096077, 0.18433231115341187, -0.006808450911194086, -0.11208202689886093, -0.1492648869752884, -0.09999880939722061, -0.0005412150057964027, -0.3504841923713684, -0.18705540895462036, -0.09687945991754532, 0.22107335925102234, 0.068141870200634, -0.09592936187982559, 0.07431349158287048, -0.16719509661197662, -0.05350450426340103, -0.08282805234193802, 0.24110212922096252, -0.06537327915430069, 0.09564126282930374], [-0.27198636531829834, 0.27350378036499023, 0.05978795140981674, -0.2815476059913635, -0.3409254252910614, -0.14300036430358887, -0.271483451128006, -0.09474784135818481, -0.3637046813964844, 0.09127110987901688, -0.25710025429725647, -0.2747595012187958, 0.13984790444374084, 0.11849309504032135, 0.029540717601776123, -0.16310709714889526, 0.0027391233015805483, -0.027218062430620193, -0.04442811384797096, 0.13629691302776337, -0.08429450541734695, -0.2526954710483551, 0.10478432476520538, -0.07783814519643784, -0.22660499811172485, -0.2617966830730438, 0.11530140787363052, -0.21197110414505005, -0.0036365564446896315, 0.11120671033859253, -0.04208553582429886, 0.02358034998178482, -0.10455083101987839, -0.3130395710468292, -0.23911572992801666, 0.06476092338562012, -0.2911933362483978, -0.05157654732465744, -0.06232742592692375, 0.021793385967612267, -0.1319231539964676, -0.05694139003753662, -0.10981009900569916, -0.033393729478120804, -0.10623578727245331, -0.14380691945552826, -0.04499048367142677, 0.18329356610774994], [-0.33692467212677, -0.01762348972260952, -0.2698086202144623, -0.10080531984567642, -0.03315811976790428, 0.11644615232944489, -0.23291634023189545, -0.22186356782913208, -0.19723336398601532, 0.20792999863624573, -0.10701055079698563, 0.032011035829782486, 0.3534030318260193, -0.22850298881530762, 0.05481309816241264, -0.1586519181728363, 0.3142875134944916, -0.19961592555046082, 0.30028271675109863, -0.040525928139686584, 0.06627946346998215, 0.13281641900539398, -0.2246415615081787, 0.014680474996566772, 0.04495374858379364, -0.20315836369991302, 0.14849884808063507, 0.07245925068855286, 0.3316055238246918, 0.24553699791431427, -0.2362816482782364, -0.043870870023965836, 0.26078614592552185, -0.17068059742450714, 0.06829987466335297, 0.15815672278404236, 0.0006916983402334154, -0.0022924637887626886, -0.06192294880747795, 0.040994517505168915, 0.028772924095392227, 0.04439398646354675, 0.2574329674243927, 0.0465717613697052, 0.10866863280534744, 0.21098759770393372, 0.0477546788752079, -0.005484594032168388], [0.1540113240480423, -0.16343951225280762, -0.10619530826807022, -0.07968203723430634, -0.2304041087627411, 0.10388462990522385, -0.01604674942791462, -0.005601507145911455, -0.1507997363805771, -0.2560424208641052, -0.3571988046169281, -0.031829848885536194, -0.14899148046970367, -0.33706432580947876, -0.3273988962173462, -0.06346756219863892, 0.31946423649787903, 0.06192236393690109, 0.2679597735404968, -0.10761643201112747, 0.15908999741077423, 0.06364141404628754, -0.18967728316783905, -0.09015834331512451, 0.07992252707481384, -0.07626897841691971, 0.20422574877738953, -0.0048891655169427395, -0.3338642120361328, -0.21210043132305145, -0.033895399421453476, 0.03179618716239929, 0.19926941394805908, 0.27473482489585876, 0.14096808433532715, -0.15210187435150146, -0.13505372405052185, 0.017413228750228882, -0.007483658380806446, 0.009361417032778263, 0.04290986806154251, -0.012584405951201916, -0.054637614637613297, 0.09837233275175095, 0.0553261823952198, -0.2379947006702423, -0.33577582240104675, 0.08154931664466858], [-0.07306595146656036, 0.07784460484981537, -0.150864377617836, -0.06956550478935242, 0.24979573488235474, 0.016959233209490776, -0.1414579302072525, 0.10328894853591919, -0.03380883112549782, -0.05392225459218025, 0.172761008143425, -0.6085021495819092, 0.0638696551322937, -0.07017919421195984, 0.0019622023683041334, 0.11703678965568542, 0.02092883363366127, -0.37796616554260254, -0.030736884102225304, -0.20311596989631653, 0.052368275821208954, -0.002535866340622306, -0.4147112965583801, 0.060224585235118866, 0.34424853324890137, 0.2100003957748413, 0.002268056385219097, -0.09921881556510925, -0.3314364552497864, 0.062261082231998444, 0.19595715403556824, -0.04895244166254997, 0.10721982270479202, -0.07331974059343338, 0.16505569219589233, -0.019771620631217957, -0.16478875279426575, -0.05271860584616661, -0.015225850977003574, 0.056282494217157364, 0.09301549941301346, 0.04133952781558037, 0.14997152984142303, -0.3579287827014923, 0.07172805070877075, 0.07997176796197891, 0.2905210852622986, -0.05270828306674957], [-0.09241984784603119, 0.19954851269721985, 0.03825097531080246, -0.1942111849784851, -0.18755386769771576, -0.038692474365234375, 0.26278162002563477, -0.025007124990224838, 0.0035973945632576942, 0.11334381252527237, 0.0011207745410501957, 0.08297882974147797, -0.14141938090324402, -0.30331116914749146, 0.06340085715055466, -0.15105080604553223, 0.30679208040237427, -0.0596306286752224, -0.21656708419322968, -0.32045498490333557, 0.08111381530761719, -0.17214027047157288, -0.04147496446967125, -0.1781255304813385, 0.23307524621486664, -0.12661486864089966, 0.18912310898303986, -0.07022914290428162, -0.0563846230506897, -0.37159088253974915, 0.05571456626057625, -0.07552512735128403, -0.04929960519075394, -0.2825460135936737, -0.36799848079681396, 0.16311480104923248, 0.2946941554546356, -0.11516603827476501, -0.0921606570482254, -0.08865656703710556, 0.028512446209788322, -0.09309212118387222, 0.002668943488970399, 0.22978530824184418, -0.11568338423967361, 0.16139370203018188, -0.028031518682837486, -0.1694764941930771], [-0.1737094670534134, -0.2215413600206375, 0.04626786336302757, 0.06479489058256149, -0.013736373744904995, -0.2500963807106018, -0.44643279910087585, -0.05517573654651642, -0.00011224247282370925, 0.00014952229685150087, -0.16025950014591217, 0.024512410163879395, 0.21521438658237457, -0.13763250410556793, 0.003735383739694953, -0.07686442881822586, 0.11377473920583725, 0.2690858840942383, -0.0391819141805172, 0.015337593853473663, -0.015331611968576908, -0.1602514535188675, -0.01989319548010826, -0.04721354693174362, -0.043440379202365875, 0.11578226089477539, 0.12076735496520996, -0.05710398033261299, -0.07008805871009827, 0.09489556401968002, -0.03097786009311676, 0.09640447050333023, -0.05517199635505676, 0.26222655177116394, 0.09974072128534317, -0.1023230031132698, -0.11054348945617676, 0.010508857667446136, 0.2450581192970276, 0.0030250707641243935, 0.19467534124851227, 0.23464640974998474, -0.1028735339641571, -0.4558105170726776, -0.05476675182580948, 0.10506177693605423, 0.3200642466545105, 0.00924375094473362], [0.015438915230333805, -0.5894524455070496, -0.153368279337883, -0.02117365039885044, 0.26487618684768677, -0.050439901649951935, 0.05478017032146454, -0.10008800774812698, 0.004744453355669975, -0.01513100229203701, 0.01699494570493698, -0.0507894828915596, -0.10305566340684891, 0.03821553662419319, -0.067532479763031, -0.029325509443879128, 0.17431741952896118, -0.14430546760559082, 0.19768834114074707, 0.007902683690190315, -0.14428924024105072, -0.04075353592634201, 0.20429381728172302, 0.06603825092315674, -0.16879849135875702, 0.2830446660518646, -0.21710196137428284, 0.015182482078671455, 0.05091668665409088, -0.2019108533859253, -0.05828481167554855, 0.11199579387903214, -0.19290564954280853, -0.1979375183582306, -0.05774739012122154, -0.04865388199687004, -0.09714553505182266, -0.3316480219364166, -0.0743805468082428, 0.11723370850086212, 0.1634286642074585, -0.10676861554384232, -0.14483612775802612, -0.20802851021289825, -0.05187856778502464, -0.07194496691226959, -0.006952988915145397, 0.07941953837871552], [-0.0766667053103447, -0.37632325291633606, -0.3616296350955963, -0.2662225663661957, 0.07124436646699905, 0.09830356389284134, -0.28150299191474915, -0.05022609978914261, 0.07022877037525177, 0.3101346492767334, 0.19515737891197205, -0.012459211982786655, -0.036061614751815796, -0.28817111253738403, -0.09872574359178543, -0.14152060449123383, -0.05163584649562836, 0.16631047427654266, -0.055070918053388596, -0.04518478736281395, -0.3159194886684418, 0.14538538455963135, -0.07979409396648407, -0.04228444769978523, -0.14029105007648468, -0.19714415073394775, 0.16343683004379272, -0.016941769048571587, -0.014896060340106487, -0.0940219983458519, -0.18703730404376984, 0.026093825697898865, -0.003942239563912153, -0.049480825662612915, 0.06491058319807053, -0.26969534158706665, -0.31267261505126953, -0.03842785209417343, 0.1833008974790573, 0.1393810659646988, -0.13547256588935852, -0.020947637036442757, -0.17225253582000732, 0.15970714390277863, -0.015158465132117271, -0.05001237243413925, 0.2682487368583679, 0.10242898017168045], [0.4637504518032074, 0.04411393404006958, 0.1074303612112999, -0.26729974150657654, -0.35839319229125977, 0.16853728890419006, 0.12801417708396912, 0.02533102035522461, 0.18423320353031158, -0.0678471103310585, 0.02422376163303852, -0.00392151391133666, -0.09772690385580063, 0.05184479430317879, -0.012736637145280838, 0.0006598506588488817, 0.06864417344331741, 0.21721838414669037, 0.1287555694580078, 0.02663015015423298, -0.1259591281414032, 0.04737476631999016, 0.024850739166140556, 0.08711317181587219, 0.10540560632944107, -0.3225540220737457, -0.23365139961242676, -0.017884274944663048, 0.21759045124053955, 0.08407683670520782, -0.11285370588302612, 0.15599089860916138, -0.1409454047679901, -0.023038186132907867, -0.11075270175933838, -0.1072893887758255, 0.09074355661869049, -0.23764243721961975, -0.07800863683223724, 0.17854315042495728, 0.04470362886786461, -0.07732807099819183, -0.05348345637321472, 0.046109478920698166, 0.19822850823402405, 0.1611180156469345, 0.07648048549890518, 0.18003080785274506], [0.19030606746673584, 0.03536811098456383, -0.03972754254937172, -0.12220200896263123, 0.14528535306453705, 0.4590380787849426, 0.20630687475204468, -0.11461412906646729, -0.2297801971435547, 0.15033119916915894, 0.06136011332273483, 0.017843080684542656, 0.03649600222706795, 0.0733601301908493, 0.07668392360210419, -0.17575441300868988, 0.17467918992042542, -0.009239096194505692, 0.2026914656162262, -0.1929616630077362, -0.08290751278400421, -0.007232779636979103, -0.09631501883268356, -0.23161955177783966, 0.08763594925403595, -0.0635998472571373, -0.03527632728219032, 0.10164034366607666, 0.2103290557861328, -0.1850462108850479, -0.041958920657634735, -0.2205858826637268, 0.1540682315826416, 0.04419144243001938, -0.1897447556257248, -0.2525080144405365, 0.14516565203666687, 0.09399757534265518, -0.08933095633983612, -0.29189833998680115, -0.019140254706144333, -0.20619255304336548, -0.18520811200141907, 0.18959872424602509, -0.1312587559223175, 0.15015938878059387, 0.2965749502182007, -0.36140012741088867], [-0.13463301956653595, -0.32264456152915955, 0.26803892850875854, -0.05290988087654114, 0.24317868053913116, -0.33022230863571167, -0.004116038326174021, -0.12860044836997986, 0.06511645764112473, 0.2384432554244995, -0.286082923412323, -0.14489001035690308, 0.01006051991134882, 0.22837932407855988, -0.3209976255893707, -0.1027304083108902, 0.1030130609869957, -0.17516154050827026, -0.09077565371990204, 0.14024263620376587, -0.04218287020921707, 0.05712614953517914, 0.16141022741794586, -0.024192962795495987, -0.2821178436279297, -0.061389751732349396, -0.23526908457279205, -0.1511693149805069, 0.1407703459262848, -0.06460364162921906, -0.2548961937427521, -0.007270722184330225, -0.1960836946964264, 0.041396237909793854, -0.2078511267900467, 0.24345801770687103, -0.14995130896568298, 0.12457403540611267, 0.18336418271064758, 0.0458168089389801, 0.07655428349971771, -0.22516483068466187, -0.01139125321060419, -0.14433448016643524, -0.21076832711696625, -0.11847807466983795, -0.4346379041671753, 0.14740268886089325], [0.08320500701665878, -0.02464708685874939, -0.0744454637169838, -0.4134635627269745, -0.1843317747116089, -0.037506718188524246, -0.01923571340739727, 0.08362947404384613, -0.04712100327014923, -0.11353513598442078, -0.23220422863960266, 0.1794995665550232, 0.10636623948812485, 0.05388760566711426, 0.04680545628070831, 0.07244038581848145, 0.17374491691589355, 0.04828457534313202, -0.31392592191696167, -0.0790502205491066, -0.12494444102048874, -0.0483277291059494, -0.09511122107505798, 0.04221676290035248, 0.3624471426010132, -0.08943794667720795, -0.1535102277994156, -0.0867103859782219, -0.08385901898145676, -0.2767108380794525, 0.11145683377981186, -0.029015760868787766, 0.1340058296918869, -0.3447849154472351, 0.22565414011478424, -0.41399168968200684, 0.20487676560878754, -0.0309537872672081, -0.11036597937345505, -0.025876810774207115, -0.1613197773694992, -0.0004549901932477951, -0.09154441952705383, -0.2615205645561218, -0.09719961881637573, -0.22394560277462006, -0.26013684272766113, -0.15652300417423248], [0.20208178460597992, -0.18453948199748993, -0.29928988218307495, 0.005063340999186039, -0.044164616614580154, -0.06015500798821449, 0.21129663288593292, -0.1452566683292389, 0.28572216629981995, -0.40928781032562256, -0.37340086698532104, -0.15701605379581451, 0.3588767647743225, -0.08656472712755203, 0.23630204796791077, 0.010848776437342167, 0.10685259103775024, -0.21396061778068542, -0.05919649079442024, -0.3227779269218445, -0.08477690815925598, -0.10600509494543076, 0.10410937666893005, 0.05028428137302399, 0.03486289456486702, 0.05023983493447304, -0.10144127905368805, -0.015723450109362602, 0.06839717924594879, 0.017484581097960472, -0.07910935580730438, 0.10734450072050095, -0.1403989940881729, -0.033731602132320404, -0.09187541902065277, 0.06378622353076935, 0.06505804508924484, -0.3716363310813904, -0.03530210629105568, 0.042744748294353485, -0.17886541783809662, -0.032733552157878876, 0.021021462976932526, 0.06633730977773666, 0.09817314893007278, 0.21307587623596191, 0.0269662793725729, 0.039202529937028885], [0.31302410364151, -0.03337100148200989, 0.033536773175001144, -0.30536243319511414, 0.12421955168247223, 0.244741290807724, 0.06443674117326736, 0.002107721520587802, 0.03717571124434471, -0.020916461944580078, 0.08720967173576355, -0.320563942193985, 0.27686598896980286, 0.0033808499574661255, 0.11951129138469696, 0.04117899760603905, 0.2625311017036438, 0.26477640867233276, -0.16834591329097748, 0.03395343944430351, 0.2963123917579651, 0.39740002155303955, -0.3188706636428833, -0.06363785266876221, 0.03376207873225212, 0.0629020631313324, -0.028483016416430473, 0.11035002022981644, -0.12473335862159729, 0.37804117798805237, -0.12449931353330612, -0.018021509051322937, -0.007215637248009443, -0.17402371764183044, 0.09765530377626419, -0.103216253221035, 0.02876250259578228, 0.028653666377067566, -0.062148500233888626, 0.020858485251665115, -0.04026307538151741, 0.09105361253023148, 0.028809713199734688, -0.06966859847307205, 0.09542371332645416, 0.01969095505774021, 0.06416865438222885, 0.08815333992242813], [-0.02140073850750923, 0.013991978950798512, -0.2842225134372711, 0.011121121235191822, 0.23222309350967407, 0.335095077753067, -0.23173809051513672, 0.07328260689973831, 0.1353723257780075, 0.23685482144355774, 0.07416954636573792, 0.12164172530174255, 0.16145336627960205, 0.2687927484512329, 0.06471817940473557, -0.009004718624055386, -0.21066664159297943, 0.2538849413394928, -0.058939069509506226, -0.005429551471024752, -0.18166257441043854, 0.11821479350328445, 0.03553587943315506, 0.045500367879867554, 0.25087812542915344, 0.21851448714733124, -0.04466434568166733, -0.09715446829795837, 0.04724236577749252, -0.17225004732608795, -0.15468981862068176, 0.05658905580639839, 0.13595008850097656, 0.2597956657409668, -0.03096941113471985, 0.07806626707315445, 0.12835875153541565, -0.13471904397010803, 0.12926152348518372, -0.05002890154719353, -0.31934115290641785, 0.23577409982681274, 0.0423116534948349, 0.18826082348823547, -0.013468784280121326, 0.39672303199768066, -0.10391853749752045, -0.025989752262830734], [-0.016366785392165184, -0.266441285610199, 0.08351776748895645, 0.13539566099643707, 0.29087141156196594, -0.13420537114143372, -0.15688727796077728, -0.032025329768657684, 0.11564303189516068, -0.014280472882091999, -0.09541265666484833, 0.0346682034432888, -0.2635725736618042, -0.028486046940088272, 0.2391194999217987, -0.051617637276649475, 0.10529698431491852, 0.10867195576429367, 0.15954218804836273, 0.06031761318445206, -0.2582780420780182, -0.11399167031049728, 0.08362412452697754, -0.11733396351337433, 0.05093170329928398, 0.11919129639863968, -0.21105968952178955, -0.16185513138771057, 0.030539901927113533, -0.1286032497882843, -0.4299453794956207, -0.062286294996738434, 0.22063489258289337, -0.19554436206817627, -0.06046786159276962, -0.27016982436180115, 0.27906033396720886, 0.05666987970471382, -0.01264115795493126, 0.06834866851568222, 0.3436605632305145, 0.1125442162156105, -0.1409272402524948, 0.0029735940042883158, 0.18799780309200287, 0.02746196649968624, 0.09313762933015823, 0.04010144993662834], [0.13077808916568756, -0.2036796659231186, 0.1555323451757431, 0.015932606533169746, -0.003905028337612748, 0.11015831679105759, 0.022902127355337143, -0.022440358996391296, -0.38325783610343933, -0.3973454535007477, 0.14439576864242554, 0.023728877305984497, -0.05853167548775673, 0.24445198476314545, -0.22627510130405426, -0.037683501839637756, -0.04086917266249657, -0.3213547468185425, -0.3374923765659332, -0.11254769563674927, 0.2685406804084778, -0.3073780834674835, -0.06429056823253632, -0.04124150425195694, 0.18026331067085266, -0.3868725299835205, -0.1506517231464386, -0.26396629214286804, -0.1289372593164444, -0.07049216330051422, -0.178690105676651, -0.03323638066649437, -0.027803029865026474, -0.09879747778177261, 0.20314966142177582, -0.04487331584095955, -0.1402662992477417, -0.10990028083324432, -0.18454083800315857, 0.033619705587625504, 0.08897732198238373, -0.3994590938091278, -0.0713920071721077, 0.005303600337356329, -0.06153109297156334, -0.10483232140541077, -0.013004781678318977, 0.14322641491889954], [0.2388555258512497, 0.09871910512447357, -0.10995485633611679, -0.05288686230778694, -0.08970420807600021, -0.19395053386688232, 0.13861863315105438, -0.03690888732671738, 0.07823789119720459, -0.48783227801322937, 0.027247438207268715, -0.14187856018543243, -0.32293879985809326, 0.1692109853029251, -0.15122221410274506, 0.07012513279914856, 0.2325131744146347, 0.09557094424962997, 0.07167617976665497, -0.18236951529979706, -0.26732301712036133, -0.21138009428977966, -0.03495050594210625, -0.07560025155544281, -0.2585426867008209, -0.38779956102371216, -0.38139623403549194, -0.15222196280956268, 0.23289522528648376, 0.0013956804759800434, -0.04025614261627197, -0.01719866320490837, -0.04592190310359001, -0.2577439248561859, 0.09890381991863251, -0.15871064364910126, -0.1946830153465271, 0.025810811668634415, -0.172443687915802, 0.08682635426521301, 0.17695629596710205, -0.29779401421546936, -0.3928816020488739, 0.02375686541199684, -0.10268211364746094, 0.24132850766181946, 0.008663569577038288, -0.052934303879737854], [0.1889411211013794, -0.10568597912788391, 0.18380630016326904, -0.17017529904842377, -0.15788887441158295, -0.13145321607589722, 0.10887660831212997, -0.1250304877758026, 0.04444267600774765, -0.052138540893793106, -0.1901109516620636, 0.25806325674057007, -0.14950859546661377, -0.2605281472206116, -0.0869344100356102, -0.13785983622074127, 0.19098037481307983, -0.04385719075798988, 0.4421926736831665, 0.09871305525302887, -0.05343654751777649, 0.15244925022125244, -0.04333345592021942, 0.01023708563297987, -0.34219592809677124, -0.20877307653427124, -0.11080875992774963, -0.0828387588262558, -0.135792538523674, -0.029982419684529305, 0.3347606360912323, 0.000791318598203361, 0.19373328983783722, -0.06941132247447968, 0.08027994632720947, 0.1779203563928604, 0.13729140162467957, -0.12292833626270294, -0.014801549725234509, 0.07041678577661514, 0.10723645985126495, 0.2190013825893402, -0.08862269669771194, -0.3219923973083496, -0.08134879916906357, -0.14821721613407135, -0.2241632044315338, 0.16786392033100128], [0.1046953871846199, -0.03939597308635712, 0.09311681240797043, -0.00133239827118814, 0.22088733315467834, -0.026258038356900215, 0.10818977653980255, -0.05695609003305435, 0.22895769774913788, -0.1770768165588379, -0.3633658289909363, -0.10919558256864548, 0.38453108072280884, -0.10828723013401031, 0.07728734612464905, 0.017727117985486984, -0.09460972994565964, 0.05298664793372154, 0.28704509139060974, 0.024263160303235054, -0.131661519408226, 0.019159602001309395, -0.23733283579349518, -0.03856486827135086, -0.24322399497032166, -0.39918285608291626, -0.11861713975667953, -0.09899888932704926, 0.005267312750220299, -0.13094019889831543, -0.30905768275260925, -0.0710131824016571, 0.07676376402378082, -0.14864136278629303, 0.14299443364143372, -0.3156270682811737, -0.21572628617286682, 0.16822558641433716, -0.2277088761329651, -0.008526148274540901, -0.13727355003356934, -0.24360200762748718, -0.33306068181991577, -0.10676867514848709, -0.14759434759616852, -0.09156575053930283, -0.1052873507142067, -0.0528254359960556], [-0.2062510848045349, -0.10829361528158188, -0.5472191572189331, 0.06252377480268478, -0.24349792301654816, -0.09134667366743088, 0.2351188063621521, 0.07628654688596725, -0.29368123412132263, 0.13563628494739532, 0.06379193067550659, 0.06899307668209076, 0.13771231472492218, -0.2412751466035843, 0.046656861901283264, 0.10725411027669907, -0.10571551322937012, 0.11411386728286743, -0.16989025473594666, 0.31418710947036743, -0.17443935573101044, -0.35538429021835327, -0.010869162157177925, 0.04495987296104431, 0.1519276648759842, 0.1123851016163826, 0.18133695423603058, 0.1803112030029297, -0.02410096488893032, -0.4482712149620056, 0.04749520495533943, -0.12379462271928787, -0.09479336440563202, 0.040350541472435, -0.2837412655353546, 0.22211603820323944, 0.16412034630775452, -0.5425367951393127, 0.06921469420194626, -0.1464475691318512, -0.02988271228969097, -0.08416754752397537, -0.17663823068141937, -0.23416690528392792, -0.14728549122810364, 0.05294499918818474, -0.012791133485734463, -0.1002451628446579], [-0.08822958171367645, 0.26973840594291687, -0.027955854311585426, 0.053039245307445526, -0.08148302137851715, -0.5640949606895447, -0.04247504100203514, 0.004276760853827, -0.21783152222633362, 0.273848295211792, -0.08718151599168777, -0.15572164952754974, 0.16469617187976837, 0.049061037600040436, 0.07778789103031158, 0.12648826837539673, -0.1158372238278389, -0.3399001955986023, 0.02608487568795681, 0.021329466253519058, 0.17332182824611664, -0.36724790930747986, 0.2613935172557831, -0.08716284483671188, -0.042733483016490936, 0.2990701198577881, -0.1738026887178421, -0.319961279630661, 0.2778765857219696, -0.05045296996831894, -0.07775663584470749, -0.10107584297657013, -0.12483823299407959, -0.016759024932980537, 0.09563318639993668, -0.023639746010303497, -0.11524461209774017, -0.16889943182468414, -0.03154684975743294, -0.000503807736095041, -0.07999062538146973, -0.00741196284070611, 0.00317357387393713, 0.040979448705911636, -0.04554586112499237, -0.014648228883743286, -0.16608770191669464, -0.10882142931222916], [0.030807053670287132, -0.2799495756626129, -0.05574440211057663, 0.0093388045206666, 0.29445043206214905, 0.09596485644578934, 0.06553874909877777, -0.1342649608850479, -0.14249920845031738, 0.030646923929452896, -0.11886876076459885, -0.28435274958610535, 0.016349200159311295, 0.0010056601604446769, -0.2115744799375534, 0.028093155473470688, -0.03147374093532562, 0.24361473321914673, 0.03669748082756996, -0.309010773897171, -0.09089144319295883, 0.15777556598186493, 0.21352580189704895, -0.051845964044332504, 0.14966213703155518, -0.14612780511379242, -0.24694879353046417, 0.1465567648410797, -0.1072840616106987, 0.20026043057441711, 0.08621044456958771, -0.05225051939487457, 0.066286601126194, 0.1329842507839203, 0.14344002306461334, 0.06418861448764801, 0.2422073781490326, -0.2376893013715744, -0.08444737643003464, 0.028384145349264145, 0.2983487844467163, 0.26726195216178894, 0.059108320623636246, -0.0018439027480781078, 0.13364499807357788, 0.2711200714111328, -0.0619245320558548, 0.13894078135490417], [0.020461779087781906, -0.012155067175626755, -0.29711124300956726, -0.14283567667007446, 0.1483677327632904, -0.002672292059287429, 0.0631057471036911, -0.168515145778656, 0.06369534879922867, -0.11129909008741379, 0.03068937361240387, -0.01452304981648922, 0.030011577531695366, 0.2450033277273178, -0.07451800256967545, -0.09964446723461151, 0.14635173976421356, 0.10965234786272049, 0.23364894092082977, -0.11118566244840622, -0.21417933702468872, 0.08105884492397308, -0.13809585571289062, 0.03709697350859642, -0.011883125640451908, -0.046836983412504196, -0.08132456243038177, -0.22785831987857819, -0.16215606033802032, 0.4501309096813202, 0.11462283879518509, -0.09009049832820892, -0.2803533971309662, -0.25086894631385803, -0.3520139753818512, 0.10737589746713638, 0.04030528664588928, 0.24253062903881073, 0.14457674324512482, -0.017870735377073288, -0.22155137360095978, -0.09980233758687973, 0.07930005341768265, 0.07818096876144409, 0.21227732300758362, 0.07437846064567566, -0.20167900621891022, 0.10285279899835587], [0.18540795147418976, 0.25151586532592773, 0.39166316390037537, -0.19168062508106232, -0.0021524501498788595, -0.02042451500892639, 0.22502689063549042, -0.209920734167099, 0.13166610896587372, 0.017506541684269905, 0.23473231494426727, 0.11243888735771179, -0.006607459392398596, 0.06652136147022247, 0.061917856335639954, -0.15338873863220215, 0.07354513555765152, -0.04504799097776413, 0.1849086880683899, 0.012826974503695965, 0.1092134416103363, 0.09953378885984421, 0.0437537282705307, -0.09892313182353973, 0.07678267359733582, 0.05458361655473709, 0.19611461460590363, -0.2582463324069977, -0.1487204134464264, -0.4030974209308624, -0.07973871380090714, -0.049225009977817535, 0.25721868872642517, 0.2431482970714569, 0.050077345222234726, 0.09467335045337677, 0.3633841276168823, -0.1344165951013565, 0.10087394714355469, -0.01684042252600193, 0.1648704707622528, 0.19928430020809174, -0.3483872711658478, -0.14886465668678284, 0.24021413922309875, -0.039563972502946854, 0.1376451551914215, 0.12269505858421326], [0.1189611479640007, -0.23111096024513245, 0.12834054231643677, 0.07501891255378723, 0.005131944082677364, 0.2837185263633728, 0.026940029114484787, -0.12169753015041351, 0.2608407437801361, 0.012230129912495613, 0.24399809539318085, -0.1609290987253189, -0.11210083216428757, -0.000424592406488955, -0.2592776417732239, -0.11667711287736893, -0.03290356323122978, -0.36802229285240173, -0.16919268667697906, -0.09693192690610886, -0.1311529129743576, -0.3107401132583618, -0.17353375256061554, -0.04487571492791176, 0.17995943129062653, -0.5259544849395752, -0.050428371876478195, -0.10610754042863846, -0.16346581280231476, -0.26890695095062256, -0.3468809127807617, 0.10573777556419373, -0.2552781403064728, -0.42741021513938904, -0.21249622106552124, -0.3049597442150116, -0.1975531280040741, 0.016928957775235176, 0.007247253321111202, 0.028460370376706123, -0.1048588827252388, -0.4329908490180969, -0.024499326944351196, 0.013682495802640915, -0.03531777486205101, 0.10698443651199341, -0.23209653794765472, 0.151237353682518], [-0.12975166738033295, 0.18558575212955475, 0.017391500994563103, 0.10038425028324127, 0.08422213047742844, 0.14945514500141144, -0.2840791940689087, 0.05199563130736351, 0.14473724365234375, -0.2228986769914627, -0.1538265347480774, -0.2059878259897232, 0.31511208415031433, 0.09335882216691971, -0.0840660110116005, 0.04464951902627945, 0.20069649815559387, 0.07182799279689789, 0.040383439511060715, -0.3329891562461853, 0.30417466163635254, -0.16120678186416626, 0.0625959262251854, -0.06217965483665466, 0.3653600513935089, 0.06251872330904007, 0.07649444788694382, 0.03405318781733513, 0.11025632172822952, 0.06202005222439766, -0.19011197984218597, 0.05297305807471275, 0.06876793503761292, 0.19261294603347778, -0.2700922191143036, -0.13214902579784393, -0.19946539402008057, -0.0572468638420105, 0.10338835418224335, -0.07975643128156662, 0.4379725754261017, -0.17194965481758118, -0.012890450656414032, 0.05864424258470535, 0.04255029186606407, 0.13769395649433136, 0.026035049930214882, -0.07381238788366318], [0.35187360644340515, 0.16645774245262146, -0.1889479160308838, -0.006515366490930319, -0.012012787163257599, -0.14089474081993103, 0.007113984320312738, 0.09533511102199554, 0.1059921383857727, 0.09922412782907486, -0.06556221097707748, 0.03288004547357559, 0.027743149548768997, -0.21154573559761047, 0.2979874908924103, 0.08571166545152664, 0.030996544286608696, 0.10244069993495941, -0.0024573870468884706, -0.17791995406150818, 0.22306619584560394, 0.03598424419760704, 0.038689740002155304, 0.02186882309615612, 0.19083625078201294, 0.16909226775169373, -0.195428729057312, 0.19575677812099457, -0.22081983089447021, -0.24168692529201508, -0.1419927179813385, 0.07111276686191559, 0.10808362811803818, -0.21683460474014282, -0.2890683114528656, 0.052963558584451675, 0.028765859082341194, -0.18622715771198273, -0.3110032081604004, 0.037834953516721725, 0.4376869201660156, 0.13998806476593018, 0.023348042741417885, -0.4798881411552429, 0.0037900249008089304, -0.07717811316251755, 0.07380092144012451, -0.04772524535655975], [-0.10114134103059769, 0.15581735968589783, -0.0028842128813266754, 0.041153669357299805, -0.10553181916475296, 0.056774578988552094, -0.20718151330947876, -0.0665203183889389, 0.02114379033446312, -0.3835531175136566, 0.09079065173864365, 0.08643028885126114, 0.10311237722635269, -0.16398026049137115, 0.028940418735146523, 0.01727774739265442, 0.40945813059806824, 0.016011882573366165, 0.024744268506765366, -0.07849029451608658, 0.05423644930124283, -0.3534262478351593, 0.04692085459828377, -0.04228433966636658, 0.4584565758705139, 0.03272270783782005, 0.13248074054718018, 0.03311925008893013, -0.1667085438966751, -0.42725586891174316, -0.031208114698529243, -0.051003776490688324, 0.2769051790237427, -0.3292943239212036, -0.5163329839706421, 0.15556728839874268, 0.1860276311635971, -0.23908385634422302, 0.08095882833003998, 0.05748166888952255, 0.07555761188268661, 0.025313589721918106, -0.17210109531879425, 0.09000588953495026, 0.08411169797182083, 0.0628921389579773, 0.0543837696313858, -0.056891169399023056], [-0.05062863230705261, 0.18094971776008606, -0.04342397674918175, -0.49047017097473145, 0.03426976874470711, -0.062433455139398575, -0.09385328739881516, 0.041693177074193954, 0.15051619708538055, -0.3064708709716797, 0.1229848712682724, -0.26824215054512024, 0.1535007208585739, -0.3877820372581482, 0.20391133427619934, 0.046021267771720886, -0.05455422401428223, 0.06049699708819389, -0.05285269021987915, 0.14362280070781708, -0.04830610007047653, -0.04721686989068985, -0.08317858725786209, 0.043070752173662186, -0.01874895952641964, -0.25636619329452515, -0.14732906222343445, 0.04056400805711746, 0.09277773648500443, -0.20798252522945404, 0.06257573515176773, 0.012723388150334358, -0.14741262793540955, 0.29171663522720337, -0.1266726553440094, -0.037382494658231735, 0.09183720499277115, -0.44183284044265747, -0.0271731186658144, 0.07555034011602402, 0.12730643153190613, 0.003426562761887908, 0.08456312119960785, 0.13948814570903778, 0.10930214822292328, -0.05690016597509384, -0.16187070310115814, 0.0011094649089500308], [0.018470607697963715, -0.142531156539917, -0.4455645680427551, -0.34669846296310425, -0.18223121762275696, 0.2700563967227936, -0.02843073382973671, -0.1837303191423416, -0.010767190717160702, 0.0341605469584465, 0.08230438828468323, -0.1677464097738266, -0.004825192969292402, -0.17526590824127197, -0.16045545041561127, -0.07340406626462936, 0.08609435707330704, 0.021375564858317375, 0.020078735426068306, -0.22005335986614227, -0.14613021910190582, -0.237754687666893, -0.2638562321662903, -0.024561680853366852, 0.03351318836212158, -0.3793112337589264, 0.013074800372123718, 0.19834807515144348, -0.13337673246860504, 0.21482862532138824, -0.05451839417219162, -0.024801770225167274, -0.10210821777582169, -0.30157098174095154, -0.1582043319940567, 0.28399038314819336, -0.30536311864852905, -0.15667486190795898, -0.012229673564434052, -0.005754527635872364, 0.4015466272830963, 0.031047049909830093, 0.10112966597080231, -0.04183647409081459, -0.07836833596229553, -0.04177366942167282, 0.04189634323120117, 0.027667542919516563], [0.22087529301643372, -0.048793990164995193, 0.074152871966362, -0.22492970526218414, -0.1449369639158249, -0.04542914405465126, -0.13619449734687805, -0.20858466625213623, 0.22069542109966278, -0.2478250414133072, -0.555245578289032, -0.3755189776420593, -0.1382881999015808, 0.10692884027957916, -0.1786475032567978, -0.03549428656697273, 0.5039116144180298, 0.03938626870512962, -0.11529041081666946, -0.18189942836761475, 0.2137288898229599, -0.020566988736391068, -0.08872779458761215, -0.16302628815174103, -0.16668181121349335, 0.17358164489269257, -0.03896850720047951, -0.11971589177846909, 0.08190474659204483, 0.042285848408937454, 0.05613191798329353, -0.06950263679027557, 0.0668468251824379, 0.020457394421100616, 0.19114704430103302, 0.13329088687896729, -0.02016262337565422, 0.10727841407060623, 0.006920102518051863, -0.11491604149341583, 0.03558081015944481, -0.21851499378681183, -0.28726741671562195, -0.0066533382050693035, 0.19310146570205688, -0.08131156116724014, 0.0033980929292738438, -0.003403550712391734], [0.03169839829206467, 0.016855686902999878, 0.12040416151285172, 0.12444331496953964, -0.014076356776058674, 0.11071398109197617, 0.06494592130184174, -0.028254926204681396, -0.05114204064011574, 0.07024981826543808, -0.18054434657096863, 0.04266601428389549, -0.2631721794605255, -0.14041896164417267, -0.10098434239625931, -0.07556276768445969, 0.7392432689666748, -0.33016645908355713, 0.0050338744185864925, -0.14562855660915375, -0.3666587769985199, -0.03273496776819229, 0.059572964906692505, -0.04129184037446976, 0.07488769292831421, 0.04006902873516083, -0.010153423063457012, -0.1929014027118683, -0.04519488289952278, 0.09199497848749161, -0.043540146201848984, 0.03274033963680267, -0.05040596053004265, -0.11237583309412003, -0.05364450812339783, 0.1679311990737915, -0.03245941922068596, 0.1821160614490509, -0.19863401353359222, -0.13083289563655853, 0.03230801597237587, -0.26101669669151306, 0.19775308668613434, 0.021706391125917435, -0.33684343099594116, -0.015072065405547619, -0.09420078247785568, -0.10113323479890823], [0.1943398118019104, -0.2846623957157135, 0.04265444725751877, -0.1271194964647293, -0.11388144642114639, 0.04962754249572754, 0.06444384157657623, -0.08624198287725449, 0.5384645462036133, -0.04065672680735588, 0.1453160047531128, 0.15917982161045074, -0.18579545617103577, -0.00034417654387652874, -0.06001724675297737, -0.10671195387840271, -0.1119714006781578, -0.04093540459871292, -0.2642263174057007, 0.020752092823386192, 0.0416734553873539, -0.28671571612358093, 0.18329371511936188, -0.0114470599219203, 0.07544463127851486, -0.047767896205186844, 0.019147971644997597, 0.145286425948143, 0.2689152657985687, -0.2675166130065918, -0.31186386942863464, 0.10470631718635559, 0.0067388988099992275, -0.18290196359157562, -0.07069095224142075, -0.08402196317911148, 0.18621625006198883, 0.11321739107370377, -0.10829274356365204, 0.08707866817712784, 0.0644722655415535, -0.1269732266664505, -0.04881349205970764, -0.10811585187911987, 0.3748476803302765, -0.05350816622376442, -0.23652511835098267, 0.13065224885940552]], "fc1.bias": [-0.004749550949782133, -0.10710117220878601, -0.06697031110525131, -0.02224591188132763, -0.2041894793510437, -0.046565186232328415, 0.18547886610031128, -0.21110686659812927, -0.17028288543224335, -0.1423334926366806, -0.12115563452243805, -0.3708035349845886, -0.15112145245075226, -0.17705246806144714, -0.2282826155424118, 0.14425544440746307, 0.07596851885318756, -0.12755179405212402, 0.23547148704528809, -0.23002204298973083, -0.1205994188785553, -0.06073044613003731, 0.31109488010406494, -0.29087764024734497, -0.1912231594324112, 0.1946992427110672, -0.04168244078755379, -0.02221415378153324, -0.003889478277415037, 0.12254704535007477, -0.22931858897209167, -0.20497287809848785, 0.12144691497087479, -0.022921107709407806, -0.08474043756723404, 0.06566330045461655, -0.3139088451862335, -0.2103785127401352, -0.25341200828552246, 0.04994354397058487, -0.07326854765415192, 0.18827033042907715, -0.38733553886413574, 0.03518080338835716, -0.13447333872318268, 0.05893183872103691, -0.1615181714296341, -0.20538954436779022, -0.10650783777236938, -0.023344065994024277, -0.23360499739646912, 0.08255204558372498, -0.13395527005195618, -0.1796056181192398, -0.21872994303703308, -0.03818746283650398, -0.009136369451880455, 0.29210060834884644, 0.1587936282157898, 0.09659761190414429, 0.008238324895501137, -0.12260372936725616, 0.06461586803197861, -0.19834765791893005], "fc2.weight": [[0.2747579514980316, 0.10358778387308121, -0.0952482670545578, -0.4052288830280304, -0.18368422985076904, -0.14999814331531525, -0.11398347467184067, -0.015022431500256062, 0.22839860618114471, -0.2789027988910675, 0.1589680016040802, -0.4248623549938202, -0.043254151940345764, -0.1815670281648636, -0.004400965292006731, -0.3060101568698883, -0.28894495964050293, 0.11795446276664734, -0.36539599299430847, -0.08275598287582397, -0.1375538855791092, -0.06242970749735832, 0.23466680943965912, 0.1376800537109375, -0.1474805474281311, 0.12006635218858719, 0.13787730038166046, 0.05811299383640289, -0.0335579589009285, 0.0834064781665802, -0.0225276630371809, 0.09555254131555557, 0.08728744089603424, -0.4761177599430084, -0.26355934143066406, 0.1543586254119873, 0.051350101828575134, -0.05663445219397545, -0.10236380249261856, 0.10084618628025055, 0.06994204223155975, 0.07888073474168777, 0.12163697928190231, -0.33098357915878296, -0.12865199148654938, 0.01475237961858511, 0.31697583198547363, -0.09298059344291687, 0.29481667280197144, 0.23852144181728363, -0.12491815537214279, 0.19211649894714355, -0.20299465954303741, -0.2852865159511566, -0.311571329832077, 0.26227548718452454, -0.004345759283751249, 0.10032806545495987, 0.03855074942111969, 0.03651316463947296, 0.16915059089660645, -0.024370890110731125, 0.1804255247116089, 0.07384392619132996], [0.05479976907372475, -0.03201371803879738, 0.10620991885662079, 0.00873304158449173, -0.06841035187244415, 0.10571233928203583, 0.05210951343178749, -0.015459844842553139, 0.10111032426357269, 0.036458179354667664, 0.06089859455823898, 0.014241130091249943, 0.035171028226614, -0.06518357992172241, 0.0652027279138565, 0.07478233426809311, 0.01165525522083044, 0.12823843955993652, 0.015625422820448875, -0.012966160662472248, 0.038200877606868744, 0.13884499669075012, 0.10341621935367584, 0.04528442770242691, 0.0826212540268898, -0.09398145973682404, 0.02647162228822708, 0.03300078585743904, 0.09577743709087372, 0.1171158030629158, 0.03749829903244972, 0.011720338836312294, 0.1129198893904686, 0.1308792233467102, 0.08947401493787766, 0.1252899318933487, 0.01594080962240696, 0.10643988102674484, -0.02565642260015011, -0.15014545619487762, 0.07356671988964081, 0.07637437433004379, 0.04474121704697609, 0.0969323068857193, 0.14631634950637817, 0.17803648114204407, -0.10371123254299164, 0.12423738837242126, 0.07308412343263626, 0.12548953294754028, 0.07031484693288803, 0.043150950223207474, 0.0019533997401595116, 0.06966569274663925, 0.0720500499010086, 0.160200297832489, 0.17530521750450134, 0.06866508722305298, 0.05196205899119377, 0.024414291605353355, -0.0057374825701117516, -0.039786361157894135, 0.05582963675260544, -0.11456383019685745], [0.10362780094146729, -0.2794405519962311, 0.21816036105155945, -2.573012898210436e-05, -0.07681480795145035, 0.1251857876777649, 0.0963754951953888, -0.16721010208129883, 0.018611425533890724, -0.05522700399160385, -0.15470485389232635, -0.001714562182314694, -0.10852153599262238, 0.1023508757352829, -0.18207640945911407, 0.152099609375, -0.15983623266220093, 0.20789213478565216, 0.011739933863282204, 0.12888765335083008, 0.1647609919309616, -0.06791897118091583, -0.031646501272916794, 0.10094958543777466, 0.08672097325325012, -0.022925488650798798, -0.0352482870221138, -0.017994588240981102, 0.1834128051996231, 0.2195681780576706, 0.05308965966105461, 0.13182175159454346, 0.12073177099227905, 0.12615910172462463, 0.23552270233631134, 0.07390200346708298, -0.16213198006153107, 0.0974394753575325, 0.1316068172454834, -0.04642219468951225, 0.1037101298570633, 0.026125997304916382, -0.15947026014328003, 0.14306114614009857, -0.06627138704061508, 0.3108223080635071, -0.0815824568271637, 0.1708105057477951, 0.08238411694765091, 0.08834206312894821, 0.15657775104045868, 0.09214599430561066, -0.04146772250533104, 0.15046706795692444, 0.19732257723808289, 0.2436250001192093, 0.3010044991970062, 0.05454685911536217, -0.024431297555565834, -0.09763827919960022, 0.05675314739346504, -0.011358016170561314, 0.0054872301407158375, -0.32866132259368896], [0.20862311124801636, -0.2828570008277893, 0.13981184363365173, 0.010212532244622707, -0.08616402745246887, 0.011476248502731323, 0.07418136298656464, 0.12715557217597961, 0.12669166922569275, 0.02646302431821823, -0.3286978602409363, 0.17293772101402283, -0.12232600152492523, 0.04608878865838051, 0.07634953409433365, 0.1872609406709671, -0.3033018410205841, -0.03155490383505821, -0.01812879741191864, 0.16493858397006989, -0.08548350632190704, -0.14611689746379852, 0.1260647028684616, 0.13689041137695312, 0.09196097403764725, 0.10731007158756256, 0.16424527764320374, 0.15137870609760284, 0.010751305148005486, -0.015023858286440372, 0.318083256483078, 0.11604414880275726, 0.14462512731552124, -0.08996843546628952, 0.17857764661312103, 0.1019493117928505, -0.24098710715770721, 0.1385546624660492, 0.05533882975578308, -0.03433166444301605, 0.33833256363868713, 0.129940927028656, -0.2199331372976303, 0.045773956924676895, -0.05204591155052185, -0.08499012142419815, 0.28323855996131897, 0.16177089512348175, -0.32005971670150757, 0.14185214042663574, -0.0731004923582077, -0.13842906057834625, 0.18089644610881805, -0.08221393823623657, 0.3700914978981018, 0.4323512017726898, -0.055787116289138794, -0.0441509447991848, -0.38582807779312134, -0.04916434735059738, -0.1642274707555771, -0.0516023263335228, -0.26943451166152954, -0.4457602798938751], [0.1105610653758049, 0.004153834655880928, 0.052950263023376465, -0.20269586145877838, -0.2263881266117096, -0.08453266322612762, -0.05284824222326279, 0.19203534722328186, 0.22219936549663544, -0.15696978569030762, 0.29797956347465515, -0.24387548863887787, 0.02240157499909401, -0.1336369812488556, 0.018182113766670227, -0.5299990773200989, 0.15258869528770447, 0.1240406185388565, -0.4028405249118805, 0.2511381506919861, -0.16380909085273743, -0.35225486755371094, -0.27619343996047974, -0.01652122661471367, -0.21458269655704498, -0.21242237091064453, 0.026139680296182632, 0.019658956676721573, 0.12094125151634216, 0.30256348848342896, -0.1739269644021988, 0.23134151101112366, 0.10767198354005814, -0.21676766872406006, -0.2271074801683426, 0.11774571985006332, -0.02622254379093647, 0.10598700493574142, -0.0353810153901577, 0.009400608949363232, 0.18286406993865967, -0.03257650509476662, 0.22972722351551056, -0.34480610489845276, 0.0703343078494072, 0.03670851141214371, 0.18138356506824493, -0.0723513811826706, 0.044193167239427567, 0.07858117669820786, -0.34260857105255127, 0.09813613444566727, -0.20092588663101196, 0.16852498054504395, 0.04412441700696945, 0.1305825263261795, -0.453363835811615, -0.16650241613388062, 0.055513229221105576, -0.1403113454580307, 0.031244812533259392, 0.04784204438328743, -0.056089699268341064, 0.13940629363059998], [-0.02802317403256893, 0.05772341415286064, -0.30580878257751465, -0.12557347118854523, -0.2699534296989441, -0.18694789707660675, 0.126259908080101, 0.556998610496521, 0.29613205790519714, 0.007011687848716974, -0.06357786804437637, 0.2945210039615631, 0.3082573711872101, -0.6503710150718689, 0.2552086412906647, 0.30771368741989136, -0.027550479397177696, -0.19544756412506104, 0.2823045551776886, -0.04507818818092346, -0.20148825645446777, -0.19998657703399658, 0.12967535853385925, -0.39090433716773987, 0.09331615269184113, -0.24190586805343628, -0.4377293884754181, 0.09005337208509445, -0.28049585223197937, 0.06631089001893997, 0.17331969738006592, -0.8323813080787659, -0.34043821692466736, -0.4556851089000702, -0.06384652853012085, -0.039457064121961594, 0.3234662711620331, 0.06834212690591812, 0.14398887753486633, 0.051477402448654175, -0.07120566815137863, -0.028938062489032745, 0.24970842897891998, -0.3752719461917877, -0.5220839977264404, 0.1399412453174591, -0.022935958579182625, -0.6555699706077576, -0.24546074867248535, 0.3319942355155945, 0.1649809181690216, 0.02279953844845295, -0.00941421091556549, -0.07236989587545395, 0.015257664956152439, -0.7021392583847046, 0.23413990437984467, -0.11936995387077332, 0.5824639797210693, 0.0699755921959877, 0.4205409586429596, 0.08681642264127731, 0.001797699835151434, -0.14797230064868927], [-0.022570312023162842, 0.12832868099212646, -0.04488132521510124, -0.32438990473747253, -0.20632582902908325, 0.02109307423233986, -0.05813605338335037, 0.10665696859359741, -0.06950828433036804, -0.1620740294456482, -0.03168788552284241, -0.34520915150642395, 0.04035629332065582, 0.2892971932888031, 0.1583240032196045, 0.38861408829689026, -0.2278434783220291, -0.028363466262817383, 0.10197144746780396, 0.0030385812278836966, 0.08232429623603821, -0.22493372857570648, 0.08477877080440521, -0.2893563210964203, -0.41545143723487854, -0.25609007477760315, -0.06139742210507393, -0.09486821293830872, 0.014814266934990883, -0.08705200999975204, 0.05585658550262451, -0.339447945356369, 0.06157464534044266, -0.048583295196294785, -0.4546522796154022, 0.2262514978647232, -0.02743539772927761, -0.09102752059698105, -0.010647032409906387, 0.2787211537361145, 0.30398836731910706, 0.0009462168673053384, 0.2761891484260559, 0.07757171243429184, -0.4910045862197876, 0.12989050149917603, -0.011279188096523285, -0.0019986864645034075, 0.3502761125564575, 0.2890499234199524, -0.1923050582408905, -0.10399432480335236, 0.1321336179971695, -0.2322150468826294, -0.27231961488723755, 0.08360999822616577, -0.1994834542274475, -0.16799812018871307, 0.021249547600746155, 0.21999405324459076, -0.04633563756942749, 0.0064764064736664295, 0.1998991072177887, 0.25261062383651733], [0.056136418133974075, -0.2260293811559677, -0.0015271067386493087, -0.01989520527422428, -0.11515399068593979, 0.1569775640964508, 0.15028531849384308, -0.12312912195920944, 0.13664023578166962, 0.04699355736374855, -0.14839452505111694, -0.1321241557598114, -0.12340651452541351, 0.06803549081087112, -0.21767665445804596, 0.0613287128508091, 0.033217284828424454, 0.04171629995107651, 0.036878786981105804, 0.14664548635482788, 0.012995513156056404, -0.038747742772102356, 0.08924052119255066, 0.10052428394556046, 0.05410617217421532, 0.026312414556741714, -0.0819290280342102, -0.05218486487865448, 0.07011517882347107, 0.11097293347120285, 0.09406059980392456, 0.12050595879554749, 0.2348717898130417, 0.019876228645443916, 0.20015455782413483, 0.11223245412111282, -0.10637293756008148, 0.08304499834775925, 0.042056046426296234, -0.06717079877853394, 0.08522864431142807, 0.04072605073451996, -0.1517868936061859, -0.022226030007004738, -0.28351765871047974, 0.1249505802989006, -0.09234227240085602, -0.15355658531188965, 0.12455908954143524, -0.05055321380496025, 0.2393689900636673, 0.0362723283469677, 0.2318911850452423, 0.08822731673717499, 0.3061780333518982, 0.1805642694234848, 0.1639259308576584, -0.0009462659945711493, -0.03626394271850586, -0.21109889447689056, -0.057391103357076645, 0.0517115481197834, 0.027476944029331207, -0.190825417637825], [0.20422343909740448, -0.029266413301229477, 0.22272872924804688, 0.21794819831848145, 0.10284027457237244, 0.054946377873420715, 0.08145274221897125, 0.03230080381035805, 0.01329155545681715, -0.0672154501080513, 0.11174185574054718, -0.10167720913887024, 0.10920744389295578, 0.15779462456703186, -0.20160910487174988, 0.10550225526094437, -0.4664042890071869, 0.06046220660209656, -0.03430822119116783, -0.13282187283039093, 0.11579480767250061, 0.27109506726264954, -0.03851361572742462, -0.08656176179647446, 0.28832459449768066, -0.01605740748345852, 0.16585294902324677, 0.14901962876319885, 0.1892947405576706, 0.13402941823005676, 0.12669312953948975, -0.20942546427249908, 0.19649839401245117, 0.02436368353664875, 0.13332146406173706, 0.12531663477420807, -0.10669098049402237, 0.2324243187904358, 0.14622445404529572, 0.06525935232639313, -0.009322808124125004, -0.038528334349393845, 0.08550684154033661, 0.11850230395793915, -0.20352789759635925, 0.14102742075920105, -0.1423773616552353, 0.3477112054824829, 0.11098701506853104, -0.17211996018886566, 0.09451154619455338, -0.32393693923950195, 0.09284711629152298, 0.1226658746600151, 0.22534647583961487, -0.052809782326221466, 0.140891432762146, -0.009289122186601162, 0.05120072513818741, 0.01625160127878189, 0.034077905118465424, 0.13610775768756866, -0.11510220915079117, 0.150001659989357], [-0.49900534749031067, 0.0603286437690258, -0.2494381070137024, -0.08830248564481735, -0.40136149525642395, 0.3544129431247711, 0.006837980356067419, 0.08369232714176178, 0.2326405942440033, 0.03475625440478325, -0.009335501119494438, -0.13635379076004028, 0.19733737409114838, -0.7602766156196594, 0.14923642575740814, 0.14335623383522034, -0.039544858038425446, -0.009364308789372444, 0.35472428798675537, -0.6955543756484985, -0.5631007552146912, 0.2157576084136963, -0.4183638393878937, -0.2507038712501526, -0.03446647524833679, -0.032502856105566025, -0.33737486600875854, -0.4061150848865509, -0.5290223360061646, 0.042543284595012665, 0.19857317209243774, -0.0895436555147171, 0.011790054850280285, -0.08654560148715973, -0.19926081597805023, 0.2595892548561096, 0.07639338076114655, 0.24978531897068024, 0.16889268159866333, -0.17703992128372192, -0.2578344941139221, -0.06678343564271927, 0.386247456073761, -0.053847070783376694, -0.15380744636058807, -0.47755905985832214, -0.1535942405462265, -0.28649386763572693, -0.26115790009498596, 0.297477126121521, 0.049384813755750656, -0.023723144084215164, 0.14552029967308044, -0.27000704407691956, 0.24287766218185425, -0.45457690954208374, 0.08918499946594238, 0.23542466759681702, 0.2319701910018921, -0.19250385463237762, -0.1430235356092453, 0.3634549379348755, 0.2026345282793045, 0.01715315319597721], [0.30496296286582947, 0.060207948088645935, -0.000925950997043401, -0.19282563030719757, -0.33911779522895813, -0.4744206964969635, -0.2300269901752472, 0.13246183097362518, 0.23982375860214233, -0.42534416913986206, 0.13206790387630463, -0.3116929233074188, -0.08725515753030777, -0.1585027426481247, 0.3931398093700409, 0.0828981027007103, -0.03575335443019867, 0.09445565938949585, -0.1008586436510086, -0.1439380943775177, -0.05633239448070526, -0.225251704454422, -0.17793849110603333, -0.295026957988739, 0.053529735654592514, -0.2845950424671173, -0.05185793712735176, -0.1745784729719162, 0.20133616030216217, -0.40232744812965393, -0.31570959091186523, -0.28898850083351135, 0.3759298622608185, -0.09081114083528519, -0.0026542767882347107, 0.25631359219551086, 0.10120406746864319, -0.1902596652507782, -0.2642935812473297, 0.328747034072876, 0.22868871688842773, 0.008565779775381088, 0.3802001476287842, -0.32165682315826416, -0.03615400567650795, -0.13623620569705963, 0.30398955941200256, -0.09408468008041382, 0.14247605204582214, 0.3528262972831726, -0.4824954867362976, 0.313703328371048, 0.08748967945575714, -0.2048749476671219, 0.37662172317504883, 0.09271280467510223, -0.10151927173137665, -0.20334838330745697, 0.24630206823349, 0.09469372034072876, -0.1487434357404709, 0.26045018434524536, 0.19505229592323303, 0.11109081655740738], [0.0775236040353775, -0.06963695585727692, 0.14014138281345367, 0.023545878008008003, -0.026009278371930122, 0.10878480225801468, 0.01036032009869814, -0.06219111755490303, 0.055150385946035385, -0.012130518443882465, 0.0030660934280604124, 0.031193969771265984, -0.15737693011760712, 0.045672107487916946, -0.0520242303609848, 0.08618864417076111, -0.06876685470342636, 0.11747915297746658, 0.05625712126493454, 0.05761783942580223, 0.04208949953317642, 0.10289079695940018, 0.17724987864494324, 0.1522575467824936, 0.12286323308944702, -0.017386453226208687, 0.004866157658398151, -0.03816279023885727, -0.026163658127188683, 0.12116426974534988, 0.03784988448023796, -0.03233495354652405, -0.04687526449561119, 0.12695637345314026, 0.01927318051457405, 0.06465952843427658, -0.1559118628501892, 0.15503577888011932, 0.09518589824438095, -0.07388502359390259, 0.17743760347366333, 0.03889859840273857, 0.017682677134871483, 0.14494651556015015, 0.1506568342447281, 0.11298253387212753, -0.1369195282459259, 0.06403578817844391, -0.10161120444536209, 0.06948992609977722, -0.1012759804725647, 0.08710630238056183, 0.03359827771782875, 0.036588821560144424, 0.12088494747877121, 0.2110241800546646, 0.08876273781061172, -0.04911792650818825, -0.14611023664474487, -0.042896121740341187, -0.1251339465379715, -0.1374119073152542, -0.04140389338135719, -0.23375792801380157], [-0.23008017241954803, -0.0904441699385643, 0.10630649328231812, -0.4042316973209381, -0.2573615610599518, 0.33713608980178833, 0.3350965082645416, 0.16168737411499023, 0.22538241744041443, 0.034560251981019974, -0.3292454481124878, -0.4057596027851105, 0.23288294672966003, -0.23240143060684204, -0.06843886524438858, 0.2776203155517578, -0.03952251747250557, 0.07004410773515701, 0.16721023619174957, 0.017462117597460747, -0.1002969890832901, -0.08978240191936493, -0.27740952372550964, -0.11988689750432968, -0.5064612627029419, -0.2765500247478485, -0.23932306468486786, 0.03891010954976082, -0.15019188821315765, 0.13716304302215576, 0.33202818036079407, -0.16936428844928741, -0.2657390534877777, -0.5412381291389465, 0.24962767958641052, -0.33003973960876465, 0.1532706320285797, -0.054729241877794266, -0.09390585124492645, -0.26493823528289795, 0.16828973591327667, -0.25321346521377563, 0.33261433243751526, 0.05646997690200806, -0.05779670551419258, -0.12336429953575134, 0.057947494089603424, -0.3132430613040924, -0.05373755097389221, 0.2831681966781616, 0.15716871619224548, 0.2749837040901184, -0.1741676926612854, -0.16280969977378845, -0.0896824300289154, -0.49003323912620544, 0.17050862312316895, -0.6182315349578857, 0.36127638816833496, 0.1536560207605362, 0.014870439656078815, 0.08809446543455124, 0.2667604982852936, 0.12088286131620407], [0.09412756562232971, -0.25071513652801514, 0.20723938941955566, 0.18099971115589142, 0.040832772850990295, 0.011124853044748306, -0.12792544066905975, -0.08734604716300964, 0.09024667739868164, -0.07061006128787994, -0.012198508717119694, 0.042077064514160156, 0.22055867314338684, 0.13098213076591492, 0.04267864674329758, 0.1122000440955162, -0.2955353260040283, 0.09295119345188141, -0.036265093833208084, -0.1231425404548645, 0.1914340704679489, -0.13264378905296326, -0.2507769465446472, -0.07714250683784485, 0.044471874833106995, 0.09413295239210129, 0.1322619467973709, 0.0804605782032013, 0.13187800347805023, 0.005888020154088736, 0.17672540247440338, 0.1678091138601303, 0.16280986368656158, 0.04307345673441887, 0.09192445874214172, -0.024471936747431755, -0.21177691221237183, 0.15707698464393616, -0.07636045664548874, 0.08547434210777283, 0.075884148478508, -0.03825408220291138, -0.14304974675178528, 0.16547980904579163, 0.03640489652752876, 0.06841590255498886, -0.03405351564288139, 0.22033092379570007, 0.05445246770977974, -0.10576238483190536, 0.08494044095277786, 0.017166204750537872, 0.07933099567890167, -0.003645230084657669, -0.026273982599377632, 0.08258354663848877, 0.0777374729514122, -0.051749203354120255, 0.12173815816640854, 0.047777555882930756, -0.030246306210756302, 0.06627891957759857, -0.15074746310710907, -0.14046922326087952], [0.10018748044967651, -0.2043682038784027, 0.073309026658535, 0.1477636992931366, 0.04390735551714897, 0.09380172938108444, 0.09498916566371918, -0.17389412224292755, 0.24321730434894562, -0.02185223624110222, -0.23042134940624237, 0.024528443813323975, 0.0992230474948883, 0.16089704632759094, -0.1002034991979599, 0.09675262123346329, -0.3111218512058258, 0.003110912861302495, 0.09947893768548965, 0.07489866018295288, 0.0819753110408783, 0.13617610931396484, -0.10790079832077026, 0.16054730117321014, 0.13340280950069427, 0.008526678197085857, 0.04585275799036026, 0.16755078732967377, 0.1326822191476822, 0.1690250039100647, -0.047399651259183884, 0.2795788645744324, 0.20095020532608032, -0.17603430151939392, 0.07769577205181122, 0.09025634825229645, -0.10858425498008728, 0.06377098709344864, -0.04100405052304268, -0.039340540766716, 0.04055114835500717, 0.03250833973288536, -0.03947490453720093, 0.009362227283418179, 0.06405741721391678, 0.1866118311882019, -0.06938052922487259, 0.2854878008365631, 0.07958202064037323, -0.08602576702833176, 0.043132852762937546, 0.08149822056293488, 0.19527025520801544, -0.07400546222925186, -0.05730215087532997, 0.015316813252866268, -0.012917833402752876, -0.06998244673013687, -0.06947913765907288, 0.07260178029537201, -0.1337839514017105, 0.044779568910598755, -0.2743200361728668, -0.1504824012517929], [-0.3316916227340698, -0.03996836766600609, 0.08551845699548721, -0.027269933372735977, -0.09814701229333878, 0.35061681270599365, -0.055287010967731476, 0.5099598169326782, -0.03386085480451584, -0.6005364656448364, -0.027482973411679268, -0.07141488045454025, 0.3981325626373291, -0.14720527827739716, -0.05928970128297806, 0.26676660776138306, 0.05558793991804123, 0.36619848012924194, -0.07295931875705719, 0.3982486426830292, -0.25193455815315247, -0.18756985664367676, -0.29891595244407654, -0.0903971791267395, -0.17087970674037933, -0.3367499113082886, -0.6905163526535034, 0.04428518936038017, -0.22427985072135925, -0.16311287879943848, -0.3405354619026184, -0.29277151823043823, -0.26552706956863403, -0.17347532510757446, 0.01191137358546257, -0.10048171877861023, -0.1343456506729126, 0.2211204469203949, -0.27562108635902405, 0.16879214346408844, -0.12438652664422989, -0.0163160040974617, 0.30189263820648193, -0.16021642088890076, 0.012273522093892097, -0.254317969083786, 0.3982227146625519, -0.5868523716926575, -0.011494922451674938, 0.2547585368156433, 0.19854454696178436, 0.3369412124156952, -0.6376980543136597, -0.3971927762031555, 0.19889162480831146, -0.3942989110946655, -0.22438937425613403, -0.5292569994926453, 0.21982616186141968, 0.44072335958480835, 0.16227488219738007, 0.39185258746147156, 0.24602943658828735, 0.37043339014053345], [0.12215009331703186, -0.01359214261174202, 0.18412412703037262, 0.026603057980537415, -0.05296824872493744, 0.18022635579109192, 0.14125637710094452, -0.07714538276195526, 0.1815967708826065, 0.012169106863439083, 0.033393751829862595, -0.14606362581253052, 0.0010008045937865973, -0.029427792876958847, -0.1743972897529602, 0.08598380535840988, 0.03994094580411911, 0.05435696244239807, -0.03603706136345863, -0.022388070821762085, -0.07213296741247177, 0.2528010606765747, 0.19340501725673676, 0.06904186308383942, 0.033880941569805145, -0.0009047599160112441, 0.08422955125570297, -0.034683022648096085, 0.18033787608146667, 0.12253335118293762, 0.06755082309246063, 0.0876212790608406, 0.2002713680267334, 0.163576140999794, 0.12820731103420258, 0.13382692635059357, 0.012678828090429306, 0.15002118051052094, -0.029812905937433243, -0.2691376805305481, 0.09897806495428085, 0.10866627842187881, 0.042375463992357254, 0.08154384791851044, -0.1864515095949173, 0.21233762800693512, -0.13814517855644226, 0.2370581030845642, 0.043045055121183395, 0.12321116775274277, 0.021938461810350418, -0.1539776623249054, 0.06240439787507057, 0.12540629506111145, 0.24782922863960266, 0.1902831792831421, 0.237379789352417, 0.09455585479736328, 0.1451135277748108, 0.0910293236374855, -0.07987146824598312, 0.01704104244709015, 0.08780595660209656, 0.0429963581264019], [0.06334187090396881, -0.08522447943687439, 0.10336024314165115, 0.047731541097164154, 0.0006847300101071596, 0.018125606700778008, 0.14812548458576202, -0.06428482383489609, 0.1425836682319641, 0.06479568779468536, -0.12330929189920425, 0.08056509494781494, -0.1298864483833313, -0.034105874598026276, 0.020323889330029488, -0.010211824439466, 0.019870687276124954, -0.022887753322720528, -0.08286210149526596, 0.12330110371112823, 0.060068681836128235, 0.06835669279098511, 0.12062271684408188, 0.006546431221067905, 0.11983153223991394, -0.06926806271076202, 0.10966400802135468, -0.011632421985268593, 0.0012606731615960598, 0.03989002853631973, 0.07898925989866257, 0.05596177279949188, 0.2609628140926361, -0.11436372250318527, 0.09198173135519028, 0.1449190229177475, -0.10309652984142303, 0.08789533376693726, -0.03118433617055416, -0.10819298774003983, 0.09522965550422668, 0.08368512243032455, -0.1887180358171463, 0.025021884590387344, -0.13010123372077942, 0.09822311252355576, 0.00673640938475728, 0.02527659758925438, -0.04606134817004204, 0.13070283830165863, 0.15329834818840027, 0.03053356148302555, 0.13184021413326263, -0.01871473714709282, 0.15348799526691437, 0.19186659157276154, 0.14038053154945374, 0.016943328082561493, -0.28332239389419556, -0.27826887369155884, -0.041688960045576096, -0.1141367107629776, -0.04855111986398697, -0.056249212473630905], [0.03748353570699692, -0.2727382481098175, -0.02196778543293476, 0.027705607935786247, -0.032668519765138626, -0.03170633688569069, 0.14593328535556793, -0.08115492761135101, 0.13359665870666504, 0.07509981840848923, -0.2726067006587982, 0.012493071146309376, -0.0866958275437355, 0.12811529636383057, -0.12781648337841034, 0.06466234475374222, -0.15361526608467102, 0.11973846703767776, -0.022193828597664833, 0.09310415387153625, 0.1427326649427414, -0.03199886903166771, 0.03373940289020538, 0.09315350651741028, 0.12327402830123901, 0.04392945021390915, 0.06702077388763428, 0.017865698784589767, 0.12205514311790466, 0.09165437519550323, 0.03900650888681412, 0.0836903378367424, 0.21731096506118774, -0.04038788750767708, 0.11964060366153717, 0.1698562055826187, -0.114278145134449, 0.12985241413116455, 0.036484330892562866, -0.08692919462919235, 0.12981262803077698, 0.19208839535713196, -0.18815574049949646, -0.07640480250120163, -0.03722487762570381, 0.020921170711517334, -0.025607461109757423, -0.0423569492995739, 0.0208039041608572, -0.055819373577833176, 0.09394891560077667, 0.09781313687562943, 0.11670806258916855, 0.10703667998313904, 0.18403220176696777, 0.22729498147964478, 0.13823507726192474, -0.00452895974740386, -0.12337709218263626, -0.22222882509231567, -0.020394114777445793, 0.009792326018214226, -0.0756315216422081, -0.1369836926460266], [0.2928295135498047, 0.0831410363316536, -0.1367371827363968, -0.09648340195417404, -0.5591809153556824, -0.13244600594043732, -0.22704900801181793, 0.08997971564531326, 0.08401839435100555, 0.034656643867492676, 0.13108877837657928, 0.22323693335056305, 0.12829041481018066, -0.04116356372833252, 0.22541844844818115, -0.25192517042160034, -0.19313108921051025, -0.14541082084178925, -0.011257014237344265, 0.0252638328820467, -0.17106901109218597, -0.16059711575508118, -0.17667557299137115, -0.3261287808418274, 0.2964777946472168, -0.30363085865974426, -0.25346875190734863, -0.5929428339004517, 0.16446872055530548, -0.052350569516420364, -0.1705034077167511, -0.25429973006248474, 0.11449450254440308, -0.3973549008369446, -0.11872400343418121, 0.3110322654247284, 0.022785989567637444, -0.14008985459804535, -0.08124638348817825, 0.01553479116410017, 0.319415807723999, -0.3008427023887634, 0.24579685926437378, -0.024727467447519302, 0.3859851062297821, 0.05433780327439308, 0.1295120269060135, -0.09487489610910416, 0.12775422632694244, 0.08857093006372452, -0.7869535684585571, 0.10431424528360367, 0.2272738665342331, -0.019917309284210205, 0.037140265107154846, 0.25183403491973877, -0.16095733642578125, -0.23096339404582977, 0.163622185587883, -0.048299238085746765, -0.0001361809263471514, 0.2784588932991028, 0.12552866339683533, 0.1785791665315628], [-0.22481386363506317, 0.1797867864370346, -0.20660988986492157, 0.08758023381233215, -0.18106132745742798, -0.0672723576426506, -0.05674105882644653, 0.24295327067375183, -0.4515841007232666, 0.18499882519245148, 0.5762574076652527, -0.4218078553676605, 0.046460624784231186, -0.0729287713766098, 0.0858914777636528, 0.06047721952199936, -0.08973553776741028, -0.0010808792430907488, 0.22610871493816376, -0.22413326799869537, -0.22967427968978882, -0.24477070569992065, -0.037390027195215225, -0.3612832725048065, 0.0428604856133461, 0.10916746407747269, -0.12757252156734467, -0.3609507083892822, -0.6555792093276978, -0.4776679575443268, -0.2937956750392914, 0.22287902235984802, 0.28139927983283997, 0.01829444244503975, -0.15629607439041138, 0.295276939868927, 0.2781085669994354, -0.1762000322341919, -0.44231894612312317, 0.25189706683158875, -0.29000505805015564, -0.4370960295200348, 0.2306216061115265, 0.3029311001300812, 0.0013949996791779995, -0.15109363198280334, 0.09400605410337448, -0.18281851708889008, 0.13148754835128784, 0.06584575027227402, -0.38213980197906494, 0.10214003920555115, 0.1816297024488449, 0.051469407975673676, -0.1678433120250702, -0.30103832483291626, -0.2593153715133667, 0.051610544323921204, 0.12405505776405334, -0.27898719906806946, 0.013579485937952995, -0.11216463148593903, 0.16512201726436615, 0.2810349464416504], [-0.08814387023448944, -0.009145156480371952, 0.04994295910000801, 0.36787787079811096, -0.629178524017334, -0.2780570089817047, -0.1245114803314209, 0.08013942092657089, -0.003493716474622488, 0.004369063768535852, 0.27067306637763977, -0.6582853198051453, 0.3676135838031769, -0.4140715003013611, 0.4297890365123749, 0.004685800522565842, -0.2886156737804413, -0.6293126940727234, 0.5460381507873535, -0.5201161503791809, -0.5821235179901123, -0.22771555185317993, 0.051940012723207474, 0.03338087722659111, -0.1373337060213089, -0.07526157051324844, 0.06997644901275635, -0.42988234758377075, -0.24533383548259735, 0.15912790596485138, -0.09034551680088043, -0.10505657643079758, -0.3318121135234833, 0.2477005273103714, -0.5067077279090881, 0.016101570799946785, 0.4216972589492798, -0.7261288166046143, -0.2713013291358948, 0.11138083040714264, -0.42022407054901123, -0.8296944499015808, -0.07147566229104996, 0.055662550032138824, 0.03204026445746422, 0.048930224031209946, 0.09279219806194305, 0.0388176329433918, 0.013700870797038078, 0.13000799715518951, -0.360842764377594, 0.35450848937034607, -0.09829141944646835, 0.2578844130039215, 0.2155562937259674, 0.18967849016189575, -0.15880686044692993, -0.24233496189117432, 0.31048738956451416, 0.03563426434993744, 0.7067018151283264, 0.42100879549980164, -0.188302144408226, 0.1885290890932083], [0.0792083591222763, -0.20535068213939667, 0.2707531750202179, 0.05358124524354935, 0.13211680948734283, -0.0097888745367527, 0.20443964004516602, -0.1093440130352974, 0.05302968993782997, 0.24064254760742188, -0.14498834311962128, 0.16939383745193481, -0.10923592746257782, 0.0240843016654253, -0.14754648506641388, 0.12117088586091995, -0.3072495758533478, 0.17324554920196533, 0.05991283804178238, 0.09466604143381119, 0.167647585272789, 0.15541619062423706, 0.03019411861896515, -0.005639367736876011, 0.15636751055717468, 0.012024590745568275, 0.173593208193779, 0.04231306537985802, 0.125387504696846, 0.09707967191934586, 0.06286482512950897, 0.015958275645971298, 0.12923642992973328, -0.057443615049123764, 0.11844506859779358, -0.06471076607704163, -0.04927995055913925, 0.10029636323451996, -0.0898825004696846, -0.03091055527329445, 0.2427164763212204, 0.04294328764081001, -0.24762596189975739, 0.12474353611469269, 0.07773012667894363, 0.22628982365131378, 0.010864242911338806, 0.342933714389801, -0.05867788940668106, 0.08738427609205246, 0.12583929300308228, -0.32071200013160706, 0.2522672414779663, 0.10710012912750244, 0.2003650665283203, 0.15798228979110718, 0.10927968472242355, -0.12039914727210999, -0.12440316379070282, 0.08676444739103317, -0.0037176981568336487, 0.1341022253036499, -0.24661663174629211, -0.31015849113464355], [0.32925015687942505, -0.4116230607032776, 0.1970638632774353, 0.190089613199234, 0.18875780701637268, 0.1907503455877304, -0.05001436173915863, -0.0697019174695015, 0.1066744327545166, 0.03964449092745781, -0.19049696624279022, 0.014351756311953068, -0.09427676349878311, 0.11379905790090561, 0.009621266275644302, 0.14939787983894348, -0.8391228318214417, -0.03100069798529148, 0.10304681211709976, 0.28017547726631165, -0.13458289206027985, -0.13132500648498535, -0.07730027288198471, 0.11759704351425171, 0.21041899919509888, 0.030068334192037582, 0.2442239224910736, 0.20561417937278748, 0.1661180555820465, 0.12810611724853516, 0.29060518741607666, 0.10339216887950897, 0.08850441873073578, -0.2610560655593872, 0.02002009004354477, 0.06817971169948578, -0.19918125867843628, 0.09934095293283463, 0.041424814611673355, 0.41534897685050964, 0.04193349555134773, -0.12214594334363937, -0.07705438882112503, 0.1157313659787178, -0.24271197617053986, 0.2323281168937683, -0.3059018552303314, -0.0025812701787799597, 